svm_type c_svc
kernel_type rbf
gamma 0.0454545
nr_class 16
total_sv 5289
rho 0.813211 -0.184646 1.39791 0.0302316 0.164646 0.512607 1.71023 -0.133873 0.325938 0.383494 0.781394 0.549589 0.64572 0.527429 -0.305585 0.457505 2.29898 -1.70509 -0.0576529 3.13327 0.0695485 -0.893991 -0.52721 -0.80992 0.107326 -0.903469 -0.0826249 -0.443735 -0.945677 1.57546 -1.49029 -2.17324 -0.73195 2.15368 -0.599323 -0.681827 -1.05619 -0.529091 -0.52923 0.35627 -0.38075 -0.843712 -5.50227 -4.40207 -0.751859 -0.428668 -1.25417 -1.49232 -1.19716 -0.973069 -1.01788 -0.686812 -0.980008 -1.0715 1.5117 0.558908 1.505 -0.239539 0.465157 1.02778 0.996867 1.0513 0.515672 0.113059 -0.156761 0.725962 2.31798 -1.36513 -0.0796121 -0.525514 0.578024 -0.259928 0.584158 -0.179046 -0.715575 -0.28767 -0.114564 0.333289 -0.849968 0.147309 -0.483527 -0.0269528 -0.630371 -0.526337 -0.669551 -0.494431 -0.966122 0.0262649 -0.499538 -0.235576 -0.508583 -1.43529 0.356164 0.951682 0.966588 0.34678 0.831581 0.331252 0.338891 0.36437 0.451673 0.175223 0.248806 -0.330145 -0.307687 0.743126 0.547229 0.339112 0.261635 -1.11455 -0.480576 0.0909112 -0.489849 -1.01826 0.645822 -0.0479747 -0.421506 -0.209096 -1.14955 -0.184992
label 9 2 6 1 5 3 4 7 15 14 10 8 11 16 12 13
nr_sv 167 858 364 1006 490 737 513 358 76 69 177 129 146 49 61 89
SV
0 0 1 0 0 0 0 0 0 0 0 0 0 0 0 1:0.333333 2:0.037037 3:-1 5:-0.6 6:1 7:-0.4 8:-0.737374 9:-0.878788 10:-1 11:-0.833333 12:-0.578947 13:-0.246753 14:0.454545 15:-0.0159744 16:0.548894 17:0.548301 18:0.0625 19:-0.0909091 20:-0.677419 21:0.272727 22:-1 
0 0 1 0 1 0 1 0 0 1 0 0 1 0 1 1:0.142857 2:-0.037037 3:-1 5:-0.6 6:1 7:-0.4 8:-0.757576 9:-0.878788 10:-1 11:-0.833333 12:-0.663158 13:-0.324675 14:0.454545 15:0.495208 16:-0.104668 17:-0.0926049 18:-0.75 19:-0.454545 20:-0.741935 21:-0.272727 22:-1 
1 1 1 1 1 0 1 0 0 1 0 0 0 0 0 1:-0.047619 2:-0.185185 3:-1 5:-0.6 6:1 7:-0.4 8:-0.777778 9:-0.878788 10:-1 11:-0.833333 12:-0.621053 13:-0.324675 14:0.454545 15:-0.72524 16:-0.449631 17:-0.428381 18:-0.75 19:-0.272727 20:-0.354839 21:-0.454545 22:0.933333 
0 0 1 0 0 0 0 0 0 0 0 0 1 0 1 1:-0.047619 2:0.333333 3:-1 5:0.2 6:1 7:-0.4 8:-0.777778 9:-0.636364 10:-1 11:-0.833333 12:-0.663158 13:-0.0649351 14:0.636364 15:-0.0479233 16:0.201966 17:0.20986 18:-0.75 19:-0.454545 20:-0.16129 21:-0.0909091 22:-0.0666667 
0 1 1 1 1 0 1 0 0 0 0 0.3775673269957492 0 1 0 1:-0.714286 2:-0.333333 3:-1 5:-0.6 6:-1 7:-0.4 8:-0.717172 9:-0.757576 10:-1 11:-0.833333 12:-0.557895 13:-0.324675 14:0.454545 15:-0.72524 16:-0.42113 17:-0.38974 18:-0.75 19:-0.272727 20:0.483871 21:-0.0909091 22:-1 
0 1 1 0.6306044367507383 1 0 1 0 0.8577093155382285 1 0 1 0.3803355691284401 0.02190000386517025 0 1:-0.047619 2:-0.185185 3:-1 5:0.2 6:1 7:-0.4 8:-0.757576 9:-0.636364 10:-1 11:-0.833333 12:-0.663158 13:-0.246753 14:0.454545 15:-0.361022 16:-0.810319 17:-0.784144 18:0.0625 19:1 20:-0.225806 21:1 22:-0.0666667 
0 1 1 0 1 0 1 0 0 0 0 0 0 0 0 1:-0.047619 2:-0.851852 3:-1 5:-0.6 6:-1 7:-0.4 8:-0.858586 9:-0.757576 10:-1 11:-0.833333 12:-0.663158 13:-0.246753 14:0.454545 15:-0.744409 16:-0.308108 17:-0.26982 18:-0.75 19:-0.272727 20:-0.0322581 21:-0.636364 22:-0.0666667 
0 1 1 1 1 0 1 0 0 0 0 1 0 0 0 1:-0.047619 2:-0.185185 3:-1 5:-0.6 6:1 7:-0.4 8:-0.777778 9:-0.878788 10:-1 11:-0.833333 12:-0.642105 13:-0.324675 14:0.454545 15:-0.72524 16:-0.449631 17:-0.428381 18:-0.75 19:1 20:-0.0967742 21:-0.0909091 22:-1 
0 1 1 1 1 0.841212634474193 1 0 0 1 0 1 0 0 0 1:-0.047619 2:-0.851852 3:-1 5:-0.6 6:1 7:-0.4 8:-0.717172 9:-0.757576 10:-1 11:-0.833333 12:-0.536842 13:-0.246753 14:0.454545 15:-0.744409 16:-0.308108 17:-0.26982 18:-0.75 19:0.454545 20:0.0967742 21:-1 22:-0.0666667 
1 1 1 1 1 1 1 1 0.8446299433186238 1 1 1 1 0 1 1:0.333333 2:-0.851852 3:-1 5:-0.6 6:1 7:-0.4 8:-0.757576 9:-0.878788 10:-1 11:-0.833333 12:-0.621053 13:-0.74026 14:-1 15:0.463259 16:-0.152826 17:-0.133911 18:-0.75 19:0.0909091 20:-0.354839 21:-0.0909091 22:-1 
0 1 1 0 0 0 1 0 0 0 0 0 0 0 0 1:0.047619 2:-0.037037 3:-1 5:-0.6 6:-1 7:-0.4 8:-0.737374 9:-0.757576 10:-1 11:-0.833333 12:-0.6 13:-0.012987 14:0.636364 15:-0.603834 16:-0.886978 17:-0.86942 18:-0.75 19:-0.0909091 20:-0.548387 21:0.272727 22:-0.0666667 
0 1 1 1 1 0 1 0 0.6947382190678946 0.606545695687696 0 0 0 0.8795154080059591 0 1:-0.714286 2:-0.333333 3:-1 5:-0.6 6:-1 7:-0.4 8:-0.858586 9:-0.757576 10:-1 11:-0.833333 12:-0.705263 13:-0.246753 14:0.454545 15:-0.744409 16:-0.323833 17:-0.297801 18:-0.75 19:-0.636364 20:0.870968 21:-0.454545 22:-1 
1 1 1 1 1 1 1 1 1 1 1 1 0 1 1 1:-0.809524 2:-0.851852 3:-1 5:-0.6 6:-1 7:-0.4 8:-0.717172 9:-0.757576 10:-1 11:-0.833333 12:-0.6 13:0.246753 14:-1 15:-0.271565 16:-0.111548 17:-0.304464 18:-0.75 19:-0.454545 20:-0.0322581 21:-0.454545 22:-0.0666667 
0 0 1 0 0 0 1 0 0 0 0 0 0 0 0 1:0.047619 2:-0.111111 3:-1 5:-0.4 6:1 7:-0.4 8:-0.79798 9:-0.818182 10:-1 11:-0.833333 12:-0.621053 13:-0.0649351 14:0.636364 15:-0.0479233 16:0.201966 17:0.20986 18:-0.75 19:1 20:0.0967742 21:-1 22:-0.0666667 
0 1 1 1 1 0 1 0 0 1 0 1 0 0 0 1:-0.047619 2:-0.851852 3:-1 5:-0.6 6:1 7:-0.4 8:-0.717172 9:-0.757576 10:-1 11:-0.833333 12:-0.621053 13:-0.246753 14:0.454545 15:-0.744409 16:-0.308108 17:-0.26982 18:-0.75 19:0.454545 20:0.0967742 21:0.454545 22:-0.0666667 
0 1 1 0 0.7506314440185536 0 1 0 0 1 0 0.6372712348546377 0 0 0 1:0.238095 2:-0.185185 3:-1 5:-0.6 6:1 7:-0.4 8:-0.737374 9:-0.878788 10:-1 11:-0.833333 12:-0.642105 13:-0.246753 14:0.454545 15:-0.744409 16:0.723833 17:0.736176 18:-0.75 19:-0.272727 20:0.483871 21:-0.0909091 22:-1 
0 1 1 0.9107664562303981 1 0 1 0 0 0 0 0 0 0 0 1:-0.047619 2:-0.851852 3:-1 5:-0.6 6:-1 7:-0.4 8:0.919192 9:-0.757576 10:-1 11:-0.833333 12:-0.326316 13:-0.246753 14:0.454545 15:-0.744409 16:-0.308108 17:-0.26982 18:-0.75 19:-0.0909091 20:-0.0322581 21:0.0909091 22:-1 
0 0 1 0 0 0 1 0 0 0 0 0 0 0 1 1:0.047619 2:-0.111111 3:-1 5:-0.6 6:1 7:-0.4 8:-0.777778 9:-0.878788 10:-1 11:-0.833333 12:-0.621053 13:-0.0649351 14:0.636364 15:-0.0479233 16:0.201966 17:0.20986 18:-0.75 19:1 20:0.870968 21:-1 22:-0.0666667 
1 1 1 1 1 0 1 0 0 1 0 1 1 1 0 1:-0.047619 2:0.333333 3:-1 5:-0.6 6:-1 7:-0.4 8:0.79798 9:-0.757576 10:-1 11:-0.833333 12:-0.452632 13:-0.246753 14:0.454545 15:-0.744409 16:-0.308108 17:-0.26982 18:-0.75 19:0.636364 20:0.612903 21:0.636364 22:-0.0666667 
1 1 1 0.9206362060054851 1 0 1 0 0 1 0 0.5694404131271931 0 0 0 1:-0.714286 2:-0.851852 3:-1 5:-0.6 6:1 7:-0.4 8:-0.69697 9:-0.757576 10:-1 11:-0.833333 12:-0.578947 13:-0.012987 14:0.636364 15:-0.603834 16:0.871253 17:0.882745 18:-0.75 19:-0.818182 20:-0.806452 21:0.272727 22:-1 
0.8888350912096782 1 1 1 1 0 1 0 0 0.7781690790698026 0 0.9278572137674194 0 0 0 1:-0.047619 2:-0.851852 3:-1 5:-0.6 6:-1 7:-0.4 8:-0.737374 9:-0.878788 10:-1 11:-0.833333 12:-0.642105 13:-0.324675 14:0.454545 15:-0.72524 16:-0.0162162 17:-0.0139907 18:-0.75 19:0.272727 20:0.677419 21:-0.272727 22:-1 
0 1 1 0 1 0 1 0 0 1 0 0 0 0 0 1:-0.809524 2:-0.333333 3:-1 5:-0.6 6:1 7:-0.4 8:-0.737374 9:-0.878788 10:-1 11:-0.833333 12:-0.578947 13:-0.0649351 14:0.636364 15:-0.635783 16:-0.896806 17:-0.878748 18:-0.75 19:0.454545 20:0.225806 21:0.454545 22:-0.0666667 
1 1 1 1 1 0.3213088848675094 1 0 1 0 0.9340993670655434 0 0 1 0 1:-0.714286 2:-0.333333 3:-1 5:-0.6 6:-1 7:-0.4 8:0.979798 9:-0.757576 10:-1 11:-0.833333 12:-0.684211 13:-0.324675 14:0.454545 15:-0.72524 16:-0.42113 17:-0.38974 18:-0.75 19:-0.818182 20:-0.612903 21:-0.818182 22:-0.0666667 
1 1 1 1 1 0.7965217836330959 1 0 0 1 1 1 0.519170282348918 1 0 1:-0.047619 2:-0.851852 3:-1 5:-0.6 6:-1 7:-0.4 8:-0.69697 9:-0.878788 10:-1 11:-0.833333 12:-0.557895 13:-0.324675 14:0.454545 15:-0.72524 16:-0.0162162 17:-0.0139907 18:-0.75 19:-1 20:0.870968 21:0.818182 22:-0.0666667 
1 1 1 1 1 0 1 0 0 1 1 1 0 0 0 1:-0.047619 2:-0.851852 3:-1 5:-0.6 6:-1 7:-0.4 8:-0.737374 9:-0.878788 10:-1 11:-0.833333 12:-0.578947 13:-0.324675 14:0.454545 15:-0.72524 16:-0.0162162 17:-0.0139907 18:-0.75 19:-0.272727 20:-0.419355 21:-0.636364 22:-0.0666667 
0 0 1 0 0 0 1 0 0 0 0 0 0 0 0.2658146729262559 1:0.047619 2:-0.111111 3:-1 5:-0.6 6:1 7:-0.4 8:-0.717172 9:-0.878788 10:-1 11:-0.833333 12:-0.621053 13:-0.0649351 14:0.636364 15:-0.0479233 16:0.201966 17:0.20986 18:-0.75 19:-0.636364 20:-0.290323 21:-1 22:-0.0666667 
0 1 1 0 1 0 1 1 1 0 0 0 0 0 1 1:-0.809524 2:-0.851852 3:-1 5:-0.6 6:-1 7:-0.4 8:-0.777778 9:-0.757576 10:-1 11:-0.833333 12:-0.621053 13:0.272727 14:0.636364 15:-0.182109 16:-0.0633907 17:-0.0526316 18:-0.75 19:-0.636364 20:1 21:-0.454545 22:-1 
1 1 1 1 1 0 1 0 0 1 1 0 0 0 1 1:-0.714286 2:-0.481481 3:-1 5:-0.6 6:-1 7:-0.4 8:-0.878788 9:-0.757576 10:-1 11:-0.833333 12:-0.726316 13:-0.246753 14:0.454545 15:-0.361022 16:0.0820639 17:0.0912725 18:-0.75 19:-0.272727 20:0.225806 21:-0.0909091 22:-1 
1 1 1 1 1 0 1 0 0 1 0.8122631094585665 1 0 0.591323934664301 0 1:-0.809524 2:0.333333 3:-1 5:-0.6 6:-1 7:-0.4 8:0.979798 9:-0.757576 10:-1 11:-0.833333 12:-0.473684 13:-0.246753 14:0.454545 15:-0.744409 16:0.278624 17:-0.26982 18:-0.75 19:-0.818182 20:0.548387 21:-0.818182 22:-0.0666667 
0 1 1 1 1 0 1 0 0 1 0 1 0 0 1 1:0.047619 2:-0.111111 3:-1 5:-0.6 6:1 7:1 8:-0.69697 9:-0.757576 10:-1 11:-0.833333 12:-0.536842 13:-0.246753 14:0.272727 15:-0.361022 16:-0.804423 17:-0.781479 18:-0.75 19:-0.0909091 20:-0.225806 21:0.0909091 22:-0.0666667 
1 1 1 0 1 0 1 0 0 0 0 1 0 1 0 1:0.238095 2:-0.185185 3:-1 5:-0.6 6:-1 7:-0.4 8:-0.79798 9:-0.757576 10:-1 11:-0.833333 12:-0.705263 13:-0.324675 14:0.454545 15:-0.72524 16:-0.405405 17:-0.38974 18:-0.75 19:0.454545 20:-0.935484 21:0.454545 22:-0.0666667 
1 1 1 0 1 0 1 0 0 0 0 0 0 0 0 1:-0.047619 2:-0.851852 3:-1 5:-0.6 6:-1 7:-0.4 8:-0.737374 9:-0.757576 10:-1 11:-0.833333 12:-0.557895 13:-0.246753 14:0.454545 15:-0.744409 16:-0.308108 17:-0.26982 18:-0.75 19:-0.454545 20:-0.354839 21:-0.454545 22:-0.0666667 
1 1 1 1 1 1 1 1 1 1 1 1 1 1 1 1:0.333333 2:-0.185185 3:-1 5:-0.6 6:1 7:-0.4 8:-0.717172 9:-0.878788 10:-0.6 11:-0.666667 12:-0.705263 13:-0.558442 14:-0.818182 15:-0.533546 16:-0.646192 17:-0.621586 18:-0.75 19:-0.272727 20:-0.419355 21:1 22:-1 
0 0 1 0 0 0 1 0 0 0 0 0 0 0 0.8621832418074555 1:0.047619 2:-0.111111 3:-1 5:-0.4 6:1 7:-0.4 8:-0.79798 9:-0.818182 10:-1 11:-0.833333 12:-0.6 13:-0.0649351 14:0.636364 15:-0.0479233 16:0.201966 17:0.20986 18:-0.75 19:1 20:0.0967742 21:-1 22:-0.0666667 
0.2204735275514059 0 1 1 1 0 1 1 0 1 0 1 1 0 1 1:0.238095 2:0.037037 3:-1 5:-0.6 6:1 7:-0.4 8:-0.717172 9:-0.878788 10:-1 11:-0.833333 12:-0.6 13:-0.038961 14:-0.0909091 15:-0.194888 16:0.296314 17:0.297801 18:-0.75 19:0.0909091 20:0.0967742 21:0.636364 22:-1 
1 1 1 1 1 1 1 0 1 1 1 1 0 1 1 1:0.238095 2:0.185185 3:-1 5:-0.6 6:-1 7:-0.4 8:-0.757576 9:-0.757576 10:-1 11:-0.833333 12:-0.6 13:-0.844156 14:-0.0909091 15:-0.955272 16:-0.517445 17:-0.491006 18:-0.9375 19:-0.636364 20:-0.483871 21:-0.636364 22:-0.0666667 
0 1 1 0 1 0.4835776309895363 1 0 0 1 0 0 0 0 0 1:0.142857 2:-1 3:-1 5:0.2 6:1 7:-0.4 8:-0.69697 9:-0.636364 10:-1 11:-0.833333 12:-0.536842 13:-0.246753 14:0.454545 15:-0.361022 16:-0.805405 17:-0.780147 18:0.0625 19:-0.0909091 20:-0.225806 21:0.0909091 22:-0.0666667 
0 1 1 1 1 0 1 0 0 1 0 1 0 0 0 1:-0.047619 2:-0.185185 3:-1 5:-0.6 6:1 7:-0.4 8:-0.757576 9:-0.878788 10:-1 11:-0.833333 12:-0.578947 13:-0.324675 14:0.454545 15:-0.72524 16:-0.449631 17:-0.428381 18:-0.75 19:1 20:0.0967742 21:-0.818182 22:-0.0666667 
1 1 1 1 1 1 1 1 1 1 1 1 1 1 1 1:-0.809524 2:-0.851852 3:-1 5:-0.6 6:-1 7:-0.4 8:-0.737374 9:-0.757576 10:-1 11:-0.833333 12:-0.578947 13:0.246753 14:-1 15:-0.271565 16:-0.111548 17:-0.304464 18:-0.75 19:-0.818182 20:0.806452 21:-1 22:-0.0666667 
1 1 1 1 1 1 0 1 0 1 1 1 0 0 1 1:0.238095 2:0.185185 3:-1 5:-0.6 6:1 7:-0.4 8:-0.777778 9:-0.878788 10:-1 11:-0.833333 12:-0.663158 13:-0.558442 14:-0.818182 15:-0.533546 16:0.434889 17:0.439041 18:-0.75 19:0.454545 20:0.0322581 21:-0.454545 22:-0.0666667 
1 1 1 1 1 1 1 1 1 1 1 1 0 1 1 1:-0.904762 2:-0.925926 3:-1 5:0.2 6:1 7:-0.4 8:-0.737374 9:-0.636364 10:-1 11:-0.833333 12:-0.642105 13:-0.74026 14:-1 15:-0.686901 16:-0.0447174 17:-0.0526316 18:-0.75 19:0.636364 20:-0.548387 21:0.636364 22:-0.0666667 
0 0 1 0 1 0 1 0 0 1 0 1 0 0 1 1:0.333333 2:0.037037 3:-1 5:-0.6 6:1 7:-0.4 8:-0.79798 9:-0.878788 10:-1 11:-0.833333 12:-0.642105 13:-0.246753 14:0.454545 15:-0.0159744 16:0.548894 17:0.548301 18:0.0625 19:0.454545 20:0.935484 21:0.636364 22:-0.0666667 
1 1 1 1 1 1 1 1 0 1 1 1 1 1 1 1:0.333333 2:-0.185185 3:-1 5:-0.6 6:1 7:-0.4 8:-0.69697 9:-0.878788 10:-1 11:-0.833333 12:-0.536842 13:-0.558442 14:-0.818182 15:-0.533546 16:-0.646192 17:-0.621586 18:-0.75 19:-0.636364 20:-0.290323 21:-0.636364 22:-0.0666667 
0.8514006759630053 0 1 0 1 0 1 0 0 1 0 1 0 0 0 1:0.142857 2:-0.111111 3:-1 5:-0.6 6:1 7:-0.4 8:-0.757576 9:-0.878788 10:-1 11:-0.833333 12:-0.6 13:-0.246753 14:0.454545 15:-0.0159744 16:0.548894 17:0.548301 18:0.0625 19:0.636364 20:-0.806452 21:1 22:-0.0666667 
1 1 1 0 1 0 1 0 0 1 0 0 0 1 0 1:-0.047619 2:-0.851852 3:-1 5:-0.6 6:-1 7:-0.4 8:-0.959596 9:-0.757576 10:-1 11:-0.833333 12:-0.410526 13:-0.246753 14:0.454545 15:-0.744409 16:-0.308108 17:-0.26982 18:-0.75 19:-0.636364 20:-0.290323 21:0.272727 22:-0.0666667 
0 1 1 0 1 0 1 0 1 0.4829113909464394 0 0 0.7397684137266786 0 0 1:-0.047619 2:-0.851852 3:-1 5:0.2 6:-1 7:-0.4 8:0.878788 9:-0.636364 10:-1 11:-0.833333 12:-0.578947 13:-0.246753 14:0.454545 15:-0.744409 16:-0.285504 17:-0.240506 18:-0.75 19:0.0909091 20:-0.225806 21:-0.0909091 22:-0.0666667 
0 1 1 0 0 0 0.8891441397448955 0 0 1 0 1 1 0 0.1143564929507071 1:-0.047619 2:-0.185185 3:-1 5:0.2 6:1 7:-0.4 8:-0.69697 9:-0.636364 10:-1 11:-0.833333 12:-0.578947 13:-0.246753 14:0.454545 15:-0.361022 16:-0.810319 17:-0.784144 18:0.0625 19:-0.818182 20:-0.741935 21:-0.818182 22:-0.0666667 
0.1731900023117559 1 1 0 1 0 1 0 0 1 0 0 0 0 0 1:-0.714286 2:-0.851852 3:-1 5:-0.6 6:1 7:-0.4 8:-0.717172 9:-0.757576 10:-1 11:-0.833333 12:-0.536842 13:-0.012987 14:0.636364 15:-0.603834 16:0.871253 17:0.882745 18:-0.75 19:0.0909091 20:0.806452 21:-0.818182 22:-1 
0 1 1 0 0 0 1 0 0 0 0 0 0 0 0 1:0.047619 2:-0.037037 3:-1 5:-0.6 6:1 7:-0.4 8:-0.777778 9:-0.757576 10:-1 11:-0.833333 12:-0.642105 13:-0.012987 14:0.636364 15:-0.603834 16:-0.886978 17:-0.86942 18:-0.75 19:-1 20:-0.612903 21:0.272727 22:-1 
0 1 1 0 0 0 1 0 0 0 0 0 0 0 0 1:0.238095 2:0.037037 3:-1 5:-0.6 6:1 7:-0.4 8:-0.69697 9:-0.878788 10:-1 11:-0.833333 12:-0.536842 13:-0.246753 14:0.454545 15:-0.361022 16:-0.806388 17:-0.781479 18:0.0625 19:-0.818182 20:-0.741935 21:-0.818182 22:-0.0666667 
0 1 1 0 0.1851180379973248 0 1 0 0 1 0 0 0 0.8792537051406599 0 1:0.047619 2:0.037037 3:-1 5:-0.6 6:1 7:-0.4 8:-0.69697 9:-0.878788 10:-1 11:-0.833333 12:-0.536842 13:-0.246753 14:0.454545 15:-0.361022 16:-0.809337 17:-0.784144 18:0.0625 19:-0.818182 20:-0.741935 21:-0.818182 22:-0.0666667 
0 1 1 0 0 0 1 0 0 0 0 0 0 0 0 1:0.047619 2:-0.037037 3:-1 5:-0.6 6:1 7:-0.4 8:-0.717172 9:-0.757576 10:-1 11:-0.833333 12:-0.557895 13:-0.012987 14:0.636364 15:-0.603834 16:-0.886978 17:-0.86942 18:-0.75 19:0.454545 20:0.0967742 21:0.0909091 22:-1 
0 0 1 0 0 0 0 0 0 0 0 0 0.6300177357985048 0 0.9421630331130898 1:0.333333 2:0.037037 3:-1 5:-0.6 6:1 7:-0.4 8:-0.757576 9:-0.878788 10:-1 11:-0.833333 12:-0.663158 13:-0.246753 14:0.454545 15:-0.0159744 16:0.548894 17:0.548301 18:0.0625 19:-0.818182 20:-0.870968 21:-0.454545 22:-1 
0 1 1 0 0 0 1 0 0 0.9418477323528299 0 0 1 0 1 1:0.142857 2:-0.111111 3:-1 5:-0.6 6:1 7:-0.4 8:-0.737374 9:-0.757576 10:-1 11:-0.833333 12:-0.663158 13:-0.0649351 14:0.636364 15:0.111821 16:-0.538084 17:-0.517655 18:-0.75 19:0.636364 20:0.870968 21:0.818182 22:-0.0666667 
0.1950075162705882 1 1 0 1 0 1 0 0 0 0 1 0 1 0 1:0.238095 2:-0.185185 3:-1 5:-0.6 6:-1 7:-0.4 8:-0.757576 9:-0.757576 10:-1 11:-0.833333 12:-0.6 13:-0.324675 14:0.454545 15:-0.72524 16:-0.405405 17:-0.38974 18:-0.75 19:0.454545 20:0.741935 21:0.454545 22:-0.0666667 
1 1 1 0.7483881997346128 0.8094316253074482 0 1 0 0 1 0 1 0 0 0 1:0.238095 2:0.185185 3:-1 5:-0.6 6:1 7:-0.4 8:-0.717172 9:-0.878788 10:-1 11:-0.833333 12:-0.621053 13:-0.324675 14:0.454545 15:-0.72524 16:0.840786 17:0.856096 18:-0.75 19:0.636364 20:-0.483871 21:-0.454545 22:-0.0666667 
1 1 1 1 1 1 1 1 0 1 0 1 0.1424032538279768 0 1 1:-0.047619 2:0.037037 3:-1 5:-0.6 6:1 7:-0.4 8:-0.737374 9:-0.878788 10:-1 11:-0.833333 12:-0.6 13:-0.194805 14:-0.272727 15:-0.71246 16:0.364128 17:0.375083 18:-0.75 19:-0.454545 20:0.870968 21:0.454545 22:-1 
1 1 1 1 1 1 0 1 0 1 1 1 1 0 1 1:0.333333 2:0.037037 3:-1 5:-0.6 6:1 7:-0.4 8:-0.757576 9:-0.878788 10:-1 11:-0.833333 12:-0.642105 13:-0.558442 14:-0.818182 15:-0.214058 16:0.743489 17:0.757495 18:-0.75 19:0.272727 20:0.290323 21:0.454545 22:-1 
1 1 1 1 1 0 1 0 0 1 1 0.03428516069428261 0 0 1 1:-0.714286 2:-0.481481 3:-1 5:-0.6 6:-1 7:-0.4 8:-0.878788 9:-0.757576 10:-1 11:-0.833333 12:-0.305263 13:-0.246753 14:0.454545 15:-0.361022 16:0.0820639 17:0.0912725 18:-0.75 19:-0.272727 20:0.225806 21:-0.0909091 22:-1 
0.1558504821239459 0 1 0 0 0 1 0 0 1 0 0.9919021808054084 0 0 0 1:0.238095 2:-0.185185 3:-1 5:-0.6 6:1 7:-0.4 8:-0.717172 9:-0.878788 10:-1 11:-0.666667 12:-0.684211 13:-0.246753 14:0.454545 15:-0.744409 16:0.723833 17:0.736176 18:-0.75 19:0.818182 20:-0.741935 21:-1 22:-0.0666667 
1 1 1 1 1 1 1 0 0 1 0 1 0 1 0 1:-0.047619 2:-0.851852 3:-1 5:-0.6 6:-1 7:-0.4 8:-0.757576 9:-0.878788 10:-1 11:-0.833333 12:-0.6 13:-0.324675 14:0.454545 15:-0.72524 16:-0.0162162 17:-0.0139907 18:-0.75 19:0.636364 20:-0.419355 21:0.0909091 22:-0.0666667 
1 1 1 1 1 0.97506042526777 1 0 0 1 1 1 0 0 0 1:-0.047619 2:-0.851852 3:-1 5:-0.6 6:-1 7:-0.4 8:-0.878788 9:-0.878788 10:-1 11:-0.833333 12:-0.726316 13:-0.324675 14:0.454545 15:-0.72524 16:-0.0162162 17:-0.0139907 18:-0.75 19:0.818182 20:-0.16129 21:-0.818182 22:-1 
1 1 1 0 1 0 1 0 0 1 0 0 0 0 0 1:-0.714286 2:-0.851852 3:-1 5:-0.6 6:1 7:-0.4 8:-0.69697 9:-0.757576 10:-1 11:-0.833333 12:-0.557895 13:-0.012987 14:0.636364 15:-0.603834 16:0.871253 17:0.882745 18:-0.75 19:-0.454545 20:0.935484 21:-1 22:-0.0666667 
0 1 1 0.2994810130743414 1 0 1 0 0 1 0 1 0 0 0 1:0.047619 2:0.037037 3:-1 5:-0.6 6:1 7:-0.4 8:-0.737374 9:-0.757576 10:-1 11:-0.833333 12:-0.621053 13:-0.324675 14:0.454545 15:-0.72524 16:-0.321867 17:-0.283145 18:-0.75 19:-0.272727 20:0.0322581 21:1 22:-0.0666667 
0 1 1 0 1 0 1 0 0.6978747895815897 0 0 0 0 1 0 1:-0.047619 2:-0.851852 3:-1 5:-0.6 6:-1 7:-0.4 8:-0.79798 9:-0.757576 10:-1 11:-0.833333 12:-0.642105 13:-0.246753 14:0.454545 15:-0.744409 16:-0.308108 17:-0.26982 18:-0.75 19:0.272727 20:0.290323 21:-0.454545 22:-0.0666667 
0 0.6830799902991892 1 0 0 0 0 0 0 0 0 0 0 0 0 1:0.238095 2:-0.185185 3:-1 5:0.2 6:1 7:-0.4 8:-0.737374 9:-0.636364 10:-1 11:-0.833333 12:-0.621053 13:-0.012987 14:0.636364 15:-0.603834 16:0.258968 17:0.260493 18:-0.75 19:-0.272727 20:0.354839 21:-0.272727 22:-0.0666667 
0 1 1 0 0 0 1 0 0 0 0 0.0360419117006402 0.9546563629825117 0 0.01346330886200844 1:0.333333 2:0.185185 3:-1 5:-0.6 6:1 7:-0.4 8:-0.737374 9:-0.878788 10:-1 11:-0.833333 12:-0.642105 13:-0.246753 14:0.454545 15:-0.456869 16:-0.841769 17:-0.82012 18:-0.75 19:0.272727 20:-0.548387 21:-1 22:-1 
0 1 1 1 1 0 1 0 1 0 0.8885394081595859 1 0 0.3818410059937341 0.2800421834857401 1:-0.809524 2:0.333333 3:-1 5:-0.2 6:-1 7:-0.4 8:0.979798 9:-0.818182 10:-1 11:-0.833333 12:-0.473684 13:-0.246753 14:0.454545 15:-0.744409 16:-0.837838 17:-0.81479 18:-0.75 19:-0.454545 20:-0.935484 21:-0.454545 22:-1 
1 1 1 1 1 1 1 0.5636363515625736 0 1 1 1 1 0 1 1:0.714286 2:-0.111111 3:-1 5:-0.6 6:1 7:-0.4 8:-0.818182 9:-0.878788 10:-1 11:-0.833333 12:-0.621053 13:-0.818182 14:-0.272727 15:0.99361 16:0.978378 17:0.981346 18:-0.75 19:0.636364 20:0.806452 21:0.818182 22:-1 
1 1 1 1 1 1 0.5099122842680781 1 0.7775242165096452 1 1 1 1 0 1 1:0.333333 2:-0.185185 3:-1 5:-0.6 6:1 7:-0.4 8:-0.717172 9:-0.878788 10:-1 11:-0.833333 12:-0.6 13:-0.558442 14:-0.818182 15:-0.533546 16:-0.646192 17:-0.621586 18:-0.75 19:-0.272727 20:0.0322581 21:-0.0909091 22:-1 
0 0 1 0 0 0 1 0 0 0 0 0 0 0 0.3935184364919126 1:0.142857 2:-0.037037 3:-1 5:-0.6 6:1 7:-0.4 8:-0.737374 9:-0.878788 10:-1 11:-0.833333 12:-0.621053 13:-0.246753 14:0.454545 15:-0.0159744 16:0.546929 17:0.548301 18:0.0625 19:-0.454545 20:-0.677419 21:-0.0909091 22:-1 
0 1 1 0 1 0 1 0 0.05140123500453471 0 0.2810857980356208 0 1 0 1 1:0.333333 2:0.333333 3:-1 5:-0.6 6:-1 7:-0.4 8:0.979798 9:-0.757576 10:-1 11:-0.833333 12:-0.473684 13:-0.246753 14:0.454545 15:-0.456869 16:-0.841769 17:-0.82012 18:-0.75 19:-1 20:-0.419355 21:-1 22:-0.0666667 
0 1 1 0 1 0 1 0 0 0 1 0 1 0.5263320605680915 1 1:0.333333 2:0.185185 3:-1 5:-0.6 6:-1 7:-0.4 8:-0.737374 9:-0.878788 10:-1 11:-0.833333 12:-0.705263 13:-0.246753 14:0.454545 15:-0.456869 16:-0.841769 17:-0.82012 18:-0.75 19:1 20:-0.225806 21:0.0909091 22:-1 
0 1 1 0 1 0 1 0 0 1 0 0.007232730708648725 0 0 0 1:0.333333 2:0.185185 3:-1 5:-0.6 6:1 7:-0.4 8:-0.737374 9:-0.878788 10:-1 11:-0.833333 12:-0.642105 13:-0.246753 14:0.454545 15:-0.456869 16:-0.841769 17:-0.82012 18:-0.75 19:0.818182 20:-0.0322581 21:0.818182 22:-0.0666667 
0 0 1 0 1 0 1 0 0 1 0 0 1 0 1 1:0.142857 2:-0.037037 3:-1 5:-0.6 6:1 7:-0.4 8:-0.69697 9:-0.757576 10:-1 11:-0.833333 12:-0.578947 13:-0.0649351 14:0.636364 15:0.776358 16:0.58231 17:0.588274 18:-0.75 19:-0.0909091 20:0.0322581 21:0.0909091 22:-0.0666667 
0 1 1 0 0 0 1 0 0 0 0 0 0 0 0 1:0.238095 2:0.037037 3:-1 5:-0.6 6:1 7:-0.4 8:-0.717172 9:-0.878788 10:-1 11:-0.833333 12:-0.6 13:-0.246753 14:0.454545 15:-0.361022 16:-0.806388 17:-0.781479 18:0.0625 19:-0.272727 20:-0.483871 21:-0.272727 22:-0.0666667 
1 1 1 1 1 1 1 1 0 1 1 1 1 1 1 1:0.428571 2:-0.037037 3:-1 5:-0.6 6:1 7:-0.4 8:-0.737374 9:-0.757576 10:-1 11:-0.833333 12:-0.621053 13:-0.558442 14:-0.818182 15:0.367412 16:-0.320885 17:-0.281812 18:-0.75 19:-0.636364 20:0.354839 21:-0.636364 22:-0.0666667 
0 0 1 0 0 0 1 0 0 0 0 0 0 0 0 1:0.047619 2:-0.111111 3:-1 5:-0.6 6:1 7:-0.4 8:-0.69697 9:-0.878788 10:-1 11:-0.833333 12:-0.6 13:-0.0649351 14:0.636364 15:0.00958466 16:0.532187 17:0.533644 18:-0.75 19:-0.454545 20:-0.935484 21:-0.272727 22:-0.0666667 
0 0.4234372334503478 1 0 1 0 1 0.6759616584023747 1 0 0.784492208077963 0 0 0 1 1:-0.809524 2:-0.851852 3:-1 5:-0.6 6:-1 7:-0.4 8:-0.777778 9:-0.757576 10:-1 11:-0.833333 12:-0.726316 13:0.272727 14:0.636364 15:-0.182109 16:-0.0633907 17:-0.0526316 18:-0.75 19:-0.636364 20:1 21:-0.454545 22:-1 
1 1 1 1 1 0.571671175857527 1 0 1 1 0.9922712225865641 1 0 1 0 1:-0.047619 2:-0.851852 3:-1 5:-0.6 6:-1 7:-0.4 8:-0.818182 9:-0.757576 10:-1 11:-0.833333 12:-0.684211 13:-0.246753 14:0.454545 15:-0.744409 16:-0.308108 17:-0.26982 18:-0.75 19:0.636364 20:-0.935484 21:0.636364 22:-1 
1 1 1 1 0 0 1 0 0 1 0 1 0 0 0 1:0.238095 2:0.185185 3:-1 5:-0.6 6:1 7:-0.4 8:-0.757576 9:-0.757576 10:-1 11:-0.833333 12:-0.6 13:-0.324675 14:0.454545 15:-0.72524 16:0.839803 17:0.856096 18:-0.75 19:-0.0909091 20:-0.935484 21:-0.818182 22:-0.0666667 
1 1 1 1 1 1 1 1 0.02005264282522194 1 1 1 1 1 1 1:0.142857 2:-0.037037 3:-1 5:-0.6 6:1 7:-0.4 8:-0.757576 9:-0.757576 10:-1 11:-0.5 12:-0.705263 13:-0.558442 14:-0.818182 15:-0.661342 16:0.514496 17:0.513658 18:-0.75 19:1 20:0.16129 21:1 22:-0.0666667 
1 1 1 1 1 0 1 0 0.1875358386700157 1 0.7825899334848506 -0 0 1 0 1:-0.714286 2:-0.333333 3:-1 5:-0.6 6:-1 7:-0.4 8:-0.757576 9:-0.757576 10:-1 11:-0.833333 12:-0.6 13:-0.246753 14:0.454545 15:-0.744409 16:-0.323833 17:-0.297801 18:-0.75 19:-0.636364 20:-0.225806 21:-0.636364 22:-0.0666667 
0 1 1 0 1 0 1 0 1 1 1 0 1 1 1 1:-0.904762 2:0.111111 3:-1 5:0.2 6:-1 7:-0.4 8:-0.737374 9:-0.636364 10:-1 11:-0.833333 12:-0.578947 13:-0.246753 14:0.454545 15:0.341853 16:-0.341523 17:-0.304464 18:-0.75 19:-0.0909091 20:0.0967742 21:-0.454545 22:-0.0666667 
1 1 1 1 1 1 1 0 1 1 1 1 0.4868887150842713 1 1 1:0.238095 2:0.185185 3:-1 5:-0.6 6:-1 7:-0.4 8:-0.69697 9:-0.757576 10:-1 11:-0.833333 12:-0.684211 13:-0.844156 14:-0.0909091 15:-0.955272 16:-0.517445 17:-0.491006 18:-0.9375 19:-0.636364 20:-0.16129 21:0.454545 22:-0.0666667 
0 1 1 1 1 0 1 0 0 0 0 0 0 0 0 1:-0.047619 2:-0.185185 3:-1 5:-0.6 6:1 7:-0.4 8:-0.737374 9:-0.878788 10:-1 11:-0.833333 12:-0.557895 13:-0.324675 14:0.454545 15:-0.72524 16:-0.449631 17:-0.428381 18:-0.75 19:-0.272727 20:-0.806452 21:-1 22:-0.0666667 
1 1 1 1 1 1 0.3248612829099036 1 0 1 1 1 1 1 1 1:0.333333 2:0.037037 3:-1 5:-0.6 6:1 7:-0.4 8:-0.717172 9:-0.878788 10:-1 11:-0.833333 12:-0.6 13:-0.558442 14:-0.818182 15:-0.214058 16:0.743489 17:0.757495 18:-0.75 19:-0.272727 20:0.483871 21:-0.0909091 22:-0.0666667 
0 0.05559942179459346 1 0 0 0 0 0 1 0 0 0.124870490955259 0.5915609500116278 0 1 1:0.047619 2:0.037037 3:-1 5:0.2 6:1 7:-0.4 8:-0.737374 9:-0.636364 10:-1 11:-0.833333 12:-0.557895 13:-0.246753 14:0.454545 15:-0.361022 16:-0.809337 17:-0.784144 18:0.0625 19:1 20:-0.225806 21:-1 22:-0.0666667 
0 1 1 0 1 0 1 1 0.08445297819934357 0 0 0 0 0.5273108932537035 1 1:-0.809524 2:0.333333 3:-1 5:-0.6 6:-1 7:-0.4 8:-0.79798 9:-0.757576 10:-1 11:-0.833333 12:-0.747368 13:0.272727 14:0.636364 15:-0.182109 16:-0.0633907 17:-0.0526316 18:-0.75 19:0.454545 20:-0.354839 21:0.454545 22:-0.4 
0 1 1 0 0 0 1 0 0 0 0 0 0 0 0 1:-0.619048 2:0.333333 3:-1 5:-0.6 6:1 7:-0.4 8:-0.79798 9:-0.878788 10:-1 11:-0.833333 12:-0.642105 13:-0.012987 14:0.636364 15:-0.603834 16:0.258968 17:0.260493 18:-0.75 19:0.454545 20:0.935484 21:0.272727 22:-1 
1 1 1 1 1 1 1 0 0.9937014298086365 1 1 1 0 0 0.7591593540210941 1:-1 2:-0.481481 3:-1 5:-0.6 6:-1 7:-0.4 8:0.818182 9:-0.757576 10:-1 11:-0.833333 12:-0.431579 13:-0.246753 14:0.454545 15:-0.744409 16:0.91941 17:-0.297801 18:-0.75 19:-0.272727 20:-0.419355 21:-0.272727 22:-1 
0 1 1 1 1 0 1 0 1 0.7042895629767678 0 0 0 1 0 1:-0.714286 2:-0.333333 3:-1 5:-0.6 6:-1 7:-0.4 8:0.979798 9:-0.757576 10:-1 11:-0.833333 12:-0.684211 13:-0.324675 14:0.454545 15:-0.72524 16:-0.42113 17:-0.38974 18:-0.75 19:0.0909091 20:0.354839 21:0.0909091 22:-0.0666667 
0 1 1 0 1 0 1 0 0 0 0 0 0 0 0 1:0.238095 2:-0.185185 3:-1 5:-0.6 6:-1 7:-0.4 8:-0.79798 9:-0.757576 10:-1 11:-0.833333 12:-0.684211 13:-0.324675 14:0.454545 15:-0.72524 16:-0.405405 17:-0.38974 18:-0.75 19:-0.454545 20:-0.0322581 21:-0.454545 22:-0.0666667 
0 1 1 0 1 0 1 0 0.8069781350130645 1 0 0.33339365502566 0.1140880010437017 0 0 1:-0.047619 2:-0.851852 3:-1 5:0.2 6:1 7:-0.4 8:-0.69697 9:-0.636364 10:-1 11:-0.833333 12:-0.578947 13:-0.246753 14:0.454545 15:-0.361022 16:-0.80344 17:-0.778814 18:-0.75 19:-0.0909091 20:-0.225806 21:0.0909091 22:-0.0666667 
0 0 1 0 0 0 1 1 0 0 0 0 1 0 1 1:0.333333 2:-0.185185 3:-1 5:-0.6 6:1 7:-0.4 8:-0.717172 9:-0.878788 10:-1 11:-0.833333 12:-0.557895 13:0.792208 14:0.636364 15:0.258786 16:-0.441769 17:-0.417722 18:-0.75 19:1 20:-0.935484 21:1 22:-1 
1 1 1 1 1 0 1 0 0 1 0 1 0 0 0 1:0.238095 2:-0.185185 3:-1 5:-0.6 6:1 7:-0.4 8:-0.717172 9:-0.878788 10:-1 11:-0.833333 12:-0.621053 13:-0.246753 14:0.454545 15:-0.744409 16:0.723833 17:0.736176 18:-0.75 19:0.818182 20:-0.741935 21:-1 22:-0.0666667 
0 0 1 0 0 0 1 0 0 0 0 0 0 0 0 1:0.047619 2:-0.111111 3:-1 5:-0.6 6:1 7:-0.4 8:-0.717172 9:-0.878788 10:-1 11:-0.833333 12:-0.621053 13:-0.0649351 14:0.636364 15:-0.0479233 16:0.201966 17:0.20986 18:-0.75 19:-0.636364 20:-0.290323 21:-0.0909091 22:-0.0666667 
0 0 1 0 0 0 1 0 0 0 0 0 1 0 1 1:-0.047619 2:0.333333 3:-1 5:0.2 6:1 7:-0.4 8:-0.79798 9:-0.636364 10:-1 11:-0.833333 12:-0.642105 13:-0.0649351 14:0.636364 15:-0.0479233 16:0.201966 17:0.20986 18:-0.75 19:0.272727 20:0.290323 21:0.272727 22:-0.0666667 
0 1 1 0 1 0 1 0 0 0 0 0 0 0 0 1:-0.047619 2:-0.851852 3:-1 5:-0.6 6:-1 7:-0.4 8:0.939394 9:-0.757576 10:-1 11:-0.833333 12:-0.515789 13:-0.246753 14:0.454545 15:-0.744409 16:-0.308108 17:-0.26982 18:-0.75 19:-0.0909091 20:-0.290323 21:0.272727 22:-0.0666667 
0 1 1 0 1 0 1 0 1 0 0 0 0 1 0 1:-0.047619 2:-0.851852 3:-1 5:-0.6 6:-1 7:-0.4 8:-0.79798 9:-0.757576 10:-1 11:-0.833333 12:-0.705263 13:-0.246753 14:0.454545 15:-0.744409 16:-0.308108 17:-0.26982 18:-0.75 19:0.272727 20:0.290323 21:-0.454545 22:-0.0666667 
0 0 1 1 1 0 1 1 1 1 0.9993900066435133 1 1 0 1 1:0.333333 2:0.037037 3:-1 5:-0.4 6:1 7:-0.4 8:-0.717172 9:-0.818182 10:-1 11:-0.833333 12:-0.663158 13:0.61039 14:-0.0909091 15:-0.0607029 16:-0.52629 17:-0.501666 18:-0.75 19:-1 20:1 21:-0.818182 22:-1 
1 1 1 1 1 1 1 0 0.5389316152304389 0.385732653628312 0 0 0.2861362562309642 0 0.2397386770049303 1:-0.047619 2:-0.851852 3:-1 5:-0.6 6:-1 7:-0.4 8:0.89899 9:-0.757576 10:-1 11:-0.833333 12:-0.347368 13:-0.246753 14:0.454545 15:-0.744409 16:-0.308108 17:-0.26982 18:-0.75 19:0.636364 20:-0.612903 21:0.636364 22:-1 
0 1 1 0 1 0 1 1 1 1 1 0 0 0 1 1:-0.809524 2:-0.851852 3:-1 5:-0.6 6:-1 7:-0.4 8:-0.838384 9:-0.757576 10:-1 11:-0.833333 12:-0.263158 13:0.272727 14:0.636364 15:-0.182109 16:-0.0633907 17:-0.0526316 18:-0.75 19:1 20:-0.806452 21:-0.454545 22:-0.0666667 
0 1 1 0 0 0 1 0 0 0 0 0 0 0 0 1:0.047619 2:-0.037037 3:-1 5:-0.6 6:-1 7:-0.4 8:-0.717172 9:-0.757576 10:-1 11:-0.833333 12:-0.663158 13:-0.012987 14:0.636364 15:-0.603834 16:-0.886978 17:-0.86942 18:-0.75 19:0.454545 20:0.0967742 21:-0.636364 22:-1 
0 0 1 0 0 0 0 0 0 0 0.5060787170990317 0.3904543180064978 1 0 1 1:0.333333 2:0.037037 3:-1 5:-0.6 6:1 7:-0.4 8:-0.757576 9:-0.878788 10:-1 11:-0.833333 12:-0.621053 13:-0.246753 14:0.454545 15:-0.0159744 16:0.548894 17:0.548301 18:0.0625 19:-0.818182 20:-0.870968 21:-0.454545 22:-1 
1 1 1 1 1 1 0 1 0 1 1 1 1 0 1 1:0.238095 2:0.185185 3:-1 5:-0.6 6:1 7:-0.4 8:-0.737374 9:-0.878788 10:-1 11:-0.833333 12:-0.6 13:-0.558442 14:-0.818182 15:-0.533546 16:0.434889 17:0.439041 18:-0.75 19:-0.636364 20:-0.677419 21:0.636364 22:-0.0666667 
0 0 1 0 0 0 1 1 0 0 0 0 1 0 1 1:0.333333 2:-0.185185 3:-1 5:-0.6 6:1 7:-0.4 8:-0.717172 9:-0.878788 10:-1 11:-0.833333 12:-0.6 13:0.792208 14:0.636364 15:0.258786 16:-0.441769 17:-0.417722 18:-0.75 19:0.272727 20:-0.677419 21:0.272727 22:-0.0666667 
1 1 1 1 1 1 1 0 1 0.2073506163591241 0 0 0 0 0 1:-0.714286 2:-0.333333 3:-1 5:-0.6 6:-1 7:-0.4 8:0.979798 9:-0.757576 10:-1 11:-0.833333 12:-0.473684 13:-0.246753 14:0.454545 15:-0.744409 16:-0.323833 17:-0.297801 18:-0.75 19:-1 20:-0.0322581 21:-1 22:-0.0666667 
0 1 1 0 0 0 1 0 0 0 0 0 0 0 0 1:-0.047619 2:-0.185185 3:-1 5:-0.6 6:1 7:-0.4 8:-0.737374 9:-0.878788 10:-1 11:-0.833333 12:-0.578947 13:-0.0649351 14:0.636364 15:-0.0479233 16:-0.662899 17:-0.641572 18:-0.75 19:0.818182 20:-0.677419 21:0.818182 22:-1 
1 1 1 1 1 0 1 0 1 1 0 1 0 1 0 1:-0.714286 2:-0.333333 3:-1 5:-0.6 6:-1 7:-0.4 8:-0.777778 9:-0.757576 10:-1 11:-0.833333 12:-0.621053 13:-0.246753 14:0.454545 15:-0.744409 16:-0.323833 17:-0.297801 18:-0.75 19:-0.0909091 20:0.0322581 21:-0.0909091 22:-0.0666667 
0 1 1 0.9133185738666948 1 0 1 0 0 1 0 1 0 0 0 1:-0.047619 2:-0.185185 3:-1 5:-0.6 6:1 7:-0.4 8:-0.69697 9:-0.878788 10:-1 11:-0.833333 12:-0.494737 13:-0.324675 14:0.454545 15:-0.72524 16:-0.449631 17:-0.428381 18:-0.75 19:-0.454545 20:0.354839 21:-0.272727 22:-1 
0 0 1 0 0 0 1 0 0 0 0 0 0.4261077494039335 0 0 1:-0.047619 2:-0.185185 3:-1 5:0.2 6:1 7:-0.4 8:-0.69697 9:-0.636364 10:-1 11:-0.833333 12:-0.578947 13:-0.0649351 14:0.636364 15:-0.0479233 16:0.201966 17:0.20986 18:-0.75 19:0.272727 20:-0.290323 21:0.272727 22:-0.0666667 
0 1 1 0 0 0 0 0 0 0.5811892904583333 0 1 0 0 0 1:0.238095 2:0.185185 3:-1 5:-0.6 6:1 7:-0.4 8:-0.737374 9:-0.757576 10:-1 11:-0.833333 12:-0.578947 13:-0.324675 14:0.454545 15:-0.72524 16:0.840786 17:0.856096 18:-0.75 19:-0.454545 20:0.483871 21:-0.454545 22:-1 
0.6776102771936702 1 1 0.2773045793442352 1 0 1 0 0 1 0 1 1 0 0 1:0.238095 2:-0.185185 3:-1 5:-0.6 6:1 7:-0.4 8:-0.69697 9:-0.878788 10:-1 11:-0.166667 12:-0.578947 13:-0.246753 14:0.454545 15:-0.744409 16:0.723833 17:0.736176 18:-0.75 19:-1 20:0.870968 21:-0.818182 22:-1 
0 1 1 0 1 0 1 0 0 1 0 0 0 0 0 1:0.047619 2:-0.037037 3:-1 5:-0.6 6:1 7:-0.4 8:-0.737374 9:-0.757576 10:-1 11:-0.833333 12:-0.621053 13:-0.324675 14:0.454545 15:-0.769968 16:0.0850123 17:0.0952698 18:-0.75 19:-0.0909091 20:0.0967742 21:-0.0909091 22:-0.0666667 
0 1 1 0 1 0.2240237793389734 1 0 1 1 1 1 1 0.3633510899412175 1 1:-0.714286 2:-0.851852 3:-1 5:0.2 6:-1 7:-0.4 8:-0.757576 9:-0.636364 10:-1 11:-0.833333 12:-0.726316 13:-0.246753 14:0.454545 15:-0.361022 16:-0.260934 17:-0.219187 18:-0.75 19:-1 20:0.741935 21:1 22:-1 
1 1 1 1 1 1 0 1 0 1 1 1 0.363667698111527 0.5583393361640117 1 1:0.238095 2:0.185185 3:-1 5:-0.6 6:1 7:-0.4 8:-0.777778 9:-0.878788 10:-1 11:-0.833333 12:-0.684211 13:-0.558442 14:-0.818182 15:-0.533546 16:0.434889 17:0.439041 18:-0.75 19:0.454545 20:0.0322581 21:0.636364 22:-0.0666667 
0 1 1 -0 1 0 1 0 0 1 0 0 0 0 0 1:-0.047619 2:-0.185185 3:-1 5:-0.6 6:1 7:-0.4 8:-0.717172 9:-0.878788 10:-1 11:-0.833333 12:-0.621053 13:-0.324675 14:0.454545 15:-0.72524 16:-0.449631 17:-0.428381 18:-0.75 19:-0.636364 20:-0.354839 21:-0.636364 22:-0.0666667 
0 1 1 0 1 0 1 0 0 0 0 0 0 1 0 1:-0.047619 2:-0.851852 3:-1 5:-0.6 6:-1 7:-0.4 8:-0.79798 9:-0.757576 10:-1 11:-0.833333 12:-0.6 13:-0.246753 14:0.454545 15:-0.744409 16:-0.308108 17:-0.26982 18:-0.75 19:0.272727 20:0.290323 21:-0.454545 22:-0.0666667 
0 1 1 0 1 0 1 0 0 1 0 1 0 0 0 1:-0.047619 2:-0.185185 3:-1 5:-0.6 6:1 7:-0.4 8:-0.717172 9:-0.878788 10:-1 11:-0.833333 12:-0.578947 13:-0.324675 14:0.454545 15:-0.72524 16:-0.449631 17:-0.428381 18:-0.75 19:-0.636364 20:-0.354839 21:0.454545 22:-1 
1 1 1 0.7000566848351145 1 0 1 0 0 1 0 1 0.04037942578124783 0 1 1:-0.047619 2:-0.851852 3:-1 5:0.2 6:1 7:-0.4 8:-0.737374 9:-0.636364 10:-1 11:-0.833333 12:-0.621053 13:-0.246753 14:0.454545 15:-0.361022 16:0.764128 17:0.776149 18:-0.75 19:-0.818182 20:0.419355 21:-0.454545 22:-0.0666667 
0 0 1 0 1 0 1 1 1 1 0.4648237599660461 0 0 0.1947845952153734 1 1:-0.809524 2:-0.851852 3:-1 5:-0.6 6:-1 7:-0.4 8:-0.838384 9:-0.757576 10:-1 11:-0.833333 12:-0.684211 13:0.272727 14:0.636364 15:-0.182109 16:-0.0633907 17:-0.0526316 18:-0.75 19:1 20:-0.806452 21:-0.454545 22:-0.0666667 
0 0 1 0 0 0 1 0 0 0 0 0 1 0 0.5501384158198568 1:-0.047619 2:-0.185185 3:-1 5:0.2 6:1 7:-0.4 8:-0.757576 9:-0.636364 10:-1 11:-0.833333 12:-0.642105 13:-0.0649351 14:0.636364 15:-0.0479233 16:0.201966 17:0.20986 18:-0.75 19:0.272727 20:0.0322581 21:0.818182 22:-1 
1 1 1 1 1 1 1 1 1 1 1 1 0 1 1 1:-0.714286 2:-0.925926 3:-1 5:-0.6 6:1 7:-0.4 8:-0.69697 9:-0.878788 10:-1 11:-0.833333 12:-0.578947 13:0.246753 14:-1 15:-0.271565 16:0.0191646 17:0.017988 18:-0.75 19:-0.0909091 20:-0.419355 21:-0.0909091 22:-0.0666667 
0 1 1 0 0 0 1 0 0 1 0 1 1 0 0 1:0.238095 2:0.185185 3:-1 5:-0.6 6:1 7:-0.4 8:-0.69697 9:-0.757576 10:-1 11:-0.833333 12:-0.6 13:-0.246753 14:0.454545 15:-0.361022 16:0.724816 17:0.736176 18:-0.75 19:-0.818182 20:-0.677419 21:1 22:-1 
0 1 1 0 0 0 1 0 0 1 0 1 1 0 0 1:0.047619 2:0.037037 3:-1 5:0.2 6:1 7:-0.4 8:-0.757576 9:-0.636364 10:-1 11:-0.833333 12:-0.642105 13:-0.246753 14:0.454545 15:-0.361022 16:-0.809337 17:-0.784144 18:0.0625 19:1 20:-0.225806 21:1 22:-0.0666667 
0 1 1 0 1 0 1 0 0 0 0 0 0 0 0 1:0.238095 2:-0.185185 3:-1 5:-0.6 6:-1 7:-0.4 8:-0.79798 9:-0.757576 10:-1 11:-0.833333 12:-0.642105 13:-0.324675 14:0.454545 15:-0.72524 16:-0.405405 17:-0.38974 18:-0.75 19:-0.454545 20:-0.0322581 21:-0.454545 22:-0.0666667 
1 0 1 1 1 1 1 1 1 1 1 1 1 0 1 1:0.238095 2:-0.111111 3:-1 5:-0.6 6:1 7:-0.4 8:-0.69697 9:-0.878788 10:-1 11:-0.166667 12:-0.578947 13:0.246753 14:-1 15:-0.271565 16:-0.215725 17:-0.177881 18:-0.75 19:-0.454545 20:0.548387 21:0.636364 22:-0.0666667 
0 0 1 0 0 0 1 1 0 0 0 0 1 0 1 1:0.333333 2:-0.185185 3:-1 5:-0.6 6:1 7:-0.4 8:-0.69697 9:-0.878788 10:-1 11:-0.833333 12:-0.578947 13:0.792208 14:0.636364 15:0.258786 16:-0.441769 17:-0.417722 18:-0.75 19:-0.636364 20:-0.806452 21:0.454545 22:-1 
0 1 1 1 1 1 1 0.1444522722609834 1 0.5602609933618944 0 0.9678094484385091 1 0 0 1:-0.047619 2:-0.851852 3:-1 5:-0.6 6:-1 7:-0.4 8:0.919192 9:-0.757576 10:-1 11:-0.833333 12:-0.536842 13:-0.246753 14:0.454545 15:-0.744409 16:-0.308108 17:-0.26982 18:-0.75 19:0.636364 20:0.290323 21:0.818182 22:-1 
1 1 1 0.7844056457755356 1 0 1 0 0 1 0 0 0 0 0 1:-0.714286 2:-0.851852 3:-1 5:-0.6 6:1 7:-0.4 8:-0.69697 9:-0.757576 10:-1 11:-0.833333 12:-0.515789 13:-0.012987 14:0.636364 15:-0.603834 16:0.871253 17:0.882745 18:-0.75 19:-0.454545 20:0.935484 21:-1 22:-0.0666667 
0 0 1 0 0 0 1 0 0 0 0 0 0 0 0 1:-0.047619 2:-0.185185 3:-1 5:-0.6 6:1 7:-0.4 8:-0.737374 9:-0.878788 10:-1 11:-0.833333 12:-0.621053 13:-0.0649351 14:0.636364 15:-0.0479233 16:-0.662899 17:-0.641572 18:-0.75 19:0.0909091 20:-0.870968 21:-0.0909091 22:-0.0666667 
0.4890946256205896 1 1 1 1 0.6402579852620958 1 0 1 0 0 0 0 0 0 1:-0.047619 2:-0.851852 3:-1 5:-0.6 6:-1 7:-0.4 8:-0.757576 9:-0.757576 10:-1 11:-0.833333 12:-0.578947 13:-0.246753 14:0.454545 15:-0.744409 16:-0.308108 17:-0.26982 18:-0.75 19:0.272727 20:-0.0322581 21:-1 22:-0.0666667 
0 0 1 0 0 0 0 0 0 0.8685675788179013 0 0 1 0 0 1:0.142857 2:-0.037037 3:-1 5:0.4 6:1 7:-0.4 8:-0.717172 9:-0.878788 10:-1 11:-0.833333 12:-0.621053 13:-0.0649351 14:0.636364 15:-0.0479233 16:0.201966 17:0.20986 18:-0.75 19:-0.636364 20:-0.290323 21:0.272727 22:-0.0666667 
1 1 1 1 1 0 1 0 0 1 0 1 0 0 0 1:-0.047619 2:-0.851852 3:-1 5:-0.6 6:-1 7:-0.4 8:-0.777778 9:-0.878788 10:-1 11:-0.833333 12:-0.621053 13:-0.324675 14:0.454545 15:-0.72524 16:-0.0162162 17:-0.0139907 18:-0.75 19:0.636364 20:0.354839 21:-0.0909091 22:-1 
0 1 1 0 1 0 1 0 0 1 0 0.4497422294134213 0 0 0 1:0.238095 2:-0.185185 3:-1 5:-0.6 6:1 7:-0.4 8:-0.757576 9:-0.878788 10:-1 11:-0.833333 12:-0.642105 13:-0.246753 14:0.454545 15:-0.744409 16:0.723833 17:0.736176 18:-0.75 19:-0.0909091 20:0.290323 21:0.0909091 22:-0.0666667 
0 1 1 0 1 0 1 0.4928879740190036 1 0 0 0 0 0 1 1:-0.809524 2:-0.851852 3:-1 5:-0.6 6:-1 7:-0.4 8:-0.818182 9:-0.757576 10:-1 11:-0.833333 12:-0.663158 13:0.272727 14:0.636364 15:-0.182109 16:-0.0633907 17:-0.0526316 18:-0.75 19:-0.0909091 20:-0.0322581 21:-0.0909091 22:-0.0666667 
1 1 1 1 1 1 1 1 1 1 1 1 0 1 1 1:-0.714286 2:-0.925926 3:-1 5:-0.6 6:1 7:-0.4 8:-0.737374 9:-0.878788 10:-1 11:-0.833333 12:-0.621053 13:0.246753 14:-1 15:-0.271565 16:0.0191646 17:0.017988 18:-0.75 19:1 20:0.0967742 21:0.454545 22:-0.0666667 
0 0 1 0 0 0 1 0 0 0 0 0 0 0 0 1:-0.047619 2:0.037037 3:-1 5:-0.6 6:1 7:-0.4 8:-0.717172 9:-0.878788 10:-1 11:-0.833333 12:-0.6 13:-0.012987 14:0.636364 15:-0.175719 16:0.116462 17:0.129913 18:-0.75 19:-0.454545 20:-0.935484 21:-0.454545 22:-1 
0 1 1 0 1 0 1 0 0 1 0 1 0 0 0 1:0.238095 2:-0.185185 3:-1 5:-0.6 6:1 7:-0.4 8:-0.69697 9:-0.878788 10:-1 11:-0.833333 12:-0.578947 13:-0.246753 14:0.454545 15:-0.744409 16:0.723833 17:0.736176 18:-0.75 19:-0.454545 20:0.806452 21:-0.272727 22:-1 
1 1 1 1 1 0.8297352671594032 1 0 1 1 0.0913467837747175 1 0 1 0 1:-0.714286 2:-0.333333 3:-1 5:-0.6 6:-1 7:-0.4 8:-0.818182 9:-0.757576 10:-1 11:-0.833333 12:-0.663158 13:-0.246753 14:0.454545 15:-0.744409 16:-0.323833 17:-0.297801 18:-0.75 19:0.454545 20:0.354839 21:0.454545 22:-0.0666667 
1 1 1 1 1 1 1 1 0 1 1 1 0.5591280713425425 1 1 1:0.333333 2:-0.185185 3:-1 5:-0.6 6:1 7:-0.4 8:-0.737374 9:-0.878788 10:-1 11:-0.833333 12:-0.705263 13:-0.558442 14:-0.818182 15:-0.533546 16:-0.646192 17:-0.621586 18:-0.75 19:0.272727 20:-0.935484 21:0.818182 22:-0.0666667 
1 1 1 1 1 1 0 1 0.8540086316400116 1 1 1 1 1 1 1:0.142857 2:-0.037037 3:-1 5:-0.4 6:1 7:-0.4 8:-0.717172 9:-0.818182 10:-1 11:-0.833333 12:-0.621053 13:-0.558442 14:-0.818182 15:-0.533546 16:0.622604 17:0.62958 18:-0.75 19:-0.818182 20:-0.548387 21:-0.818182 22:-0.0666667 
0 1 1 0 0 0 1 0 0 0 0 0 0 0 0 1:0.238095 2:0.037037 3:-1 5:-0.6 6:1 7:-0.4 8:-0.79798 9:-0.878788 10:-1 11:-0.833333 12:-0.642105 13:-0.246753 14:0.454545 15:-0.744409 16:-0.285504 17:-0.240506 18:-0.75 19:0.636364 20:-0.16129 21:0.636364 22:-0.0666667 
1 1 1 1 1 1 0 1 0 1 1 1 0.8444283375581579 0.6666096938080304 1 1:0.238095 2:0.185185 3:-1 5:-0.6 6:1 7:-0.4 8:-0.777778 9:-0.878788 10:-1 11:-0.833333 12:-0.621053 13:-0.558442 14:-0.818182 15:-0.533546 16:0.434889 17:0.439041 18:-0.75 19:0.454545 20:0.0322581 21:-1 22:-0.0666667 
1 1 1 1 1 1 1 0.1768156695453362 0 1 0.2546253471948917 1 0 0 1 1:-0.714286 2:-0.851852 3:-1 5:-0.6 6:1 7:-0.4 8:-0.717172 9:-0.878788 10:-1 11:-0.833333 12:-0.6 13:-0.584416 14:-0.0909091 15:-0.392971 16:0.630467 17:0.636243 18:-0.75 19:1 20:-0.483871 21:1 22:-1 
1 1 1 0 1 0 1 0 0.2474564050497332 0 0 0 0 0.7770134769470298 0 1:-0.047619 2:-0.851852 3:-1 5:-0.6 6:-1 7:-0.4 8:-0.858586 9:-0.757576 10:-1 11:-0.833333 12:-0.494737 13:-0.246753 14:0.454545 15:-0.744409 16:-0.308108 17:-0.26982 18:-0.75 19:-0.272727 20:-0.0322581 21:-1 22:-0.0666667 
1 1 1 1 1 1 1 0 1 1 1 1 0.9212631776189966 1 0.8181509200248692 1:0.238095 2:0.185185 3:-1 5:-0.6 6:-1 7:-0.4 8:-0.79798 9:-0.757576 10:-1 11:-0.833333 12:-0.642105 13:-0.844156 14:-0.0909091 15:-0.955272 16:-0.517445 17:-0.491006 18:-0.9375 19:-0.636364 20:0.870968 21:-0.636364 22:-0.0666667 
0 0 1 0 0 0 1 0 0 0 0 0 1 0 0 1:0.142857 2:-0.037037 3:-1 5:-0.6 6:1 7:-0.4 8:-0.717172 9:-0.878788 10:-1 11:-0.5 12:-0.621053 13:-0.0649351 14:0.636364 15:0.00958466 16:0.53317 17:0.533644 18:-0.75 19:-0.454545 20:-0.483871 21:-0.272727 22:-1 
1 1 1 1 1 0 1 0 0 1 0 1 0 0.632424796432718 0 1:-0.047619 2:-0.185185 3:-1 5:-0.6 6:1 7:-0.4 8:-0.757576 9:-0.878788 10:-1 11:-0.833333 12:-0.6 13:-0.324675 14:0.454545 15:-0.72524 16:-0.449631 17:-0.428381 18:-0.75 19:-1 20:0.677419 21:-1 22:1 
0 1 1 0 1 0 1 0 0 1 0 1 0 0 0 1:-0.047619 2:-0.185185 3:-1 5:-0.6 6:1 7:-0.4 8:-0.777778 9:-0.878788 10:-1 11:-0.833333 12:-0.663158 13:-0.324675 14:0.454545 15:-0.72524 16:-0.449631 17:-0.428381 18:-0.75 19:-1 20:-0.290323 21:-1 22:-0.0666667 
1 1 1 1 1 1 0 1 0.9820857631824856 1 1 1 1 0 1 1:0.333333 2:-0.185185 3:-1 5:-0.6 6:1 7:-0.4 8:-0.737374 9:-0.878788 10:-1 11:-0.833333 12:-0.578947 13:-0.558442 14:-0.818182 15:-0.533546 16:-0.646192 17:-0.621586 18:-0.75 19:0.272727 20:-0.935484 21:-0.454545 22:-1 
0 0 1 0 1 0 1 0 0 0 0 0 0 0 1 1:0.142857 2:-0.037037 3:-1 5:-0.6 6:1 7:-0.4 8:-0.737374 9:-0.878788 10:-1 11:-0.833333 12:-0.578947 13:-0.246753 14:0.454545 15:-0.0159744 16:0.546929 17:0.548301 18:0.0625 19:-0.454545 20:-0.677419 21:-0.0909091 22:-1 
1 1 1 1 1 1 1 0 1 1 1 1 0 1 1 1:0.238095 2:0.185185 3:-1 5:-0.6 6:-1 7:-0.4 8:-0.717172 9:-0.757576 10:-1 11:-0.833333 12:-0.663158 13:-0.844156 14:-0.0909091 15:-0.955272 16:-0.517445 17:-0.491006 18:-0.9375 19:-0.454545 20:-0.806452 21:-0.454545 22:-0.0666667 
0 0 1 0 0 0 1 0 0 0 0 0 1 0 1 1:0.333333 2:-0.185185 3:-1 5:0.2 6:1 7:-0.4 8:-0.69697 9:-0.636364 10:-1 11:-0.833333 12:-0.642105 13:-0.0649351 14:0.636364 15:0.00958466 16:0.532187 17:0.533644 18:-0.75 19:0.272727 20:0.612903 21:0.272727 22:-0.0666667 
1 1 1 0.5387573804776182 0.5462752158795207 0 1 0 0 1 0 1 0 0 0 1:0.238095 2:-0.185185 3:-1 5:-0.6 6:1 7:-0.4 8:-0.69697 9:-0.878788 10:-1 11:-0.833333 12:-0.6 13:-0.246753 14:0.454545 15:-0.744409 16:0.723833 17:0.736176 18:-0.75 19:-0.818182 20:-0.677419 21:0.272727 22:-0.0666667 
0 1 1 0 1 0 1 0 0 1 0 1 0 0 0 1:-0.047619 2:-0.185185 3:-1 5:-0.6 6:1 7:-0.4 8:-0.69697 9:-0.878788 10:-1 11:-0.833333 12:-0.536842 13:-0.324675 14:0.454545 15:-0.72524 16:-0.449631 17:-0.428381 18:-0.75 19:-0.454545 20:0.354839 21:-0.272727 22:-1 
1 1 1 1 1 1 1 1 0 1 1 1 0 1 1 1:0.047619 2:-0.037037 3:-1 5:-0.6 6:1 7:-0.4 8:-0.717172 9:-0.878788 10:-1 11:-0.833333 12:-0.663158 13:-0.558442 14:-0.818182 15:-0.661342 16:0.549877 17:0.513658 18:-0.75 19:-0.272727 20:-0.870968 21:-0.454545 22:-0.0666667 
0 0 1 0 0 0 0.3486679375265075 0 0 0.3153970031763974 0 0 0 0 0 1:0.142857 2:-0.037037 3:-1 5:-0.6 6:1 7:-0.4 8:-0.737374 9:-0.878788 10:-1 11:-0.833333 12:-0.684211 13:-0.246753 14:0.454545 15:-0.0159744 16:0.546929 17:0.548301 18:0.0625 19:-0.454545 20:-0.677419 21:-0.0909091 22:-1 
0 0 1 0 1 0 1 1 1 0 0 0 0 0 1 1:-0.809524 2:-0.851852 3:-1 5:-0.6 6:-1 7:-0.4 8:0.979798 9:-0.757576 10:-1 11:-0.833333 12:-0.473684 13:0.272727 14:0.636364 15:-0.182109 16:-0.0633907 17:-0.0526316 18:-0.75 19:-0.454545 20:0.741935 21:-0.454545 22:-0.0666667 
1 1 1 1 1 1 1 0 1 1 1 1 1 1 1 1:0.238095 2:0.185185 3:-1 5:-0.6 6:-1 7:-0.4 8:-0.919192 9:-0.757576 10:-1 11:-0.833333 12:-0.347368 13:-0.844156 14:-0.0909091 15:-0.955272 16:-0.517445 17:-0.491006 18:-0.9375 19:-0.454545 20:0.354839 21:-0.272727 22:-1 
1 1 1 1 1 0.4635668801882543 1 0 0 0.3217278851439307 1 0.4667869742626267 0 1 0 1:-0.714286 2:-0.333333 3:-1 5:-0.6 6:-1 7:-0.4 8:-0.757576 9:-0.757576 10:-1 11:-0.833333 12:-0.178947 13:-0.246753 14:0.454545 15:-0.744409 16:-0.323833 17:-0.297801 18:-0.75 19:-0.636364 20:-0.225806 21:-0.636364 22:-0.0666667 
0 1 1 0 0.2128800521051729 0 1 0 0 0.6886163881006018 0 1 0 0 0 1:-0.714286 2:0.185185 3:-1 5:-0.6 6:1 7:-0.4 8:-0.777778 9:-0.757576 10:-1 11:-0.833333 12:-0.621053 13:-0.012987 14:0.636364 15:-0.603834 16:-0.739558 17:-0.729514 18:-0.75 19:0.636364 20:0.741935 21:-0.0909091 22:-1 
1 1 1 1 1 1 0.3398172622467963 0 0 1 0 1 0 0 1 1:0.238095 2:0.185185 3:-1 5:-0.6 6:1 7:-0.4 8:-0.69697 9:-0.757576 10:-1 11:-0.833333 12:-0.536842 13:-0.844156 14:-0.0909091 15:-0.955272 16:-0.517445 17:-0.491006 18:-0.9375 19:-0.636364 20:-0.16129 21:-0.636364 22:-0.0666667 
0 1 1 0 1 0 0 0 0 0 0 0.6943446817237705 0 0 0 1:0.238095 2:-0.185185 3:-1 5:-0.6 6:1 7:-0.4 8:-0.69697 9:-0.878788 10:-1 11:-0.833333 12:-0.578947 13:-0.246753 14:0.454545 15:-0.744409 16:0.723833 17:0.736176 18:-0.75 19:0.272727 20:0.0967742 21:-0.818182 22:-1 
1 0 1 1 1 1 1 1 1 1 1 1 1 0 1 1:0.238095 2:-0.111111 3:-1 5:-0.6 6:1 7:-0.4 8:-0.69697 9:-0.878788 10:-1 11:-0.833333 12:-0.578947 13:0.246753 14:-1 15:-0.271565 16:-0.215725 17:-0.177881 18:-0.75 19:0.454545 20:-0.870968 21:0.636364 22:-0.0666667 
0 1 1 0 0 0 1 0 1 0.6902195329595905 0 1 0 0 0.2522569401049647 1:-0.047619 2:-0.185185 3:-1 5:0.2 6:1 7:-0.4 8:-0.737374 9:-0.636364 10:-1 11:-0.833333 12:-0.6 13:-0.246753 14:0.454545 15:-0.361022 16:-0.810319 17:-0.784144 18:0.0625 19:1 20:-0.225806 21:-1 22:-0.0666667 
-0 0 0 0 0 1 0 0 0 0 0 0 0 0 0 1:-0.428571 2:-0.259259 3:-1 5:-0.6 6:1 7:-0.4 8:-0.737374 9:-0.757576 10:-1 11:0.166667 12:-0.368421 13:-1 14:-1 15:-0.968051 16:-0.315971 17:-0.58561 18:-0.75 19:-1 20:1 21:-1 22:1 
-0 0 1 0 0 1 0 0 0 0 1 0 0 0 0 1:-0.428571 2:-0.259259 3:-1 5:-0.6 6:-1 7:-0.4 8:-0.737374 9:-0.757576 10:-0.6 11:-1 12:-0.578947 13:-1 14:-1 15:-0.968051 16:-0.315971 17:-0.58561 18:-0.75 19:0.454545 20:-0.290323 21:0.454545 22:-0.333333 
-0 0 1 0 0.728692951543756 1 0 0 0 0 0 0 0 0 0 1:0.52381 2:-0.555556 3:-1 5:-0.6 6:-1 7:-0.4 8:-0.757576 9:-0.757576 10:-1 11:-0.833333 12:-0.705263 13:-0.74026 14:-1 15:-0.597444 16:-0.760197 17:-0.750833 18:-0.75 19:-0.636364 20:0.677419 21:-0.636364 22:0.533333 
-1 1 1 1 1 0.6311778824043308 1 0 1 0.3943420465505969 0 0.04312502498722968 0 1 0 1:-1 2:-0.481481 3:-1 5:-0.6 6:-1 7:-0.4 8:0.979798 9:-0.757576 10:-1 11:-0.833333 12:-0.473684 13:-0.818182 14:-0.272727 15:-0.948882 16:0.245209 17:0.244504 18:-0.75 19:-0.818182 20:0.483871 21:-0.818182 22:-0.0666667 
-0 0.896763930331382 0 0 0 0 0 0 0 0 0 0 0 0 0 1:0.52381 2:-1 3:-1 5:-0.6 6:-1 7:-0.4 8:-0.777778 9:-0.757576 10:0.2 11:-1 12:-0.410526 13:-1 14:-1 15:-0.968051 16:0.746437 17:0.758827 18:-0.75 19:-0.272727 20:1 21:-0.272727 22:0.933333 
-0 1 1 0 0 0 0 0 0 0 0 0 0 0 0 1:-0.333333 2:-0.62963 3:-1 5:-0.6 6:1 7:-0.4 8:-0.757576 9:-0.878788 10:0.2 11:-0.833333 12:-0.284211 13:-0.74026 14:-1 15:-0.520767 16:0.29828 17:0.255163 18:-0.75 19:0.272727 20:0.548387 21:0.272727 22:0.533333 
-0 0 0 0 0 1 0 0 0 0 0 0 0 0 0 1:-0.428571 2:-0.259259 3:-1 5:-0.6 6:1 7:-0.4 8:-0.737374 9:-0.757576 10:-1 11:0.166667 12:-0.473684 13:-1 14:-1 15:-0.968051 16:-0.315971 17:-0.58561 18:-0.75 19:-0.454545 20:0.935484 21:-0.454545 22:0.933333 
-1 1 1 1 1 0 0 0 0 1 0 1 1 0 0 1:0.52381 2:-0.259259 3:-1 5:-0.6 6:-1 7:-0.4 8:-0.757576 9:-0.878788 10:-1 11:-0.833333 12:-0.705263 13:-0.818182 14:-0.272727 15:-0.948882 16:0.400491 17:0.403065 18:-0.75 19:-1 20:1 21:-0.636364 22:-0.0666667 
-0 0 0 0 0 0.7340984792172932 0 0 0 0 0 0 0 0 0 1:0.52381 2:-0.703704 3:-1 5:-0.6 6:-1 7:-0.4 8:1 9:-0.757576 10:-0.6 11:-0.666667 12:-0.242105 13:-1 14:-1 15:-0.968051 16:-0.604914 17:-0.581612 18:-0.75 19:0.636364 20:0.677419 21:0.636364 22:0.666667 
-0 0 0 0 0 1 0 0 0 0 0 0 0 0 0 1:0.52381 2:-0.259259 3:-1 5:-0.6 6:-1 7:-0.4 8:-0.838384 9:-0.757576 10:-1 11:-0.833333 12:-0.684211 13:-1 14:-1 15:-0.968051 16:0.746437 17:0.758827 18:-0.75 19:-0.454545 20:-0.935484 21:-0.454545 22:-1 
-0 0 1 0 1 1 0 0 0 0 0 0 0 0 0 1:0.619048 2:-0.62963 3:-1 5:-0.6 6:-1 7:-0.4 8:-0.858586 9:-0.757576 10:-1 11:-0.833333 12:-0.705263 13:-0.74026 14:-1 15:-0.584665 16:-0.535135 17:-0.513658 18:-0.75 19:0.454545 20:0.0967742 21:0.454545 22:-0.0666667 
-0 0 1 0 0 0 0 0 0 0 0.7955131704044968 0 0 0 0 1:0.52381 2:0.333333 3:-1 5:-1 6:1 7:-0.4 8:-0.89899 9:-1 10:0.2 11:-0.833333 12:-0.684211 13:-1 14:-1 15:-0.968051 16:-0.315971 17:-0.58561 18:-0.75 19:-0.272727 20:-0.290323 21:-0.272727 22:-0.0666667 
-0 0 1 0 0 1 0 0 0 0 0 0 0 0 0 1:-0.428571 2:-0.259259 3:-1 5:-0.6 6:-1 7:-0.4 8:-0.757576 9:-0.757576 10:-1 11:-0.833333 12:-0.6 13:-1 14:-1 15:-0.968051 16:-0.315971 17:-0.58561 18:-0.75 19:-1 20:0.483871 21:-1 22:0.533333 
-0 0 1 1 1 1 0 0 0 0 0 0 0 0 0 1:0.52381 2:-0.259259 3:-1 5:-0.6 6:-1 7:-0.4 8:-0.69697 9:-0.757576 10:-1 11:-0.833333 12:-0.536842 13:-1 14:-1 15:-0.086262 16:0.653071 17:0.658894 18:-0.75 19:-0.0909091 20:-0.935484 21:-0.0909091 22:-1 
-0 0 0 0 0 1 0 0 0 0 0 0 0 0 0 1:0.52381 2:-0.703704 3:-1 5:-0.6 6:-1 7:-0.4 8:-0.79798 9:-0.757576 10:-1 11:-0.833333 12:-0.663158 13:-1 14:-1 15:-0.968051 16:-0.604914 17:-0.581612 18:-0.75 19:-0.818182 20:-0.290323 21:-0.818182 22:-0.0666667 
-0 0 0 0 0 1 0 0 0 0 0 0 0 0 0 1:-0.142857 2:0.111111 3:-1 5:-1 6:-1 7:-0.4 8:-0.737374 9:-1 10:-1 11:-0.833333 12:-0.536842 13:-1 14:-1 15:-0.968051 16:0.746437 17:0.758827 18:-0.75 19:0.818182 20:0.419355 21:0.818182 22:0.533333 
-0 0 1 1 0.6142937905827789 1 0 0 0 0 0 0 0 0 0 1:-0.904762 2:-0.703704 3:-1 5:-0.8 6:-1 7:-0.4 8:1 9:-0.272727 10:-1 11:-0.833333 12:-0.452632 13:-1 14:-1 15:0.0223642 16:0.218673 17:-0.135243 18:-0.75 19:0.818182 20:-0.0322581 21:0.818182 22:-0.0666667 
-0 0 0 0 0 1 0 0 0 0 0 0 0 0 0 1:0.52381 2:-0.703704 3:-1 5:-0.6 6:-1 7:-0.4 8:-0.717172 9:-0.757576 10:-1 11:-0.833333 12:-0.452632 13:-1 14:-1 15:-0.968051 16:-0.604914 17:-0.581612 18:-0.75 19:-1 20:0.935484 21:-1 22:-0.0666667 
-0 0 1 0 0 0 0 0 0 0 0 0 0 0 0 1:-0.142857 2:-0.703704 3:-1 5:-0.6 6:1 7:-0.4 8:-0.757576 9:-0.757576 10:-1 11:-0.833333 12:-0.6 13:-1 14:-1 15:0.0223642 16:0.195086 17:0.20453 18:-0.75 19:-0.636364 20:-0.548387 21:-0.636364 22:-0.0666667 
-0 0 0 0 0 1 0 0 0 0 0 0 0 0 0 1:0.52381 2:-0.259259 3:-1 5:-0.6 6:-1 7:-0.4 8:-0.737374 9:-0.757576 10:-1 11:-0.833333 12:-0.621053 13:-1 14:-1 15:-0.968051 16:0.746437 17:0.758827 18:-0.75 19:0.272727 20:-0.935484 21:0.272727 22:-1 
-0 0 0 1 0 1 0 0 0 0 0 0 0 0 0 1:-0.428571 2:-0.259259 3:-1 5:-0.6 6:-1 7:-0.4 8:-0.717172 9:-0.757576 10:-1 11:-0.833333 12:-0.557895 13:-1 14:-1 15:-0.968051 16:-0.315971 17:-0.58561 18:-0.75 19:-0.272727 20:-0.16129 21:-0.272727 22:-0.2 
-0 0 1 0 0 1 0 0 0 0 0.8154416876352214 0 0 0 0 1:-0.428571 2:-0.259259 3:-1 5:-0.6 6:-1 7:-0.4 8:1 9:-0.757576 10:-0.6 11:-0.666667 12:-0.242105 13:-1 14:-1 15:-0.968051 16:-0.315971 17:-0.58561 18:-0.75 19:0.636364 20:0.677419 21:0.636364 22:0.666667 
-0 0 1 1 0 1 1 0 0 0 1 0 0 0 0 1:-0.52381 2:-0.62963 3:-1 5:-0.6 6:-1 7:-0.4 8:-0.69697 9:-0.757576 10:-1 11:-0.833333 12:-0.684211 13:-1 14:-1 15:0.028754 16:-0.600983 17:-0.576282 18:-0.75 19:-0.272727 20:0.870968 21:-0.272727 22:0.4 
-0 0 0 0 1 0 0 0 0 0 0 0 0 0 0 1:-0.333333 2:-0.62963 3:-1 5:-0.6 6:-1 7:-0.4 8:-0.959596 9:-0.878788 10:-1 11:-0.833333 12:-0.389474 13:-0.74026 14:-1 15:-0.520767 16:0.29828 17:0.255163 18:-0.75 19:-0.636364 20:0.290323 21:-0.636364 22:-0.0666667 
-0.7956404561351366 0 1 1 1 0 0 0 0 1 0 1 0.913952595591961 0 0 1:0.52381 2:0.333333 3:-1 5:-1 6:1 7:-0.4 8:-0.919192 9:-1 10:-0.6 11:-0.833333 12:-0.452632 13:-1 14:-1 15:-0.968051 16:-0.315971 17:-0.58561 18:-0.75 19:-0.454545 20:0.935484 21:-0.272727 22:-1 
-0 0.933305484695214 0 0 0 0 0 0 0 0 0 0 0 0 0 1:0.52381 2:-0.259259 3:-1 5:-0.6 6:1 7:-0.4 8:-0.69697 9:-0.757576 10:0.2 11:0.166667 12:-0.6 13:-1 14:-1 15:-0.968051 16:0.330713 17:0.333777 18:-0.75 19:0.272727 20:0.225806 21:0.272727 22:0.2 
-0 0 1 0 1 0 0 0 0 0 0 0 0 0 0 1:-0.333333 2:-0.62963 3:-1 5:-0.6 6:-1 7:-0.4 8:-0.858586 9:-0.878788 10:-1 11:-0.833333 12:-0.642105 13:-0.74026 14:-1 15:-0.520767 16:0.29828 17:0.255163 18:-0.75 19:-0.272727 20:-0.741935 21:-0.272727 22:-0.8 
-1 1 1 1 1 0 0 0 0.1984501095934603 1 0.8531390706590811 1 0.1030377208184695 0 0 1:0.52381 2:-0.259259 3:-1 5:-0.6 6:-1 7:-0.4 8:-0.69697 9:-0.878788 10:-1 11:-0.833333 12:-0.684211 13:-0.818182 14:-0.272727 15:-0.948882 16:-0.0800983 17:-0.0686209 18:-0.75 19:-0.636364 20:-0.870968 21:-0.636364 22:-0.933333 
-1 1 1 1 1 0 1 0 0 1 0 1 0 0 0.9785489884433679 1:0.52381 2:-0.259259 3:-1 5:-0.6 6:-1 7:-0.4 8:-0.69697 9:-0.878788 10:-1 11:-0.833333 12:-0.536842 13:-0.818182 14:-0.272727 15:-0.948882 16:-0.0800983 17:-0.0686209 18:-0.75 19:0.272727 20:-0.806452 21:0.272727 22:-0.866667 
-0 0 1 1 1 1 1 0 1 1 1 1 1 1 0.8056089535407797 1:-0.142857 2:-0.259259 3:-1 5:-0.6 6:-1 7:-0.4 8:-0.737374 9:-0.757576 10:-1 11:-0.833333 12:-0.6 13:-0.74026 14:-1 15:-0.597444 16:-0.762162 17:-0.750833 18:-0.75 19:-0.818182 20:0.677419 21:1 22:-0.933333 
-0 0 1 0 0 0 0 0 0 0 0 0 0 0 0 1:-0.333333 2:-0.62963 3:-1 5:-0.6 6:-1 7:-0.4 8:-0.777778 9:-0.878788 10:-1 11:-0.833333 12:-0.578947 13:-0.74026 14:-1 15:-0.520767 16:0.29828 17:0.255163 18:-0.75 19:-0.636364 20:1 21:-0.636364 22:-0.0666667 
-0 0 0 0 0 1 0 0 0 0 0 0 0 0 0 1:0.52381 2:-1 3:-1 5:-0.6 6:1 7:-0.4 8:-0.737374 9:-0.757576 10:-0.6 11:-1 12:-0.368421 13:-1 14:-1 15:-0.968051 16:-0.277641 17:-0.664224 18:-0.75 19:-0.454545 20:0.870968 21:-0.454545 22:0.866667 
-0 0 0 0 0 1 0 0 0 0 0 0 0 0 0 1:-0.428571 2:-0.259259 3:-1 5:-0.6 6:-1 7:-0.4 8:-0.757576 9:-0.757576 10:-1 11:-0.833333 12:-0.6 13:-1 14:-1 15:-0.968051 16:-0.315971 17:-0.58561 18:-0.75 19:0.454545 20:0.548387 21:0.454545 22:0.466667 
-0 0 1 0.7563188838316475 0 0 0 0 0 0 0 1 0 0 0 1:0.52381 2:0.333333 3:-1 5:-1 6:1 7:-0.4 8:-0.858586 9:-1 10:-1 11:-0.833333 12:-0.6 13:-1 14:-1 15:-0.968051 16:-0.315971 17:-0.58561 18:-0.75 19:-0.0909091 20:-0.16129 21:-0.0909091 22:-0.0666667 
-0 0 0 0 0 1 0 0 0 0 0 0 0 0 0 1:-0.142857 2:-0.481481 3:-1 5:-1 6:-1 7:-0.4 8:-0.838384 9:-1 10:-1 11:-0.833333 12:-0.263158 13:-1 14:-1 15:-0.968051 16:-0.604914 17:-0.581612 18:-0.75 19:-0.272727 20:-0.0967742 21:-0.272727 22:-0.133333 
-1 1 1 1 1 0.3831030910784008 1 1 1 1 1 1 1 1 1 1:-1 2:-0.333333 3:-1 5:-0.6 6:1 7:-0.4 8:-0.737374 9:-0.757576 10:-1 11:-0.833333 12:-0.578947 13:0.350649 14:1 15:-0.373802 16:0.72285 17:0.734843 18:-0.75 19:0.636364 20:0.16129 21:0.636364 22:0.133333 
-0 0 1 0 1 0 0 0 0 0 0 0 0 0 0 1:0.619048 2:-0.62963 3:-1 5:-0.6 6:-1 7:-0.4 8:-0.757576 9:-0.757576 10:-1 11:-0.833333 12:-0.705263 13:-0.74026 14:-1 15:-0.584665 16:0.25602 17:0.256496 18:-0.75 19:0.454545 20:0.548387 21:0.454545 22:-0.0666667 
-0 0 1 0 0 0 0 0 0 0 0 0 0 0 0 1:0.52381 2:-0.259259 3:-1 5:-0.6 6:-1 7:-0.4 8:-0.79798 9:-0.757576 10:-1 11:-0.833333 12:-0.642105 13:-1 14:-1 15:-0.968051 16:0.746437 17:0.758827 18:-0.75 19:-1 20:0.677419 21:-1 22:0.666667 
-0 0 0 0 0 1 0 0 0 0 0 0 0 0 0 1:0.52381 2:-0.259259 3:-1 5:-0.6 6:-1 7:-0.4 8:-0.959596 9:-0.757576 10:-1 11:-0.833333 12:-0.389474 13:-1 14:-1 15:-0.968051 16:0.746437 17:0.758827 18:-0.75 19:-0.454545 20:-0.806452 21:-0.454545 22:-1 
-0 1 1 0 0 0 0 0 0 0 0 0 0 0 0 1:0.52381 2:-0.259259 3:-1 5:-0.6 6:-1 7:-0.4 8:-0.777778 9:-0.757576 10:0.2 11:-1 12:-0.578947 13:-1 14:-1 15:-0.968051 16:0.746437 17:0.758827 18:-0.75 19:-0.0909091 20:-0.419355 21:-0.0909091 22:-0.466667 
-0 0 0 0 1 0.6373443115489291 0 0 0 0 0 0 0 0 0 1:0.52381 2:-0.703704 3:-1 5:-0.6 6:-1 7:-0.4 8:0.79798 9:-0.757576 10:-1 11:-0.833333 12:-0.663158 13:-1 14:-1 15:-0.968051 16:-0.604914 17:-0.581612 18:-0.75 19:0.818182 20:-0.935484 21:0.818182 22:-1 
-0 0 1 1 1 1 0 0 0 0 1 0 0 0 0.2002600838010291 1:-0.52381 2:0.259259 3:-1 5:-1 6:-1 7:-0.4 8:0.939394 9:-1 10:-1 11:-0.833333 12:-0.305263 13:-1 14:-1 15:0.0223642 16:0.219656 17:-0.135243 18:-0.75 19:-0.818182 20:0.419355 21:-0.818182 22:-0.0666667 
-0 0 1 0 0 0 0 0 0 0 0 0 0 0 0 1:-0.333333 2:-0.62963 3:-1 5:-0.6 6:-1 7:-0.4 8:-0.79798 9:-0.878788 10:-1 11:-0.833333 12:-0.684211 13:-0.74026 14:-1 15:-0.520767 16:0.29828 17:0.255163 18:-0.75 19:0.0909091 20:0.870968 21:0.0909091 22:-0.0666667 
-0 1 1 0 1 1 0 0 0 0 0 0 0 0 1 1:-0.142857 2:-0.925926 3:-1 5:-0.6 6:-1 7:-0.4 8:-0.69697 9:-0.757576 10:-1 11:-0.833333 12:-0.536842 13:-0.74026 14:-1 15:0.0798722 16:0.712039 17:0.722851 18:-0.75 19:-0.818182 20:-0.16129 21:-0.818182 22:-0.2 
-0 0 0 0 0 1 0 0 0 0 0 0 0 0 0 1:-1 2:-0.925926 3:-1 5:-0.6 6:-1 7:-0.4 8:-0.818182 9:-0.757576 10:-1 11:-0.833333 12:-0.663158 13:-0.74026 14:-1 15:-0.597444 16:-0.0181818 17:-0.017988 18:-0.75 19:0.0909091 20:-0.0322581 21:0.0909091 22:-0.0666667 
-0 0 1 0 0 1 0 0 0 0 0.061155445081807 0 0 0 0 1:-0.428571 2:-0.259259 3:-1 5:-0.6 6:-1 7:-0.4 8:-0.777778 9:-0.757576 10:-0.6 11:-1 12:-0.621053 13:-1 14:-1 15:-0.968051 16:-0.315971 17:-0.58561 18:-0.75 19:-0.636364 20:0.935484 21:-0.636364 22:0.933333 
-0 0 0 0 1 0 0 0 0 0 0 0 0 0 0 1:-0.333333 2:-0.62963 3:-1 5:-0.6 6:-1 7:-0.4 8:-0.757576 9:-0.878788 10:-1 11:-0.833333 12:-0.410526 13:-0.74026 14:-1 15:-0.520767 16:0.29828 17:0.255163 18:-0.75 19:0.818182 20:0.0322581 21:0.818182 22:-0.0666667 
-0 0 1 0 0 1 0 0 0 0 0 0 0 0 0 1:-0.904762 2:-0.703704 3:-1 5:-0.6 6:-1 7:-0.4 8:-0.717172 9:-0.757576 10:-1 11:-0.833333 12:-0.557895 13:-0.74026 14:-1 15:-0.584665 16:0.718919 17:0.730846 18:-0.75 19:-0.0909091 20:0.677419 21:0.0909091 22:-0.0666667 
-0 0 1 0 0 0 0 0 0 0 0 0 0 0 0 1:-0.333333 2:-0.62963 3:-1 5:-0.6 6:-1 7:-0.4 8:-0.818182 9:-0.878788 10:-1 11:-0.833333 12:-0.684211 13:-0.74026 14:-1 15:-0.520767 16:0.29828 17:0.255163 18:-0.75 19:-0.454545 20:0.935484 21:-0.454545 22:-0.0666667 
-0 0 0 0 0 1 0 0 0 0 0 0 0 0 0 1:0.52381 2:-0.703704 3:-1 5:-0.6 6:-1 7:-0.4 8:-0.717172 9:-0.757576 10:-1 11:-0.833333 12:-0.557895 13:-1 14:-1 15:-0.968051 16:-0.604914 17:-0.581612 18:-0.75 19:-0.454545 20:-0.935484 21:-0.454545 22:-1 
-0 0 0 0 0 1 0 0 0 0 0 0 0 0 0 1:-0.142857 2:-0.481481 3:-1 5:-1 6:-1 7:-0.4 8:-0.858586 9:-1 10:-1 11:-0.833333 12:-0.663158 13:-1 14:-1 15:-0.968051 16:-0.604914 17:-0.581612 18:-0.75 19:-0.272727 20:0.548387 21:-0.636364 22:-0.0666667 
-0 0 1 1 0.6796480309819525 0.2853412191706114 0 0 0 0 0 0 0 0 0.2604552161904593 1:-1 2:-0.481481 3:-1 5:-0.6 6:1 7:-0.4 8:-0.717172 9:-0.757576 10:-1 11:-0.833333 12:-0.663158 13:-1 14:-1 15:-0.233227 16:0.214742 17:0.212525 18:-0.75 19:0.818182 20:0.354839 21:1 22:-1 
-0 0 1 0 0 0 0 0 0 0 0 0 0 0 0 1:0.52381 2:-0.259259 3:-1 5:-0.6 6:1 7:-0.4 8:-0.717172 9:-0.757576 10:-1 11:0.166667 12:-0.452632 13:-1 14:-1 15:-0.968051 16:0.330713 17:0.333777 18:-0.75 19:-0.454545 20:-0.548387 21:-0.454545 22:-0.6 
-0 1 0 0 0 0 0 0 0 0 0 0 0 0 0 1:0.52381 2:-0.259259 3:-1 5:-0.6 6:-1 7:-0.4 8:-0.777778 9:-0.757576 10:0.2 11:-1 12:-0.578947 13:-1 14:-1 15:-0.968051 16:0.746437 17:0.758827 18:-0.75 19:0.272727 20:-0.225806 21:0.272727 22:-0.266667 
-0 0.01258792984583516 0 0 0 0 0 0 0 0 0 0 0 0 0 1:0.52381 2:-0.259259 3:-1 5:-0.6 6:-1 7:-0.4 8:-0.79798 9:-0.757576 10:0.2 11:-0.833333 12:-0.536842 13:-1 14:-1 15:-0.968051 16:0.330713 17:0.333777 18:-0.75 19:1 20:-0.870968 21:1 22:-0.0666667 
-0 0 1 1 1 0.5700043556312924 0 0 0 0 0 1 0 0 0 1:0.52381 2:0.333333 3:-1 5:-1 6:1 7:-0.4 8:-0.878788 9:-1 10:-1 11:-0.833333 12:-0.621053 13:-1 14:-1 15:-0.968051 16:-0.315971 17:-0.58561 18:-0.75 19:1 20:0.290323 21:1 22:-0.0666667 
-0 0 1 0 0 0 0 0 0 0 0 0.7439555803927843 0 0 0 1:0.52381 2:0.333333 3:-1 5:-1 6:1 7:-0.4 8:-0.878788 9:-1 10:0.2 11:-0.833333 12:-0.305263 13:-1 14:-1 15:-0.968051 16:-0.315971 17:-0.58561 18:-0.75 19:0.636364 20:0.741935 21:0.818182 22:-0.0666667 
-0 0 1 0 0 1 0 0 0 0 0 0 0 0 0 1:0.52381 2:-0.703704 3:-1 5:-0.6 6:-1 7:-0.4 8:-0.737374 9:-0.757576 10:-1 11:-0.833333 12:-0.578947 13:-1 14:-1 15:-0.968051 16:-0.277641 17:-0.664224 18:-0.75 19:-0.818182 20:0.290323 21:-0.636364 22:-1 
-0 0 0 0 0 1 0 0 0 0 0 0 0 0 0 1:-0.142857 2:-0.481481 3:-1 5:-1 6:-1 7:-0.4 8:-0.878788 9:-1 10:-0.6 11:-0.666667 12:-0.305263 13:-1 14:-1 15:-0.968051 16:-0.277641 17:-0.664224 18:-0.75 19:0.272727 20:0.612903 21:0.272727 22:0.6 
-0 0 1 0 0 1 0 0 0 0 0 0 0 0 0 1:-0.428571 2:-0.259259 3:-1 5:-0.6 6:-1 7:-0.4 8:-0.757576 9:-0.757576 10:-1 11:-0.833333 12:-0.705263 13:-1 14:-1 15:-0.968051 16:-0.315971 17:-0.58561 18:-0.75 19:0.272727 20:0.290323 21:0.272727 22:-0.0666667 
-1 1 1 1 1 0 0 0 0 1 0 1 0 0 0.03884197315736482 1:-1 2:0.333333 3:-1 5:-0.6 6:1 7:-0.4 8:-0.737374 9:-0.757576 10:-1 11:-0.833333 12:-0.642105 13:-0.818182 14:-0.272727 15:-0.948882 16:0.246192 17:0.244504 18:-0.75 19:0.272727 20:0.419355 21:0.272727 22:0.266667 
-1 1 1 1 1 1 1 1 0 1 0.02545533550939326 1 0.4950992576602711 0 1 1:-0.428571 2:-1 3:-1 5:-0.6 6:1 7:-0.4 8:-0.717172 9:-0.878788 10:-1 11:-0.833333 12:-0.136842 13:0.454545 14:-1 15:-0.188498 16:0.629484 17:0.633578 18:-0.75 19:-0.272727 20:0.870968 21:-0.0909091 22:-1 
-1 0 1 0.4412585417713438 1 1 0 0 0 1 0 1 1 0 0.6939541390577584 1:0.52381 2:-0.555556 3:-1 5:-0.6 6:1 7:-0.4 8:-0.717172 9:-0.757576 10:-1 11:-0.833333 12:-0.663158 13:-1 14:-1 15:-0.233227 16:-0.633415 17:-0.606929 18:-0.75 19:-0.818182 20:-0.741935 21:-0.818182 22:-1 
-0 0 1 1 1 0 0 0 0 0.2953497626162552 0 0 0 0 1 1:-0.142857 2:-0.259259 3:-1 5:-0.6 6:1 7:-0.4 8:-0.717172 9:-0.757576 10:-1 11:-0.833333 12:-0.663158 13:-1 14:-1 15:0.0223642 16:0.481081 17:0.481679 18:-0.75 19:-0.636364 20:-0.677419 21:-0.454545 22:-1 
-0 1 0.6492503480018692 0 0 0 0 0 0 0 0 0 0 0 0 1:0.52381 2:-0.259259 3:-1 5:-0.6 6:-1 7:-0.4 8:-0.777778 9:-0.757576 10:0.2 11:-1 12:-0.705263 13:-1 14:-1 15:-0.968051 16:0.746437 17:0.758827 18:-0.75 19:0.0909091 20:-0.0322581 21:0.0909091 22:-0.0666667 
-0 0 1 0 0 0 0 0 0 0 0 0 0 0 0 1:0.52381 2:0.333333 3:-1 5:-0.6 6:1 7:-0.4 8:-0.717172 9:-0.757576 10:-1 11:0.166667 12:-0.663158 13:-1 14:-1 15:-0.968051 16:0.330713 17:0.333777 18:-0.75 19:-0.272727 20:0.935484 21:-0.272727 22:0.933333 
-0 0 0 0 0 0 0 0 0 0 0.5508038867049151 0 0 0 0 1:-0.142857 2:-0.481481 3:-1 5:-1 6:1 7:-0.4 8:-0.838384 9:-1 10:0.2 11:-0.833333 12:-0.263158 13:-1 14:-1 15:-0.968051 16:-0.604914 17:-0.581612 18:-0.75 19:0.454545 20:-0.290323 21:0.454545 22:-0.0666667 
-1 1 1 1 1 0 0 0 0 1 0 1 0 0 1 1:-1 2:0.333333 3:-1 5:-0.6 6:1 7:-0.4 8:-0.737374 9:-0.757576 10:-1 11:-0.833333 12:-0.684211 13:-0.818182 14:-0.272727 15:-0.948882 16:0.246192 17:0.244504 18:-0.75 19:0.272727 20:-0.0322581 21:0.272727 22:0.266667 
-0 0 1 0 0 1 0 0 0 0 0 0 0 0.9052829614136997 0 1:-0.428571 2:-0.555556 3:-1 5:-0.6 6:-1 7:-0.4 8:-0.757576 9:-0.878788 10:-1 11:-0.833333 12:-0.6 13:-0.74026 14:-1 15:-0.584665 16:0.572482 17:0.576282 18:-0.5 19:0.818182 20:-0.483871 21:0.818182 22:0.933333 
-0 0 1 0 0 1 0 0 0 0 1 0 0 0 0 1:-0.428571 2:-0.259259 3:-1 5:-0.6 6:-1 7:-0.4 8:-0.757576 9:-0.757576 10:-0.6 11:-1 12:-0.663158 13:-1 14:-1 15:-0.968051 16:-0.315971 17:-0.58561 18:-0.75 19:-1 20:0.548387 21:-1 22:0.533333 
-0 0 1 0 0 0 0 0 0 0 0 0 0 0 0 1:-0.333333 2:-0.62963 3:-1 5:-0.6 6:-1 7:-0.4 8:-0.818182 9:-0.878788 10:-1 11:-0.833333 12:-0.705263 13:-0.74026 14:-1 15:-0.520767 16:0.29828 17:0.255163 18:-0.75 19:-0.818182 20:0.677419 21:-0.818182 22:-0.0666667 
-0 1 1 1 1 1 0 0 0 0 0 0 0 1 0 1:-1 2:-0.481481 3:-1 5:-0.6 6:-1 7:-0.4 8:-0.737374 9:-0.757576 10:-1 11:-0.833333 12:-0.684211 13:-0.818182 14:-0.272727 15:-0.948882 16:0.246192 17:0.244504 18:-0.75 19:-0.636364 20:0.806452 21:1 22:0.266667 
-0 1 0 0 0 0 0 0 0 0 0 0 0 0 0 1:0.52381 2:-1 3:-1 5:-0.6 6:-1 7:-0.4 8:-0.717172 9:-0.757576 10:0.2 11:-1 12:-0.347368 13:-1 14:-1 15:-0.968051 16:0.746437 17:0.758827 18:-0.75 19:-1 20:1 21:-1 22:1 
-0 0 1 0 0 1 0 0 0 0 0 1 0 0 0 1:0.52381 2:-0.703704 3:-1 5:-0.6 6:-1 7:-0.4 8:0.979798 9:-0.757576 10:-1 11:-0.833333 12:-0.684211 13:-1 14:-1 15:-0.968051 16:-0.604914 17:-0.581612 18:-0.75 19:0.818182 20:0.548387 21:0.818182 22:-0.0666667 
-0 0 1 1 0 1 0 0 0 0 0 0 0 0 0 1:-0.428571 2:-0.555556 3:-1 5:-0.6 6:1 7:-0.4 8:-0.69697 9:-0.757576 10:-1 11:-0.833333 12:-0.536842 13:-1 14:-1 15:-0.316294 16:0.774939 17:0.21519 18:-0.75 19:-0.818182 20:-0.612903 21:-0.818182 22:-0.666667 
-0 0 1 1 1 0 0 0 0 1 0 1 0 0 0 1:-1 2:-0.481481 3:-1 5:-0.6 6:1 7:-0.4 8:-0.717172 9:-0.757576 10:-1 11:-0.833333 12:-0.663158 13:-0.818182 14:-0.272727 15:-0.948882 16:0.246192 17:0.244504 18:-0.75 19:-0.636364 20:0.290323 21:-0.636364 22:0.266667 
-1 1 1 1 1 1 1 1 1 1 1 1 0 1 1 1:-0.428571 2:-1 3:-1 5:-0.6 6:-1 7:-0.4 8:-0.717172 9:-0.878788 10:-1 11:-0.833333 12:-0.557895 13:0.454545 14:-1 15:-0.188498 16:-0.718919 17:-0.708195 18:-0.75 19:-0.272727 20:0.935484 21:-0.272727 22:0.933333 
-0 0 0 1 0.8491079276006861 0 1 0 0 0 0 0 0 0.1156096355302113 0 1:-1 2:-0.925926 3:-1 5:-0.6 6:-1 7:-0.4 8:-0.717172 9:-0.878788 10:-1 11:-0.833333 12:-0.621053 13:-0.818182 14:-0.272727 15:-0.948882 16:0.303194 17:0.301799 18:-0.75 19:0.454545 20:0.612903 21:0.454545 22:0.6 
-0 0 1 0 0 0 0 0 0 0 0 1 0 0 0 1:0.52381 2:0.333333 3:-1 5:-1 6:1 7:-0.4 8:-0.858586 9:-1 10:-1 11:-0.833333 12:-0.6 13:-1 14:-1 15:-0.968051 16:-0.315971 17:-0.58561 18:-0.75 19:0.272727 20:-0.483871 21:0.272727 22:-0.0666667 
-0 0 1 0 0 0 0 0 0 0 0 0 0 0 0 1:0.52381 2:-0.259259 3:-1 5:-0.6 6:1 7:-0.4 8:-0.717172 9:-0.757576 10:-1 11:0.166667 12:-0.347368 13:-1 14:-1 15:-0.968051 16:0.330713 17:0.333777 18:-0.75 19:0.636364 20:-0.548387 21:0.636364 22:-0.6 
-0 0 0 0 0 0 0 0 0 0 0.2288938243690364 0 0 0 0 1:-0.904762 2:-0.703704 3:-1 5:-0.6 6:1 7:-0.4 8:-0.717172 9:-0.757576 10:-1 11:-0.833333 12:-0.663158 13:-1 14:-1 15:0.0223642 16:-0.37199 17:-0.336442 18:-0.75 19:-0.454545 20:0.548387 21:-0.454545 22:0.533333 
-0 1 1 1 1 0 1 0 0 0.01027883597082847 0 0 0 0 0 1:-1 2:-0.481481 3:-1 5:-0.6 6:-1 7:-0.4 8:-0.717172 9:-0.757576 10:-1 11:-0.833333 12:-0.663158 13:-0.818182 14:-0.272727 15:-0.948882 16:0.246192 17:0.244504 18:-0.75 19:-0.636364 20:-0.225806 21:-0.636364 22:-0.266667 
-0 0 0 0 0 1 0 0 0 0 0 0 0 0 0 1:0.52381 2:-0.703704 3:-1 5:-0.6 6:-1 7:-0.4 8:-0.777778 9:-0.757576 10:-1 11:-0.833333 12:-0.705263 13:-1 14:-1 15:-0.968051 16:-0.604914 17:-0.581612 18:-0.75 19:-0.818182 20:-0.806452 21:-0.818182 22:-0.0666667 
-0 0 1 1 1 1 1 1 0 1 1 1 0.8044214627157867 0.5316341818946611 1 1:-0.428571 2:0.333333 3:-1 5:-0.6 6:1 7:-0.4 8:-0.919192 9:-0.757576 10:-1 11:-0.833333 12:-0.557895 13:-0.74026 14:-1 15:0.0798722 16:-0.570516 17:-0.58561 18:-0.75 19:-0.818182 20:-0.225806 21:-0.818182 22:-0.0666667 
-0 0 1 0 0 1 0 0 0 0 0 0 0 0 0 1:-0.428571 2:-0.259259 3:-1 5:-0.6 6:-1 7:-0.4 8:-0.818182 9:-0.757576 10:-1 11:-0.833333 12:-0.663158 13:-1 14:-1 15:-0.968051 16:-0.315971 17:-0.58561 18:-0.75 19:-0.454545 20:0.483871 21:-0.454545 22:0.466667 
-0 0 0.9252018485862975 0 0 0 0 0 0 0 0 0 0 0 0 1:-0.333333 2:-0.62963 3:-1 5:-0.6 6:-1 7:-0.4 8:-0.757576 9:-0.878788 10:-1 11:-0.833333 12:-0.389474 13:-0.74026 14:-1 15:-0.520767 16:0.29828 17:0.255163 18:-0.75 19:1 20:0.741935 21:1 22:-0.0666667 
-0 0 0 0 0 1 0 0 0 0 0 0 0 0 0 1:0.52381 2:-1 3:-1 5:-0.6 6:1 7:-0.4 8:-0.717172 9:-0.757576 10:-0.6 11:-1 12:-0.452632 13:-1 14:-1 15:-0.968051 16:-0.277641 17:-0.664224 18:-0.75 19:-0.636364 20:0.806452 21:-0.636364 22:0.8 
-0 0 0 0 0 1 0 0 0 0 0 0 0 0 0 1:0.52381 2:-0.703704 3:-1 5:-0.6 6:-1 7:-0.4 8:-0.818182 9:-0.757576 10:-1 11:-0.833333 12:-0.705263 13:-1 14:-1 15:-0.968051 16:-0.604914 17:-0.581612 18:-0.75 19:0.272727 20:0.741935 21:0.272727 22:-0.0666667 
-0 0 0.4385996064877701 0 0 1 0 0 0 0 0 0 0 0 0 1:-0.428571 2:-0.259259 3:-1 5:-0.6 6:-1 7:-0.4 8:-0.777778 9:-0.757576 10:-0.6 11:-1 12:-0.621053 13:-1 14:-1 15:-0.968051 16:-0.315971 17:-0.58561 18:-0.75 19:-0.454545 20:0.806452 21:-0.454545 22:0.8 
-0 0 0 0 0 0.9417749096228583 0 0 0 0 0 0 0 0 0 1:0.52381 2:-0.703704 3:-1 5:-0.6 6:-1 7:-0.4 8:0.979798 9:-0.757576 10:-1 11:-0.833333 12:-0.684211 13:-1 14:-1 15:-0.968051 16:-0.604914 17:-0.581612 18:-0.75 19:0.0909091 20:-0.0322581 21:0.0909091 22:-0.0666667 
-0 0 0 0 0 1 0 0 0 0 0 0 0 0 0 1:0.52381 2:-0.259259 3:-1 5:-0.6 6:-1 7:-0.4 8:-0.69697 9:-0.757576 10:-1 11:-0.833333 12:-0.115789 13:-1 14:-1 15:-0.968051 16:0.746437 17:0.758827 18:-0.75 19:-1 20:0.741935 21:-1 22:0.733333 
-0.8156860966464384 1 0 1 0 0 0 0 0 1 0 0 0 0 0 1:-1 2:-0.925926 3:-1 5:-0.6 6:1 7:-0.4 8:-0.69697 9:-0.878788 10:-1 11:-0.833333 12:-0.536842 13:-0.818182 14:-0.272727 15:-0.948882 16:0.303194 17:0.301799 18:-0.75 19:-1 20:-0.225806 21:-1 22:-0.0666667 
-0 0 1 1 1 1 0 0 0 0 0 0 1 0 0 1:0.52381 2:-0.259259 3:-1 5:-0.6 6:-1 7:-0.4 8:-0.717172 9:-0.757576 10:-1 11:-0.833333 12:-0.663158 13:-1 14:-1 15:-0.086262 16:0.653071 17:0.658894 18:-0.75 19:0.818182 20:0.548387 21:1 22:-0.0666667 
-0 0 1 0 0 0 0 0 0 0 0 0 0 0 0 1:0.52381 2:-0.259259 3:-1 5:-0.6 6:1 7:-0.4 8:-0.69697 9:-0.757576 10:-1 11:0.166667 12:-0.431579 13:-1 14:-1 15:-0.968051 16:0.330713 17:0.333777 18:-0.75 19:0.0909091 20:-0.612903 21:0.0909091 22:-0.666667 
-0 0 0 0 0 1 0 0 0 0 0 0 0 0 0 1:-0.428571 2:-0.259259 3:-1 5:-0.6 6:1 7:-0.4 8:-0.878788 9:-0.757576 10:-0.6 11:-0.666667 12:-0.0947368 13:-1 14:-1 15:-0.968051 16:-0.315971 17:-0.58561 18:-0.75 19:0.818182 20:0.0322581 21:0.818182 22:0.733333 
-0 0 1 0 0 0 0 0 0 0 0 0 0 0 0 1:0.52381 2:-0.703704 3:-1 5:-0.6 6:1 7:-0.4 8:-0.717172 9:-0.757576 10:-1 11:-0.833333 12:-0.663158 13:-1 14:-1 15:-0.322684 16:0.213759 17:0.223185 18:-0.75 19:-0.0909091 20:0.0967742 21:-0.0909091 22:0.0666667 
-0 0 1 0 0.5977619701226322 0 0 0 0 0 0 0 0 0 0 1:-0.142857 2:-0.259259 3:-1 5:-0.6 6:-1 7:-0.4 8:-0.69697 9:-0.757576 10:-1 11:-0.833333 12:-0.684211 13:-1 14:-1 15:0.0223642 16:0.481081 17:0.481679 18:-0.75 19:-0.0909091 20:0.935484 21:-0.0909091 22:0.933333 
-0 0 1 0 0 0 0 0 0 0 0 0 0 0 0 1:-0.333333 2:-0.62963 3:-1 5:-0.6 6:-1 7:-0.4 8:-0.818182 9:-0.878788 10:-1 11:-0.833333 12:-0.684211 13:-0.74026 14:-1 15:-0.520767 16:0.29828 17:0.255163 18:-0.75 19:1 20:0.0967742 21:1 22:-0.0666667 
-0 0 1 0 0 0 0 0 0 0 0 0 0 0 0 1:-1 2:-0.925926 3:-1 5:-0.6 6:1 7:-0.4 8:-0.69697 9:-0.757576 10:-1 11:-0.833333 12:-0.536842 13:-0.74026 14:-1 15:-0.597444 16:-0.0181818 17:-0.017988 18:-0.75 19:-0.636364 20:-0.741935 21:-0.636364 22:-0.8 
-1 1 1 1 1 0 1 0 0 1 0 0 0 0 0 1:-0.333333 2:-0.62963 3:-1 5:-0.6 6:-1 7:-0.4 8:-0.717172 9:-0.757576 10:-1 11:-0.833333 12:-0.136842 13:-0.844156 14:-0.0909091 15:-0.955272 16:0.299263 17:0.255163 18:-0.75 19:-0.636364 20:-0.290323 21:-0.636364 22:-0.333333 
-1 1 1 1 1 0 0 0 0 1 0 1 0 1 1 1:0.52381 2:-0.259259 3:-1 5:-0.6 6:-1 7:-0.4 8:-0.69697 9:-0.878788 10:-1 11:-0.833333 12:-0.684211 13:-0.818182 14:-0.272727 15:-0.948882 16:-0.0800983 17:-0.0686209 18:-0.75 19:0.272727 20:-0.806452 21:0.272727 22:-0.866667 
-0 0 1 1 1 0 0 0 0 1 0 0 0 0 0 1:-1 2:-0.481481 3:-1 5:-0.6 6:1 7:-0.4 8:-0.737374 9:-0.757576 10:-1 11:-0.833333 12:-0.578947 13:-0.818182 14:-0.272727 15:-0.948882 16:0.246192 17:0.244504 18:-0.75 19:0.272727 20:-0.483871 21:0.272727 22:0.266667 
-0 0 0 0 0 1 0 0 0 0 0 0 0 0 0 1:0.52381 2:-0.703704 3:-1 5:-0.6 6:-1 7:-0.4 8:-0.838384 9:-0.757576 10:-1 11:-0.833333 12:-0.684211 13:-1 14:-1 15:-0.968051 16:-0.277641 17:-0.664224 18:-0.75 19:-0.272727 20:-0.225806 21:-0.272727 22:-0.0666667 
-0 0 0 0 0 1 0 0 0 0 0 0 0 0 0 1:0.52381 2:-1 3:-1 5:-0.6 6:1 7:-0.4 8:-0.717172 9:-0.757576 10:-0.6 11:-1 12:-0.452632 13:-1 14:-1 15:-0.968051 16:-0.277641 17:-0.664224 18:-0.75 19:0.636364 20:1 21:0.636364 22:1 
-0 0 0 0 0 1 0 0 0 0 0 0 0 0 0 1:0.52381 2:-0.259259 3:-1 5:-0.6 6:-1 7:-0.4 8:-0.737374 9:-0.757576 10:-1 11:-0.833333 12:-0.578947 13:-1 14:-1 15:-0.968051 16:0.746437 17:0.758827 18:-0.75 19:-1 20:0.0967742 21:-1 22:0.0666667 
-0 0 1 0 0 0 0 0 0 0 0 0 0 0 0 1:0.52381 2:-1 3:-1 5:-0.6 6:1 7:-0.4 8:-0.717172 9:-0.757576 10:-0.6 11:-1 12:-0.452632 13:-1 14:-1 15:-0.968051 16:0.330713 17:0.333777 18:-0.75 19:-1 20:-0.354839 21:-1 22:-0.4 
-1 1 1 1 1 0 1 0 1 1 0 1 0 1 0 1:-0.333333 2:-0.62963 3:-1 5:-0.6 6:-1 7:-0.4 8:-0.757576 9:-0.757576 10:-1 11:-0.833333 12:-0.6 13:-0.844156 14:-0.0909091 15:-0.955272 16:0.299263 17:0.255163 18:-0.75 19:0.636364 20:-0.419355 21:0.636364 22:-0.466667 
-0 0 0 0 0 1 0 0 0 0 0 0 0 0 0 1:0.52381 2:-0.259259 3:-1 5:-0.6 6:-1 7:-0.4 8:-0.757576 9:-0.757576 10:-1 11:-0.833333 12:-0.642105 13:-1 14:-1 15:-0.968051 16:0.746437 17:0.758827 18:-0.75 19:1 20:-0.612903 21:1 22:-0.666667 
-0 0 1 0 0 0 0 0 0 0 0 0 0.8345864719653338 0 0 1:0.52381 2:-0.259259 3:-1 5:-0.6 6:1 7:-0.4 8:-0.737374 9:-0.757576 10:-1 11:0.166667 12:-0.6 13:-1 14:-1 15:-0.968051 16:0.330713 17:0.333777 18:-0.75 19:-0.818182 20:-0.290323 21:0.272727 22:-0.333333 
-0 0 1 1 0 1 0.9850506692704792 0 0 0 1 0 0 0 0 1:-0.428571 2:-0.62963 3:-1 5:-1 6:-1 7:-0.4 8:-0.858586 9:-1 10:-1 11:-0.833333 12:-0.705263 13:-1 14:-1 15:0.0223642 16:0.590172 17:-0.58561 18:-0.75 19:0.454545 20:0.548387 21:0.636364 22:-1 
-0 0 0 0 0 0 0 0 0 0 1 0 0 0 0 1:-0.142857 2:-0.481481 3:-1 5:-1 6:1 7:-0.4 8:-0.89899 9:-1 10:0.2 11:-0.833333 12:-0.642105 13:-1 14:-1 15:-0.968051 16:-0.604914 17:-0.581612 18:-0.75 19:-0.0909091 20:-0.419355 21:-0.0909091 22:-0.0666667 
-0 0 1 0.8455855650888345 1 0 0 0 0 0 0 0 0 0 0 1:-0.333333 2:-0.62963 3:-1 5:-0.6 6:1 7:-0.4 8:0.939394 9:-0.878788 10:-1 11:-0.666667 12:-0.305263 13:-0.74026 14:-1 15:-0.520767 16:0.29828 17:0.255163 18:-0.75 19:-0.272727 20:-0.0322581 21:-0.272727 22:-0.0666667 
-0 0 0 0 0 1 0 0 0 0 0 0 0 0 0 1:-0.904762 2:-1 3:-1 5:-1 6:-1 7:-0.4 8:-0.919192 9:-1 10:-1 11:-0.833333 12:-0.663158 13:-1 14:-1 15:0.0223642 16:0.481081 17:0.481679 18:-0.75 19:-0.818182 20:0.16129 21:-0.818182 22:0.8 
-0 0 1 0 0.2591991153328902 1 0 0 0 0 0 0 0 0 0 1:0.52381 2:-0.259259 3:-1 5:-0.6 6:-1 7:-0.4 8:-0.737374 9:-0.757576 10:-0.6 11:-1 12:-0.578947 13:-1 14:-1 15:-0.968051 16:0.746437 17:0.758827 18:-0.75 19:-0.818182 20:0.806452 21:-0.636364 22:-1 
-0 0 1 1 0 1 0 0 0 0 1 0.1029951750989705 0 0.4831935222588306 0 1:-0.428571 2:-0.259259 3:-1 5:-0.6 6:-1 7:-0.4 8:-0.717172 9:-0.757576 10:-1 11:-0.833333 12:-0.557895 13:-1 14:-1 15:-0.968051 16:-0.315971 17:-0.58561 18:-0.75 19:-1 20:0.806452 21:-0.818182 22:-1 
-0 0 0 0 0 1 0 0 0 0 0 0 0 0 0 1:0.52381 2:-0.703704 3:-1 5:-0.6 6:-1 7:-0.4 8:-0.757576 9:-0.757576 10:-0.6 11:-1 12:-0.6 13:-1 14:-1 15:-0.968051 16:-0.277641 17:-0.664224 18:-0.75 19:0.818182 20:0.741935 21:0.818182 22:0.733333 
-0 1 1 1 1 1 1 0 0 0 0 0 0 0.4728602553543376 0 1:-1 2:-0.481481 3:-1 5:-0.6 6:-1 7:-0.4 8:-0.737374 9:-0.757576 10:-1 11:-0.833333 12:-0.157895 13:-0.818182 14:-0.272727 15:-0.948882 16:0.245209 17:0.244504 18:-0.75 19:-1 20:-0.483871 21:-1 22:-0.0666667 
-0 0 1 1 1 0 0 0 0 0 0 1 0 0 0 1:-1 2:-0.481481 3:-1 5:-0.6 6:1 7:-0.4 8:-0.737374 9:-0.757576 10:-1 11:-0.833333 12:-0.684211 13:-0.818182 14:-0.272727 15:-0.948882 16:0.246192 17:0.244504 18:-0.75 19:0.818182 20:0.354839 21:0.818182 22:0.266667 
-0 0 0 0 1 0 0 0 0 0 0 0 0 0 0 1:-0.333333 2:-0.62963 3:-1 5:-0.6 6:-1 7:-0.4 8:-0.737374 9:-0.878788 10:-1 11:-0.833333 12:-0.389474 13:-0.74026 14:-1 15:-0.520767 16:0.29828 17:0.255163 18:-0.75 19:-0.0909091 20:0.677419 21:-0.0909091 22:-0.0666667 
-0 0 1 0 1 0 0 0 0 0 0 0 0 0 0 1:0.619048 2:-0.62963 3:-1 5:-0.6 6:-1 7:-0.4 8:-0.757576 9:-0.757576 10:-1 11:-0.833333 12:-0.6 13:-0.74026 14:-1 15:-0.584665 16:0.25602 17:0.256496 18:-0.75 19:0.454545 20:0.548387 21:0.454545 22:-0.0666667 
-0 0 0 0 0 1 0 0 0 0 0 0 0 0 0 1:0.52381 2:-0.703704 3:-1 5:-0.6 6:-1 7:-0.4 8:-0.717172 9:-0.757576 10:-1 11:-0.833333 12:-0.136842 13:-1 14:-1 15:-0.968051 16:-0.604914 17:-0.581612 18:-0.75 19:-1 20:0.354839 21:-1 22:0.333333 
-0 0 0 0 0 1 0 0 0 0 0 0 0 0 0 1:0.52381 2:-0.703704 3:-1 5:-0.6 6:-1 7:-0.4 8:-0.79798 9:-0.757576 10:-0.6 11:-1 12:-0.642105 13:-1 14:-1 15:-0.968051 16:-0.604914 17:-0.581612 18:-0.75 19:0.454545 20:0.806452 21:0.454545 22:0.8 
-0 0 0 0 0 1 0 0 0 0 0 0 0 0 0 1:0.52381 2:-0.703704 3:-1 5:-0.6 6:-1 7:-0.4 8:-0.737374 9:-0.757576 10:-1 11:-0.833333 12:-0.157895 13:-1 14:-1 15:-0.968051 16:-0.277641 17:-0.664224 18:-0.75 19:0.818182 20:-0.548387 21:0.818182 22:-0.6 
-0 0 0 0 0 1 0 0 0 0 0 0 0 0 0 1:0.52381 2:-0.703704 3:-1 5:-0.6 6:-1 7:-0.4 8:-0.717172 9:-0.757576 10:-1 11:-0.833333 12:-0.663158 13:-1 14:-1 15:-0.968051 16:-0.604914 17:-0.581612 18:-0.75 19:-0.454545 20:-0.935484 21:-0.454545 22:-1 
-1 1 1 1 1 0 1 1 0 1 1 1 1 0 1 1:0.52381 2:-0.259259 3:-1 5:-0.6 6:1 7:-0.4 8:-0.69697 9:-0.757576 10:-1 11:-0.833333 12:-0.115789 13:0.74026 14:-0.272727 15:0.667732 16:0.398526 17:0.403065 18:-0.75 19:0.0909091 20:0.806452 21:0.0909091 22:0.8 
-0 0 0 0 0 1 0 0 0 0 0 0 0 0 0 1:0.52381 2:-0.703704 3:-1 5:-0.6 6:-1 7:-0.4 8:-0.79798 9:-0.757576 10:-1 11:-0.833333 12:-0.705263 13:-1 14:-1 15:-0.968051 16:-0.604914 17:-0.581612 18:-0.75 19:-0.818182 20:0.225806 21:-0.818182 22:-0.0666667 
-0 0 1 0 0 1 0 0 0 0 1 0 0 0 0 1:0.52381 2:-0.555556 3:-1 5:-0.6 6:-1 7:-0.4 8:-0.858586 9:-0.757576 10:-1 11:-0.833333 12:-0.705263 13:-1 14:-1 15:-0.316294 16:-0.761179 17:-0.750833 18:-0.75 19:0.454545 20:-0.16129 21:0.454545 22:-0.2 
-0 0 1 1 1 0 1 0 0 0 1 0 0 0 1 1:-0.428571 2:-0.62963 3:-1 5:-0.6 6:-1 7:-0.4 8:-0.959596 9:-0.878788 10:-1 11:-0.833333 12:-0.389474 13:-0.74026 14:-1 15:0.0798722 16:-0.125307 17:-0.108594 18:-0.75 19:0.0909091 20:0.225806 21:0.0909091 22:-0.0666667 
-0 1 1 1 1 0.3148055545289761 0 0 0 0 0 0 0 0 0 1:-1 2:-0.481481 3:-1 5:-0.6 6:-1 7:-0.4 8:-0.737374 9:-0.757576 10:-1 11:-0.833333 12:-0.705263 13:-0.818182 14:-0.272727 15:-0.948882 16:0.246192 17:0.244504 18:-0.75 19:-0.454545 20:-0.741935 21:-0.454545 22:0.266667 
-0 0 1 1 1 0 0 0.7963718714166225 0 1 0 1 0 0 0 1:-0.333333 2:-0.62963 3:-1 5:-0.6 6:1 7:-0.4 8:0.818182 9:-0.878788 10:-1 11:-0.666667 12:-0.0105263 13:-0.74026 14:-1 15:-0.520767 16:0.29828 17:0.255163 18:-0.75 19:-0.454545 20:0.935484 21:-0.272727 22:-1 
-0 0 1 0.4119866150205195 1 1 0 0 0 0 0.7409584386097898 0 0.5060299586407606 0 0 1:0.52381 2:-0.259259 3:-1 5:-0.6 6:-1 7:-0.4 8:-0.737374 9:-0.757576 10:-1 11:-0.833333 12:-0.684211 13:-1 14:-1 15:-0.086262 16:0.653071 17:0.658894 18:-0.75 19:-0.818182 20:-0.935484 21:-0.818182 22:-1 
-0 0 0 0.09390487062894973 1 0 0 0 0 0 0 0 0 0 0 1:-0.333333 2:-0.62963 3:-1 5:-0.6 6:-1 7:-0.4 8:-0.757576 9:-0.878788 10:-1 11:-0.833333 12:-0.389474 13:-0.74026 14:-1 15:-0.520767 16:0.29828 17:0.255163 18:-0.75 19:1 20:0.290323 21:1 22:-0.0666667 
-0 0 1 1 0 0 0 0.4390951408494075 0 0 0 0 0 0 0 1:-1 2:-0.925926 3:-1 5:-0.6 6:1 7:-0.4 8:-0.717172 9:-0.757576 10:-1 11:-0.833333 12:-0.557895 13:-0.74026 14:-1 15:-0.597444 16:-0.0181818 17:-0.017988 18:-0.75 19:0.818182 20:-0.612903 21:0.818182 22:-0.666667 
-0 0 0 0 0 1 0 0 0 0 0 0 0 0.07907569555764243 0 1:-0.142857 2:-0.481481 3:-1 5:-1 6:-1 7:-0.4 8:0.919192 9:-1 10:-1 11:-0.833333 12:-0.536842 13:-1 14:-1 15:-0.968051 16:-0.604914 17:-0.581612 18:-0.75 19:0.636364 20:0.483871 21:0.636364 22:-0.0666667 
-0 0 0 0 1 1 0 0 0 0 0 0 0 0 0 1:-0.142857 2:0.111111 3:-1 5:-1 6:-1 7:-0.4 8:-0.757576 9:-1 10:-1 11:-0.833333 12:-0.6 13:-1 14:-1 15:-0.968051 16:0.746437 17:0.758827 18:-0.75 19:0.636364 20:0.483871 21:0.818182 22:-1 
-0 0 0.2161168082599541 1 1 1 0 0 0 0 0 0 0 0 0 1:-0.428571 2:-0.259259 3:-1 5:-1 6:-1 7:-0.4 8:0.919192 9:-1 10:-1 11:-0.833333 12:-0.326316 13:-1 14:-1 15:0.0223642 16:0.216708 17:-0.135243 18:-0.75 19:0.636364 20:0.16129 21:0.636364 22:-0.0666667 
-0 0 0 0 0 1 0 0 0 0 0 0 0 0 0 1:0.52381 2:-0.703704 3:-1 5:-0.6 6:1 7:-0.4 8:-0.777778 9:-0.757576 10:-1 11:0.166667 12:-0.515789 13:-1 14:-1 15:-0.968051 16:-0.277641 17:-0.664224 18:-0.75 19:-0.0909091 20:0.806452 21:-0.0909091 22:0.8 
-0 1 1 1 1 1 1 1 0.6356076391753716 1 1 1 0 0 1 1:-1 2:0.111111 3:-1 5:-0.6 6:-1 7:-0.4 8:-0.858586 9:-0.757576 10:-1 11:-0.833333 12:-0.705263 13:0.246753 14:-1 15:0.552716 16:0.459459 17:0.463025 18:-0.75 19:-0.0909091 20:-0.677419 21:-0.636364 22:-0.0666667 
-0.6051109287464786 0 1 1 1 1 1 1 0 1 1 1 1 1 1 1:-0.428571 2:0.333333 3:-1 5:-0.6 6:1 7:-0.4 8:-0.919192 9:-0.757576 10:-1 11:-0.833333 12:-0.557895 13:-0.74026 14:-1 15:0.0798722 16:-0.570516 17:-0.58561 18:-0.75 19:-0.818182 20:-0.677419 21:-0.818182 22:-0.0666667 
-0 1 0 0 0 0 0 0 0 0 0 0 0 0 0 1:0.52381 2:-0.259259 3:-1 5:-0.6 6:-1 7:-0.4 8:-0.777778 9:-0.757576 10:0.2 11:-1 12:-0.578947 13:-1 14:-1 15:-0.968051 16:0.746437 17:0.758827 18:-0.75 19:-0.454545 20:0.612903 21:-0.454545 22:0.6 
-0 0 1 1 1 0 0 0 0 1 0 0 0 0 0 1:-1 2:-0.481481 3:-1 5:-0.6 6:1 7:-0.4 8:-0.717172 9:-0.757576 10:-1 11:-0.833333 12:-0.557895 13:-0.818182 14:-0.272727 15:-0.948882 16:0.246192 17:0.244504 18:-0.75 19:-0.0909091 20:-0.677419 21:-0.0909091 22:0.266667 
-0 0 0 0 0 1 0 0 0 0 0 0 0 0 0 1:0.52381 2:-0.259259 3:-1 5:-0.6 6:-1 7:-0.4 8:-0.737374 9:-0.757576 10:-1 11:-0.833333 12:-0.536842 13:-1 14:-1 15:-0.968051 16:0.746437 17:0.758827 18:-0.75 19:0.0909091 20:-0.677419 21:0.0909091 22:-0.733333 
-1 0.6053128429603887 1 1 1 0 1 0 0 1 0 1 0 1 0.03392708075875489 1:0.52381 2:-0.259259 3:-1 5:-0.6 6:-1 7:-0.4 8:-0.777778 9:-0.878788 10:-1 11:-0.833333 12:-0.621053 13:-0.818182 14:-0.272727 15:-0.948882 16:-0.0800983 17:-0.0686209 18:-0.75 19:0.454545 20:-0.0967742 21:0.454545 22:-0.0666667 
-0 0 1 1 1 0 0 0 0 0 0 0.6359162130213146 0 0 0 1:-1 2:-0.481481 3:-1 5:-0.6 6:1 7:-0.4 8:-0.757576 9:-0.757576 10:-1 11:-0.833333 12:-0.705263 13:-0.818182 14:-0.272727 15:-0.948882 16:0.246192 17:0.244504 18:-0.75 19:0.818182 20:0.0322581 21:0.818182 22:0.266667 
-0 1 1 1 1 0 1 0 0 0 0 0 0 0 0 1:-1 2:-0.481481 3:-1 5:-0.6 6:1 7:-0.4 8:-0.757576 9:-0.757576 10:-1 11:-0.833333 12:-0.6 13:-0.818182 14:-0.272727 15:-0.948882 16:0.246192 17:0.244504 18:-0.75 19:1 20:0.290323 21:1 22:0.266667 
-0 0 0.7409525016146756 0 0 0 0 0 0 0 0 0 0 0 0 1:0.52381 2:-0.259259 3:-1 5:-0.6 6:-1 7:-0.4 8:-0.757576 9:-0.757576 10:-0.6 11:-1 12:-0.663158 13:-1 14:-1 15:-0.968051 16:0.746437 17:0.758827 18:-0.75 19:0.272727 20:-0.870968 21:0.272727 22:-0.933333 
-0 0 0 0 0 0.3063668945333853 0 0 0 0.1301151735559221 0 0 0 0 0 1:0.52381 2:-0.703704 3:-1 5:-0.6 6:1 7:-0.4 8:-0.717172 9:-0.757576 10:-0.6 11:0.166667 12:-0.663158 13:-1 14:-1 15:-0.968051 16:-0.277641 17:-0.664224 18:-0.75 19:-0.454545 20:-0.806452 21:-0.454545 22:-0.866667 
-0 0 0 0 0 1 0 0 0 0 0 0 0 0 0 1:0.52381 2:-0.703704 3:-1 5:-0.6 6:-1 7:-0.4 8:-0.777778 9:-0.757576 10:-1 11:-0.833333 12:-0.621053 13:-1 14:-1 15:-0.968051 16:-0.604914 17:-0.581612 18:-0.75 19:-0.818182 20:0.0967742 21:-0.818182 22:-0.0666667 
-0 0 0 0 0 1 0 0 0 0 0 0 0 0 0 1:0.52381 2:-0.259259 3:-1 5:-0.6 6:-1 7:-0.4 8:-0.737374 9:-0.757576 10:-1 11:-0.833333 12:-0.473684 13:-1 14:-1 15:-0.968051 16:0.746437 17:0.758827 18:-0.75 19:-0.818182 20:-0.548387 21:-0.818182 22:-0.6 
-0 0 0 0 0 1 0 0 0 0 0 0 0 0 0 1:-0.142857 2:-0.481481 3:-1 5:-1 6:-1 7:-0.4 8:-0.878788 9:-1 10:-0.6 11:-0.666667 12:-0.515789 13:-1 14:-1 15:-0.968051 16:-0.604914 17:-0.581612 18:-0.75 19:0.454545 20:-0.225806 21:0.454545 22:-0.0666667 
-0 1 1 0 1 1 0 0.08602909204764964 0 0 0 0 0 0 1 1:-0.142857 2:-0.925926 3:-1 5:-0.6 6:-1 7:-0.4 8:-0.737374 9:-0.757576 10:-1 11:-0.833333 12:-0.642105 13:-0.74026 14:-1 15:0.0798722 16:0.712039 17:0.722851 18:-0.75 19:0.818182 20:-0.0967742 21:0.818182 22:-0.133333 
-0 0 0 0 1 0 0 0 0 0 0 0 0 0 0 1:-0.333333 2:-0.62963 3:-1 5:-0.6 6:-1 7:-0.4 8:-0.757576 9:-0.878788 10:-1 11:-0.833333 12:-0.389474 13:-0.74026 14:-1 15:-0.520767 16:0.29828 17:0.255163 18:-0.75 19:1 20:-0.612903 21:1 22:-0.0666667 
-0 0 0 0 0 1 0 0 0 0 0 0 0 0 0 1:0.52381 2:-1 3:-1 5:-0.6 6:-1 7:-0.4 8:-0.737374 9:-0.757576 10:-0.6 11:-1 12:-0.368421 13:-1 14:-1 15:-0.968051 16:-0.604914 17:-0.581612 18:-0.75 19:0.636364 20:-0.354839 21:0.636364 22:-0.4 
-0 0 0 1 0 1 0 0 0 0 0 0 0 0 0 1:-0.428571 2:-0.259259 3:-1 5:-0.6 6:-1 7:-0.4 8:-0.777778 9:-0.757576 10:-1 11:-0.833333 12:-0.621053 13:-1 14:-1 15:-0.968051 16:-0.315971 17:-0.58561 18:-0.75 19:-0.272727 20:-0.354839 21:-0.272727 22:-0.4 
-0 0 1 1 1 0 0 0 0 1 0 1 0 0 0 1:-1 2:-0.481481 3:-1 5:-0.6 6:1 7:-0.4 8:-0.737374 9:-0.757576 10:-1 11:-0.833333 12:-0.684211 13:-0.818182 14:-0.272727 15:-0.948882 16:0.246192 17:0.244504 18:-0.75 19:-0.272727 20:0.483871 21:-0.272727 22:0.266667 
-0 0 1 1 1 0 0 0 0 0 0 1 0 0 0 1:-1 2:-0.481481 3:-1 5:-0.6 6:1 7:-0.4 8:-0.717172 9:-0.757576 10:-1 11:-0.833333 12:-0.621053 13:-0.818182 14:-0.272727 15:-0.948882 16:0.246192 17:0.244504 18:-0.75 19:0.454545 20:0.16129 21:0.454545 22:0.266667 
-0 0 0 1 1 0 0 0 0 0 0 0 0 0 0 1:-0.333333 2:-0.62963 3:-1 5:-0.6 6:-1 7:-0.4 8:-0.79798 9:-0.878788 10:-1 11:-0.833333 12:-0.642105 13:-0.74026 14:-1 15:-0.520767 16:0.29828 17:0.255163 18:-0.75 19:0.454545 20:-0.354839 21:-0.636364 22:-0.0666667 
-0 0 0 0 0 1 0 0 0 0 0 0 0 0 0 1:-0.428571 2:-0.259259 3:-1 5:-0.6 6:-1 7:-0.4 8:-0.737374 9:-0.757576 10:-1 11:-0.833333 12:-0.684211 13:-1 14:-1 15:-0.968051 16:-0.315971 17:-0.58561 18:-0.75 19:-0.272727 20:-0.0322581 21:-0.272727 22:-0.0666667 
-0 1 0 0 0 0 0 0 0 0 0 0 0 0 0 1:0.52381 2:-1 3:-1 5:-0.6 6:-1 7:-0.4 8:-0.757576 9:-0.757576 10:0.2 11:-1 12:-0.389474 13:-1 14:-1 15:-0.968051 16:0.746437 17:0.758827 18:-0.75 19:0.818182 20:0.935484 21:0.818182 22:0.933333 
-0 0 1 1 1 0 0 1 0 0 0 0 0 0 0 1:-0.333333 2:0.259259 3:-1 5:-1 6:-1 7:-0.4 8:0.919192 9:-0.878788 10:-1 11:-0.833333 12:-0.326316 13:-0.74026 14:-1 15:-0.520767 16:0.29828 17:0.255163 18:-0.75 19:0.272727 20:0.354839 21:0.272727 22:0.333333 
-0 0 1 0 0 0 0 0 0 0 0 0 0 0 0 1:-0.428571 2:0.333333 3:-1 5:-0.6 6:1 7:-0.4 8:-0.79798 9:-0.757576 10:-1 11:0.166667 12:-0.536842 13:-1 14:-1 15:-0.968051 16:-0.315971 17:-0.58561 18:-0.75 19:0.0909091 20:0.870968 21:0.0909091 22:0.866667 
-0 0 0 0 0 1 0 0 0 0 0 0 0 0 0 1:0.52381 2:-0.703704 3:-1 5:-0.6 6:-1 7:-0.4 8:-0.737374 9:-0.757576 10:-1 11:-0.833333 12:-0.578947 13:-1 14:-1 15:-0.968051 16:-0.277641 17:-0.664224 18:-0.75 19:0.636364 20:0.612903 21:0.636364 22:0.6 
-0 0 1 1 1 0 1 1 1 1 1 1 0 0 0.2901193742087247 1:-0.904762 2:-0.481481 3:-1 5:-0.6 6:1 7:-0.4 8:-0.717172 9:-0.878788 10:-1 11:-0.833333 12:-0.536842 13:-0.662338 14:-1 15:-0.329073 16:-0.448649 17:-0.427049 18:-0.75 19:0.454545 20:0.677419 21:-0.636364 22:-0.0666667 
-0 0 0 0 0 1 0 0 0 0 0 0 0 0 0 1:0.52381 2:-0.703704 3:-1 5:-0.6 6:-1 7:-0.4 8:-0.717172 9:-0.757576 10:-1 11:-0.833333 12:-0.578947 13:-1 14:-1 15:-0.968051 16:-0.604914 17:-0.581612 18:-0.75 19:0.454545 20:0.612903 21:0.454545 22:-0.0666667 
-0 0 1 1 1 0 0 0 0 0 0 0.4693778252942079 0 0 0 1:0.52381 2:-0.259259 3:-1 5:-0.6 6:-1 7:-0.4 8:-0.737374 9:-0.757576 10:-1 11:-0.833333 12:-0.578947 13:-0.74026 14:-1 15:-0.584665 16:0.0525799 17:0.0566289 18:-0.75 19:-0.0909091 20:0.612903 21:-0.0909091 22:-0.0666667 
-0 0 0 0 0 1 0 0 0 0 0 0 0 0 0 1:0.52381 2:-1 3:-1 5:-0.6 6:-1 7:-0.4 8:-0.717172 9:-0.757576 10:-0.6 11:-1 12:-0.347368 13:-1 14:-1 15:-0.968051 16:-0.604914 17:-0.581612 18:-0.75 19:-0.636364 20:0.290323 21:-0.636364 22:0.266667 
-0 0 1 1 0 1 0 0 0 0 1 0 0 0 0.2912432682877303 1:-0.52381 2:-0.62963 3:-1 5:-0.6 6:1 7:-0.4 8:-0.717172 9:-0.757576 10:-1 11:-0.833333 12:-0.663158 13:-1 14:-1 15:0.028754 16:-0.6 17:-0.576282 18:-0.75 19:-0.272727 20:-0.548387 21:-0.272727 22:-0.0666667 
-0 0 1 0 0 0 0 0 0 0 0 1 0 0 0 1:0.52381 2:-0.703704 3:-1 5:-0.6 6:1 7:-0.4 8:-0.757576 9:-0.757576 10:-0.6 11:-0.833333 12:-0.494737 13:-1 14:-1 15:-0.968051 16:-0.277641 17:-0.664224 18:-0.75 19:0.272727 20:-0.354839 21:0.272727 22:-0.4 
-0 0 1 0 0 0 0 0 0 0 0 0 0 0 0 1:-0.333333 2:-0.62963 3:-1 5:-0.6 6:-1 7:-0.4 8:-0.777778 9:-0.878788 10:-1 11:-0.833333 12:-0.410526 13:-0.74026 14:-1 15:-0.520767 16:0.29828 17:0.255163 18:-0.75 19:1 20:0.935484 21:1 22:-0.0666667 
-0 0 1 1 1 1 1 1 0.05818589026634081 1 1 1 0 1 0 1:-0.904762 2:-0.259259 3:-1 5:-1 6:1 7:-0.4 8:-0.717172 9:-1 10:-1 11:-0.833333 12:-0.557895 13:-0.74026 14:-1 15:-0.597444 16:-0.762162 17:-0.750833 18:-0.75 19:1 20:-0.677419 21:1 22:-0.733333 
-0 0 0 0 0 1 0 0 0 0 0 0 0 0 0 1:0.52381 2:-0.703704 3:-1 5:-0.6 6:-1 7:-0.4 8:-0.717172 9:-0.757576 10:-1 11:-0.833333 12:-0.389474 13:-1 14:-1 15:-0.968051 16:-0.604914 17:-0.581612 18:-0.75 19:-0.272727 20:0.419355 21:-0.272727 22:-0.0666667 
-0 0 1 0 0 0 0 0 0 0 0 0 0 0 0 1:0.52381 2:-1 3:-1 5:-0.6 6:1 7:-0.4 8:-0.737374 9:-0.757576 10:-0.6 11:-1 12:-0.473684 13:-1 14:-1 15:-0.968051 16:0.330713 17:0.333777 18:-0.75 19:-0.0909091 20:-0.612903 21:-0.0909091 22:-0.666667 
-0 1 1 1 1 1 0.230413133670261 0 0 0 0 0 0 0 0 1:-1 2:-0.481481 3:-1 5:-0.6 6:-1 7:-0.4 8:-0.737374 9:-0.757576 10:-1 11:-0.833333 12:-0.663158 13:-0.818182 14:-0.272727 15:-0.948882 16:0.246192 17:0.244504 18:-0.75 19:-0.454545 20:-0.741935 21:-0.454545 22:0.266667 
-0 0 1 1 0.7567645016709108 1 0 0 0 0 0.2985360942523543 0 0 0 0 1:-0.428571 2:-0.62963 3:-1 5:-1 6:-1 7:-0.4 8:0.89899 9:-1 10:-1 11:-0.833333 12:-0.557895 13:-1 14:-1 15:-0.086262 16:0.938084 17:-0.58561 18:-0.75 19:0.818182 20:-0.806452 21:0.818182 22:-1 
-0 0 0.6255223539154894 0 1 1 0 0 0 0 0 0 0 0 0 1:-0.904762 2:-0.703704 3:-1 5:-0.6 6:-1 7:-0.4 8:-0.717172 9:-0.757576 10:-1 11:-0.833333 12:-0.136842 13:-0.74026 14:-1 15:-0.584665 16:0.718919 17:0.730846 18:-0.75 19:-1 20:0.419355 21:-1 22:-0.0666667 
-0 0 0 0 0 1 0 0 0 0 0 0 0 0 0 1:0.52381 2:-0.259259 3:-1 5:-0.6 6:-1 7:-0.4 8:-0.858586 9:-0.757576 10:-1 11:-0.833333 12:-0.705263 13:-1 14:-1 15:-0.968051 16:0.746437 17:0.758827 18:-0.75 19:1 20:0.806452 21:1 22:0.8 
-0.4819969000304517 0 1 1 1 0 0 0 0 1 0 1 1 0 0.559034724175139 1:-0.333333 2:-0.62963 3:-1 5:-0.6 6:1 7:-0.4 8:0.878788 9:-0.878788 10:-1 11:-0.666667 12:0.0526316 13:-0.74026 14:-1 15:-0.520767 16:0.29828 17:0.255163 18:-0.75 19:0.454545 20:0.290323 21:0.636364 22:-1 
-0 0 0 0 0.4900428159366792 0 0 0 0 0 0 0 0 0 0 1:-0.333333 2:-0.62963 3:-1 5:-0.6 6:-1 7:-0.4 8:-0.757576 9:-0.878788 10:-1 11:-0.833333 12:-0.389474 13:-0.74026 14:-1 15:-0.520767 16:0.29828 17:0.255163 18:-0.75 19:-0.0909091 20:0.354839 21:-0.0909091 22:-0.0666667 
-0 0 1 0 0 0 0 0 0 0 0 0 0 0 0 1:0.52381 2:-0.259259 3:-1 5:-0.6 6:1 7:-0.4 8:-0.717172 9:-0.757576 10:-1 11:0.166667 12:-0.621053 13:-1 14:-1 15:-0.968051 16:0.330713 17:0.333777 18:-0.75 19:0.818182 20:-0.16129 21:0.818182 22:-0.2 
-0 1 1 1 1 1 1 0 0 0 0 0.02694897426269849 0.5398515574833094 0 0.2173952633892228 1:-1 2:-0.481481 3:-1 5:-0.6 6:-1 7:-0.4 8:0.939394 9:-0.757576 10:-1 11:-0.833333 12:-0.0947368 13:-0.818182 14:-0.272727 15:-0.948882 16:0.245209 17:0.244504 18:-0.75 19:0.818182 20:-0.741935 21:0.818182 22:-1 
-0 0 0 0 0 1 0 0 0 0 0 0 0 0 0 1:0.52381 2:-0.259259 3:-1 5:-0.6 6:-1 7:-0.4 8:-0.737374 9:-0.757576 10:-1 11:-0.833333 12:-0.578947 13:-1 14:-1 15:-0.968051 16:0.746437 17:0.758827 18:-0.75 19:-0.636364 20:-0.548387 21:-0.636364 22:-0.6 
-0 0 1 1 1 0 0 0 0 0 0 0 0 0 0 1:-0.333333 2:-0.62963 3:-1 5:-0.6 6:1 7:-0.4 8:-0.717172 9:-0.878788 10:-1 11:-0.833333 12:-0.347368 13:-0.74026 14:-1 15:-0.520767 16:0.29828 17:0.255163 18:-0.75 19:-0.272727 20:0.419355 21:-0.272727 22:-0.0666667 
-0 0 1 0 0 0 0 0 0 0 0 0 0 0 0 1:0.52381 2:-0.259259 3:-1 5:-0.6 6:1 7:-0.4 8:-0.69697 9:-0.757576 10:-1 11:-0.833333 12:-0.536842 13:-1 14:-1 15:-0.968051 16:0.330713 17:0.333777 18:-0.75 19:-0.272727 20:0.419355 21:-0.272727 22:0.4 
-1 1 1 1 1 0 1 0 0 1 0 1 0 1 0.7471205370955145 1:0.52381 2:-0.259259 3:-1 5:-0.6 6:-1 7:-0.4 8:-0.737374 9:-0.878788 10:-1 11:-0.833333 12:-0.684211 13:-0.818182 14:-0.272727 15:-0.948882 16:-0.0800983 17:-0.0686209 18:-0.75 19:-1 20:-0.290323 21:-1 22:-0.333333 
-0 0 0 0 0 1 0 0 0 0 0 0 0 0 0 1:-1 2:-0.925926 3:-1 5:-0.6 6:-1 7:-0.4 8:-0.757576 9:-0.757576 10:-1 11:-0.833333 12:-0.6 13:-0.74026 14:-1 15:-0.597444 16:-0.0181818 17:-0.017988 18:-0.75 19:0.818182 20:-0.0322581 21:-0.454545 22:0.733333 
-0 0 1 1 0 1 0 0 0 0 0 0 0 0 0 1:-0.904762 2:-0.703704 3:-1 5:-0.6 6:1 7:-0.4 8:-0.737374 9:-0.757576 10:-1 11:-0.833333 12:-0.684211 13:-1 14:-1 15:0.0223642 16:0.478133 17:0.481679 18:-0.75 19:0.272727 20:-0.870968 21:0.272727 22:-0.933333 
-0 0 0 0 1 0 0 0 0 0 0 0 0 0 0 1:-0.333333 2:-0.62963 3:-1 5:-0.6 6:-1 7:-0.4 8:-0.737374 9:-0.878788 10:-1 11:-0.833333 12:-0.578947 13:-0.74026 14:-1 15:-0.520767 16:0.29828 17:0.255163 18:-0.75 19:-1 20:-0.483871 21:-1 22:-0.466667 
-0 0 1 0.8155559513486988 0 1 0.8128482660447739 0.01817422094342319 0 0 1 0 0 0 0 1:-1 2:-0.481481 3:-1 5:-0.8 6:1 7:-0.4 8:-0.89899 9:-0.878788 10:-1 11:-1 12:-0.326316 13:-0.74026 14:-1 15:-0.309904 16:0.383784 17:-0.973351 18:-0.75 19:0.818182 20:0.870968 21:0.818182 22:0.933333 
-0 1 1 1 1 0 0 0 0 0 0 0 0 0 0 1:-0.333333 2:-0.62963 3:-1 5:-0.6 6:1 7:-0.4 8:-0.737374 9:-0.878788 10:0.2 11:-0.666667 12:0.0526316 13:-0.74026 14:-1 15:-0.520767 16:0.29828 17:0.255163 18:-0.75 19:1 20:0.0967742 21:1 22:-0.0666667 
-0 1 1 1 1 0 0.008795553345422443 0 0.2441371768270548 0 0 0.5993261481559663 0 0.1081987014696435 0 1:-1 2:-0.481481 3:-1 5:-0.6 6:-1 7:-0.4 8:0.919192 9:-0.757576 10:-1 11:-0.833333 12:-0.536842 13:-0.818182 14:-0.272727 15:-0.948882 16:0.245209 17:0.244504 18:-0.75 19:0.818182 20:-0.0967742 21:0.818182 22:-0.0666667 
-0 0 1 1 0 0 0 0 0 1 0 0 0 0 0 1:-1 2:-0.481481 3:-1 5:-0.6 6:1 7:-0.4 8:-0.737374 9:-0.757576 10:-1 11:-0.833333 12:-0.684211 13:-0.818182 14:-0.272727 15:-0.948882 16:0.246192 17:0.244504 18:-0.75 19:-0.636364 20:-0.548387 21:-0.636364 22:0.266667 
-0 0 0 0 0 1 0 0 0 0 1 0 0 0 0 1:-0.619048 2:-0.703704 3:-1 5:-0.6 6:-1 7:-0.4 8:-0.717172 9:-0.757576 10:0.2 11:-1 12:-0.557895 13:-1 14:-1 15:-0.968051 16:-0.277641 17:-0.664224 18:-0.75 19:0.454545 20:0.870968 21:0.454545 22:0.866667 
-0 0 1 1 0 1 0 0 0 0 0 0 0 0 0 1:-0.428571 2:0.333333 3:-1 5:-0.6 6:1 7:-0.4 8:-0.79798 9:-0.757576 10:-1 11:0.166667 12:-0.536842 13:-1 14:-1 15:-0.968051 16:-0.315971 17:-0.58561 18:-0.75 19:0.272727 20:0.16129 21:0.272727 22:0.133333 
-0 0 0 0 0 1 0 0 0 0 0 0 0 0 0 1:0.52381 2:-0.703704 3:-1 5:-0.6 6:-1 7:-0.4 8:-0.69697 9:-0.757576 10:-1 11:-0.833333 12:-0.684211 13:-1 14:-1 15:-0.968051 16:-0.277641 17:-0.664224 18:-0.75 19:-0.454545 20:0.741935 21:-0.454545 22:0.733333 
-0 0 0 0 0 0.7306387268906941 0 0 0 0 0 0 0 0 0 1:-0.333333 2:-0.62963 3:-1 5:-0.6 6:-1 7:-0.4 8:-0.757576 9:-0.878788 10:-1 11:-0.833333 12:-0.368421 13:-0.74026 14:-1 15:-0.520767 16:0.29828 17:0.255163 18:-0.75 19:-0.818182 20:-0.870968 21:-0.818182 22:-0.0666667 
-0 0 1 0 0 1 0 0 0 -0 0 0 0 0 0 1:0.52381 2:-0.259259 3:-1 5:-0.6 6:-1 7:-0.4 8:-0.858586 9:-0.757576 10:-1 11:-0.833333 12:-0.705263 13:-1 14:-1 15:-0.968051 16:0.746437 17:0.758827 18:-0.75 19:-1 20:-0.419355 21:-1 22:-0.466667 
-0 0 1 0 1 0 0 0 0 0 0 0 0 0 0 1:-0.333333 2:-0.62963 3:-1 5:-0.6 6:-1 7:-0.4 8:-0.777778 9:-0.878788 10:-1 11:-0.833333 12:-0.494737 13:-0.74026 14:-1 15:-0.520767 16:0.29828 17:0.255163 18:-0.75 19:-0.636364 20:1 21:-0.636364 22:-0.0666667 
-0 0 1 1 1 0 0 0 0 0 0 0 0 0 0 1:-1 2:-0.481481 3:-1 5:-0.6 6:-1 7:-0.4 8:0.858586 9:-0.757576 10:-1 11:-0.833333 12:-0.389474 13:-0.818182 14:-0.272727 15:-0.948882 16:0.245209 17:0.244504 18:-0.75 19:-0.818182 20:-0.0967742 21:-0.818182 22:-0.0666667 
-0 1 1 1 1 0.4052306827054384 1 0 0 1 0 0 0 0 0 1:-1 2:-0.925926 3:-1 5:-0.6 6:-1 7:-0.4 8:-0.717172 9:-0.757576 10:-1 11:-0.833333 12:-0.157895 13:-0.818182 14:-0.272727 15:-0.948882 16:0.302211 17:0.301799 18:-0.75 19:0.0909091 20:0.354839 21:0.636364 22:-0.933333 
-0 0 0.6437158751751393 0 0 0 0 0 0 0 0 0 0 0 0 1:0.52381 2:-0.259259 3:-1 5:-0.6 6:-1 7:-0.4 8:-0.757576 9:-0.757576 10:-0.6 11:-1 12:-0.705263 13:-1 14:-1 15:-0.968051 16:0.746437 17:0.758827 18:-0.75 19:-0.818182 20:0.806452 21:-0.818182 22:0.8 
-0 0 0 0 0 1 0 0 0 0 0 0 0 0 0 1:0.52381 2:-0.703704 3:-1 5:-0.6 6:-1 7:-0.4 8:-0.717172 9:-0.757576 10:-1 11:-0.833333 12:-0.557895 13:-1 14:-1 15:-0.968051 16:-0.277641 17:-0.664224 18:-0.75 19:-0.0909091 20:0.0322581 21:-0.0909091 
-0 0 1 1 1 1 0 0 0 0.3776716689070245 1 0 0 0 0 1:0.52381 2:-0.555556 3:-1 5:-0.6 6:-1 7:-0.4 8:-0.717172 9:-0.757576 10:-1 11:-0.833333 12:-0.663158 13:-0.74026 14:-1 15:-0.597444 16:-0.760197 17:-0.750833 18:-0.75 19:0.272727 20:-0.0322581 21:0.272727 22:-0.0666667 
-0 1 1 1 1 1 0 0.3819814983430958 0 0 1 0 0 0 0 1:-1 2:-0.481481 3:-1 5:-0.6 6:-1 7:-0.4 8:-0.737374 9:-0.757576 10:-1 11:-0.833333 12:-0.578947 13:-0.74026 14:-1 15:0.0798722 16:0.602948 17:0.606929 18:-0.75 19:-1 20:0.16129 21:-1 22:0.266667 
-0 0 0 0 0 1 0 0 0 0 0.03705727811882027 0 0 0 0 1:-0.428571 2:-0.259259 3:-1 5:-0.6 6:-1 7:-0.4 8:-0.717172 9:-0.757576 10:-1 11:-0.833333 12:-0.663158 13:-1 14:-1 15:-0.968051 16:-0.315971 17:-0.58561 18:-0.75 19:0.636364 20:0.419355 21:0.636364 22:0.4 
-0 0 0 0 0 1 0 0 0 0 0 0 0 0 0 1:-0.142857 2:-0.481481 3:-1 5:-1 6:-1 7:-0.4 8:-0.69697 9:-1 10:-1 11:-0.833333 12:-0.115789 13:-1 14:-1 15:-0.968051 16:-0.604914 17:-0.581612 18:-0.75 19:-0.454545 20:0.354839 21:-0.454545 22:0.333333 
-0 1 0 0 0 0 0 0 0 0 0 0 0 0 0 1:0.52381 2:-1 3:-1 5:-0.6 6:-1 7:-0.4 8:-0.777778 9:-0.757576 10:0.2 11:-1 12:-0.515789 13:-1 14:-1 15:-0.968051 16:0.746437 17:0.758827 18:-0.75 19:-0.454545 20:0.870968 21:-0.454545 22:0.866667 
-0 0 1 0 0 0 0 0 0 0 0 0 0 0 0 1:0.52381 2:0.333333 3:-1 5:-1 6:1 7:-0.4 8:-0.858586 9:-1 10:0.2 11:-0.833333 12:-0.284211 13:-1 14:-1 15:-0.968051 16:-0.315971 17:-0.58561 18:-0.75 19:-0.0909091 20:0.741935 21:0.0909091 22:-0.0666667 
-0 0 1 0 0 0 0 0 0 0 0 0 0 0 0 1:-0.428571 2:0.333333 3:-1 5:-0.6 6:1 7:-0.4 8:-0.79798 9:-0.757576 10:-1 11:0.166667 12:-0.536842 13:-1 14:-1 15:-0.968051 16:-0.315971 17:-0.58561 18:-0.75 19:0.0909091 20:0.806452 21:0.0909091 22:0.8 
-0 0.7575625228162632 1 0 0 0 0 0 0 0 0 0 0 0 0 1:0.52381 2:-1 3:-1 5:-0.6 6:1 7:-0.4 8:-0.757576 9:-0.757576 10:0.2 11:-1 12:-0.389474 13:-1 14:-1 15:-0.968051 16:0.746437 17:0.758827 18:-0.75 19:-0.272727 20:1 21:-0.272727 22:0.8 
-0 0 0 0 0 1 0 0 0 0 0 0 0 0 0 1:0.52381 2:-0.259259 3:-1 5:-0.6 6:-1 7:-0.4 8:-0.737374 9:-0.757576 10:-1 11:-0.833333 12:-0.473684 13:-1 14:-1 15:-0.968051 16:0.746437 17:0.758827 18:-0.75 19:-0.636364 20:-0.548387 21:-0.636364 22:-0.6 
-0 0 0 0 0 1 0 0 0 0 0 0 0 0 0 1:0.52381 2:-0.703704 3:-1 5:-0.6 6:-1 7:-0.4 8:-0.717172 9:-0.757576 10:-1 11:-0.833333 12:-0.705263 13:-1 14:-1 15:-0.968051 16:-0.277641 17:-0.664224 18:-0.75 19:-0.636364 20:-0.354839 21:-0.636364 22:-0.4 
-0 0 1 0 0 0 0 0 0 0 0 1 0 0 0 1:0.52381 2:0.333333 3:-1 5:-1 6:1 7:-0.4 8:-0.878788 9:-1 10:-0.6 11:-0.833333 12:-0.621053 13:-1 14:-1 15:-0.968051 16:-0.315971 17:-0.58561 18:-0.75 19:1 20:-0.16129 21:1 22:-0.0666667 
-0 0 1 1 0 1 0 0 0 0 0.3342471145580135 0 0 0 0 1:-0.428571 2:-0.62963 3:-1 5:-1 6:-1 7:-0.4 8:-0.858586 9:-1 10:-1 11:-0.833333 12:-0.705263 13:-1 14:-1 15:0.0223642 16:0.590172 17:-0.58561 18:-0.75 19:-0.0909091 20:0.741935 21:0.0909091 22:-0.733333 
-0 0 0 0 0 1 0 0 0 0 0 0 0 0 0 1:-0.142857 2:-0.481481 3:-1 5:-1 6:-1 7:-0.4 8:-0.717172 9:-1 10:-1 11:-0.833333 12:-0.557895 13:-1 14:-1 15:-0.968051 16:-0.604914 17:-0.581612 18:-0.75 19:0.272727 20:0.677419 21:0.272727 22:0.666667 
-0 1 1 1 1 1 0 0 0 0 0 0 0 0 0 1:-1 2:-0.481481 3:-1 5:-0.6 6:-1 7:-0.4 8:-0.737374 9:-0.757576 10:-1 11:-0.833333 12:-0.157895 13:-0.74026 14:-1 15:0.0798722 16:0.602948 17:0.606929 18:-0.75 19:-1 20:0.16129 21:-1 22:0.266667 
-0 0 1 0 0 1 0 0 0 0 1 0 0 0 0 1:-0.52381 2:-0.62963 3:-1 5:-0.6 6:1 7:-0.4 8:-0.69697 9:-0.757576 10:-1 11:-0.833333 12:-0.642105 13:-1 14:-1 15:0.028754 16:-0.600983 17:-0.576282 18:-0.75 19:-0.818182 20:0.548387 21:-0.818182 22:0.533333 
-0 0 1 1 1 1 1 0 1 1 1 0 0 1 0 1:-0.142857 2:-0.259259 3:-1 5:-0.6 6:-1 7:-0.4 8:-0.838384 9:-0.757576 10:-1 11:-0.833333 12:-0.684211 13:-0.74026 14:-1 15:-0.597444 16:-0.762162 17:-0.750833 18:-0.75 19:-0.636364 20:0.225806 21:-0.636364 22:0.2 
-0 1 1 1 1 0 1 0 0 0 0 0 0 1 0 1:-1 2:-0.481481 3:-1 5:-0.6 6:-1 7:-0.4 8:-0.757576 9:-0.757576 10:-1 11:-0.833333 12:-0.6 13:-0.818182 14:-0.272727 15:-0.948882 16:0.246192 17:0.244504 18:-0.75 19:0.454545 20:0.612903 21:0.454545 22:0.266667 
-0 0 0 0 1 0 0 0 0 0 0 0 0 0 0 1:-0.333333 2:-0.62963 3:-1 5:-0.6 6:-1 7:-0.4 8:-0.777778 9:-0.878788 10:-1 11:-0.833333 12:-0.305263 13:-0.74026 14:-1 15:-0.520767 16:0.29828 17:0.255163 18:-0.75 19:-0.0909091 20:0.0322581 21:-0.0909091 22:-0.0666667 
