svm_type c_svc
kernel_type rbf
gamma 0.0454545
nr_class 16
total_sv 6502
rho 5.05859 0.845691 0.232393 2.60819 -1.5524 0.841062 0.0507587 -0.666007 2.57374 -0.453391 0.782411 -0.0634501 -0.246187 -1.50851 -0.114495 -0.717857 -2.69007 -0.713004 -6.37564 -0.726062 -1.01621 -1.07207 -1.79002 -1.19855 -0.996067 -1.04859 -1.42131 -1.15114 -2.02013 -3.68735 -0.469367 -0.626999 -0.10398 -0.650684 -0.381144 0.730955 -1.07722 0.0708968 -0.696945 -0.5238 -0.0173149 0.223568 -0.0399476 -2.14817 -0.0450968 -0.926728 -1.00212 0.532223 -1.05391 0.26026 -0.335905 -0.671001 -0.845254 -0.561279 -1.83125 -0.142353 -0.371548 -1.25781 -2.1977 -1.19631 -0.00813093 -0.55523 -1.79764 -0.567028 -0.59807 0.674196 1.2992 -0.0630337 1.60055 1.06434 1.03426 0.324551 -0.0254743 -0.232766 0.445858 -0.77098 -1.38144 -0.422255 -0.798998 -0.131767 -0.0934484 -0.847948 -1.07225 -0.146885 -0.22205 0.5359 -0.723239 0.573809 0.0982319 -0.619475 -0.285937 -0.231064 0.801626 0.791671 0.841964 0.349943 0.217889 -0.215212 0.25435 -1.17686 -0.504655 -0.418673 0.0583438 -0.627375 -0.778937 0.887708 0.61864 -0.267556 -0.749107 -0.354987 -0.554253 -0.918536 -0.942163 -0.576644 -0.761403 -0.489951 0.0996741 0.000463331 0.270658 0.360505
label 3 1 4 2 7 5 16 11 13 6 10 8 12 9 15 14
nr_sv 902 1259 617 1047 443 596 72 178 109 435 213 162 78 203 99 89
SV
1 0 1 1 1 0 0 0 1 0 0 0 0 0 0 1:-0.428571 2:-0.555556 3:-1 5:-0.6 6:-1 7:-0.4 8:-0.858586 9:-0.757576 10:-1 11:-0.833333 12:-0.284211 13:-0.688312 14:-0.0909091 15:-0.865815 16:-0.382801 17:-0.347102 18:-0.942857 19:0.454545 20:0.548387 21:0.818182 22:-0.0666667 
0 0 0 0 0 0 0 0.303354909831882 0 0 0 0 0 0 0 1:-0.809524 2:-0.925926 3:-1 5:-0.6 6:-1 7:-0.4 8:-0.757576 9:-0.878788 10:-1 11:-0.833333 12:-0.621053 13:0.194805 14:-0.818182 15:-0.482428 16:0.10172 17:0.116589 18:-0.771429 19:-0.818182 20:-0.0322581 21:-0.272727 22:0.2 
0 0 1 0 1 0 0 0 0 0 0 0 0 0 0 1:-0.428571 2:-0.555556 3:-1 5:-0.6 6:-1 7:-0.4 8:-0.737374 9:-0.757576 10:-1 11:-0.833333 12:-0.157895 13:-0.61039 14:-0.818182 15:-0.341853 16:0.659951 17:0.662891 18:-0.771429 19:-0.272727 20:0.483871 21:-0.0909091 22:-1 
1 0 0 0 0 0 0 0 0 0 0 0 0 1 0 1:-0.428571 2:-0.259259 3:-1 5:-0.6 6:1 7:-0.4 8:-0.757576 9:-0.878788 10:-1 11:-0.833333 12:-0.178947 13:0.662338 14:-0.818182 15:0.15655 16:0.842752 17:-0.115256 18:-0.771429 19:-0.636364 20:0.225806 21:-0.636364 22:-0.0666667 
1 0 0 0 0 0 0.267537559533565 0.7397773849089945 0 0 0 0 0 1 0 1:-0.904762 2:0.333333 3:-1 5:-0.6 6:1 7:-0.4 8:-0.79798 9:-0.757576 10:-1 11:-0.833333 12:-0.621053 13:0.662338 14:-0.818182 15:0.482428 16:0.733661 17:0.745503 18:-0.771429 19:1 20:-0.0967742 21:-1 22:-0.0666667 
1 1 1 0 1 0 0 0 0 0 1 0 0 0 0 1:-0.428571 2:-0.703704 3:-1 5:-0.6 6:1 7:-0.4 8:-0.717172 9:-0.757576 10:-1 11:-0.833333 12:-0.557895 13:-0.350649 14:-0.818182 15:-0.789137 16:-0.740541 17:-0.730846 18:-0.771429 19:-0.272727 20:0.419355 21:-0.272727 22:0.4 
1 0 0 0 0 0 0 0 0 0 1 0 0 0 0 1:0.52381 2:0.111111 3:-1 5:-0.6 6:-1 7:-0.4 8:-0.737374 9:-0.757576 10:-1 11:-0.833333 12:-0.578947 13:-0.116883 14:-0.818182 15:-0.252396 16:-0.368059 17:-0.80946 18:-0.771429 19:-0.818182 20:0.419355 21:-0.636364 22:-0.0666667 
1 0 0 0 1 0 0 0 0 0 0 0 0 1 0 1:-0.142857 2:0.111111 3:-1 5:-0.6 6:1 7:-0.4 8:-0.717172 9:-0.757576 10:-1 11:-0.833333 12:-0.136842 13:-0.116883 14:-0.818182 15:-0.252396 16:0.831941 17:0.848101 18:-0.771429 19:-0.636364 20:-0.354839 21:-0.636364 22:-0.0666667 
1 0 0 0 0 1 1 1 0 1 1 0 0 0.7633245697436383 0 1:0.52381 2:0.111111 3:-1 5:-0.6 6:1 7:-0.4 8:-0.69697 9:-0.757576 10:-1 11:-0.833333 12:-0.536842 13:-0.116883 14:-0.818182 15:-0.252396 16:-0.368059 17:-0.80946 18:-0.771429 19:-0.0909091 20:0.483871 21:0.454545 22:-0.0666667 
1 0 0 0 1 0 0 0 0 0 0 0 0 1 1 1:-0.52381 2:-0.555556 3:-1 5:-0.6 6:1 7:-0.4 8:-0.737374 9:-0.757576 10:-1 11:-0.833333 12:-0.136842 13:-0.116883 14:-0.818182 15:-0.680511 16:-0.496806 17:-0.467022 18:-0.771429 19:0.636364 20:1 21:-0.636364 22:-1 
1 0 0 1 1 0 1 0 1 1 0 0 1 0 0 1:-0.142857 2:-0.259259 3:-1 5:-0.6 6:1 7:-0.4 8:-0.737374 9:-0.757576 10:-1 11:-0.833333 12:-0.157895 13:-0.688312 14:-0.0909091 15:-0.865815 16:-0.465356 17:-0.596269 18:-0.771429 19:-0.636364 20:-0.225806 21:-0.636364 22:-0.0666667 
1 0 0 0 0 0 0 0 1 1 0 1 1 0 0 1:0.52381 2:-0.703704 3:-1 5:-0.6 6:-1 7:-0.4 8:-0.777778 9:-0.757576 10:-1 11:-0.833333 12:-0.621053 13:-0.584416 14:-0.0909091 15:-0.853035 16:0.74742 17:0.76016 18:-0.771429 19:0.454545 20:-0.419355 21:0.454545 22:-0.0666667 
0 0 1 1 1 0 0 0 1 0 0 0 0 0 0 1:-0.428571 2:-0.555556 3:-1 5:-0.6 6:-1 7:-0.4 8:-0.878788 9:-0.757576 10:-1 11:-0.833333 12:-0.305263 13:-0.688312 14:-0.0909091 15:-0.865815 16:-0.382801 17:-0.347102 18:-0.942857 19:0.0909091 20:0.0967742 21:0.0909091 22:-0.0666667 
0 0 0 1 0 0 0 0 0.01639830636676083 0 0 0 1 0 0 1:-0.428571 2:-0.555556 3:-1 5:-0.6 6:-1 7:-0.4 8:-0.737374 9:-0.757576 10:-1 11:-0.833333 12:-0.578947 13:0.61039 14:-0.0909091 15:-0.0607029 16:-0.344472 17:-0.308461 18:-0.771429 19:-0.818182 20:0.806452 21:-0.636364 22:-1 
1 1 1 0 1 0 0 0 0 0 1 0 0 0 0 1:-0.428571 2:-0.703704 3:-1 5:-0.6 6:-1 7:-0.4 8:-0.79798 9:-0.757576 10:-1 11:-0.833333 12:-0.642105 13:-0.350649 14:-0.818182 15:-0.789137 16:-0.740541 17:-0.730846 18:-0.771429 19:0.454545 20:0.0322581 21:0.636364 22:-1 
0 0 0 1 0 0 0 0 1 0 0 0 1 0 1 1:-0.428571 2:-0.555556 3:-1 5:-0.6 6:-1 7:-0.4 8:-0.818182 9:-0.757576 10:-1 11:-0.833333 12:-0.663158 13:0.0909091 14:-0.0909091 15:-0.386581 16:-0.822113 17:-0.798801 18:-0.771429 19:-0.818182 20:0.290323 21:-0.818182 22:-0.0666667 
1 0 0 1 1 0 0 0 1 0 0 0 0 0 0 1:-0.142857 2:-0.703704 3:-1 5:-0.6 6:-1 7:-0.4 8:-0.878788 9:-0.757576 10:-1 11:-0.833333 12:-0.305263 13:-0.688312 14:-0.0909091 15:-0.865815 16:-0.418182 17:-0.387075 18:-0.771429 19:0.454545 20:0.290323 21:0.636364 22:-1 
1 1 1 0 1 0 1 0 0 1 0 0 0 0 0 1:-0.142857 2:-0.703704 3:-1 5:-0.6 6:1 7:-0.4 8:-0.717172 9:-0.878788 10:-1 11:-0.833333 12:-0.557895 13:-0.558442 14:-0.818182 15:-0.533546 16:0.0358722 17:0.0393071 18:-0.771429 19:-0.272727 20:0.419355 21:0.818182 22:-0.0666667 
1 0 0 0 0 0 0 1 0 0 0 0 0 1 0 1:-0.904762 2:-0.703704 3:-1 5:-0.6 6:-1 7:-0.4 8:-0.79798 9:-0.757576 10:-1 11:-0.833333 12:-0.663158 13:-0.116883 14:-0.818182 15:0.929712 16:0.834889 17:0.852099 18:-0.771429 19:0.0909091 20:-0.612903 21:0.818182 22:-1 
1 0 1 1 1 0 0.7898748919878403 0 1 0 0 0 0 0 0.2045716542463474 1:-0.428571 2:-0.555556 3:-1 5:-0.6 6:-1 7:-0.4 8:-0.838384 9:-0.757576 10:-1 11:-0.833333 12:-0.684211 13:-0.688312 14:-0.0909091 15:-0.865815 16:-0.382801 17:-0.347102 18:-0.942857 19:-0.272727 20:-0.935484 21:-0.272727 22:-0.0666667 
1 0 0 1 0 0 0 0 1 1 0 0 1 0 0.2980137884451472 1:-0.428571 2:-0.555556 3:-1 5:-0.6 6:-1 7:-0.4 8:-0.717172 9:-0.757576 10:-1 11:-0.833333 12:-0.663158 13:0.61039 14:-0.0909091 15:-0.0607029 16:-0.344472 17:-0.308461 18:-0.771429 19:1 20:-0.935484 21:1 22:-1 
1 0 1 1 1 0 0 0 1 0 0 0 0 0 0 1:-0.428571 2:-0.555556 3:-1 5:-0.6 6:-1 7:-0.4 8:-0.979798 9:-0.757576 10:-1 11:-0.833333 12:-0.410526 13:-0.688312 14:-0.0909091 15:-0.865815 16:-0.381818 17:-0.347102 18:-0.942857 19:0.454545 20:0.677419 21:0.636364 22:-0.0666667 
1 0 0 1 1 0.8653786704599136 1 0 1 1 0 0 1 0 0 1:-0.142857 2:-0.259259 3:-1 5:-0.6 6:1 7:-0.4 8:-0.717172 9:-0.757576 10:-1 11:-0.833333 12:-0.557895 13:-0.688312 14:-0.0909091 15:-0.865815 16:-0.465356 17:-0.596269 18:-0.771429 19:0.272727 20:0.16129 21:0.454545 22:-1 
1 0 1 0 1 0 0 0 0 0 0 0 0 0.2618566636453402 0 1:-0.904762 2:-0.703704 3:-1 5:-0.6 6:1 7:-0.4 8:-0.717172 9:-0.757576 10:-1 11:-0.833333 12:-0.557895 13:-0.948052 14:-0.818182 15:-0.00319489 16:0.675676 17:0.682878 18:-0.771429 19:-1 20:0.0322581 21:-0.818182 22:-1 
1 0 0 0 0 0 0 0.399732881793028 0 0 0 0 0 0 0 1:-0.142857 2:-0.703704 3:-1 5:-0.6 6:1 7:-0.4 8:-0.717172 9:-0.757576 10:-1 11:-0.833333 12:-0.557895 13:-0.0909091 14:-0.272727 15:0.297125 16:-0.410319 17:-0.379081 18:-0.771429 19:0.272727 20:-0.225806 21:0.272727 22:-0.266667 
0.8537345988426175 0 0 0.6909906969463872 0 0.7591995046365146 0 0 1 0 0 0 1 0 0 1:0.52381 2:-0.703704 3:-1 5:-0.6 6:-1 7:-0.4 8:1 9:-0.757576 10:-1 11:-0.833333 12:-0.452632 13:-0.584416 14:-0.0909091 15:-0.853035 16:0.74742 17:0.76016 18:-0.771429 19:0.818182 20:0.483871 21:1 22:-1 
1 0 0 1 0 0 0 0.3159081989170395 1 1 0 0 1 0 0.680661107936317 1:-0.428571 2:-0.555556 3:-1 5:-0.6 6:-1 7:-0.4 8:-0.838384 9:-0.757576 10:-1 11:-0.833333 12:-0.684211 13:0.61039 14:-0.0909091 15:-0.0607029 16:-0.344472 17:-0.308461 18:-0.771429 19:0.454545 20:0.677419 21:0.636364 22:-1 
1 0 0 0 0 1 0 1 0 1 0 0 1 0 0 1:-0.142857 2:0.333333 3:-1 5:-0.6 6:1 7:-0.4 8:0.919192 9:-0.878788 10:-1 11:-0.833333 12:-0.326316 13:-0.0909091 14:-0.272727 15:0.15016 16:0.186241 17:0.196536 18:-0.771429 19:0.272727 20:0.16129 21:0.272727 22:-0.0666667 
1 1 1 0 1 0 1 0 0 0 0 0 0 0.4164630866998631 0 1:-0.904762 2:0.111111 3:-1 5:-0.6 6:1 7:-0.4 8:-0.737374 9:-0.757576 10:-1 11:-0.833333 12:-0.578947 13:-0.948052 14:-0.818182 15:-0.527157 16:0.679607 17:0.686875 18:-0.771429 19:0.0909091 20:0.612903 21:0.272727 22:-1 
1 0 0 1 0 0.631449206119541 0 1 0 1 0 0 0.1342109058761895 1 0 1:-0.904762 2:0.111111 3:-1 5:-0.6 6:1 7:-0.4 8:-0.717172 9:-0.757576 10:-1 11:-0.833333 12:-0.621053 13:0.922078 14:-0.272727 15:0.680511 16:0.412285 17:0.412392 18:-0.771429 19:-0.272727 20:-0.16129 21:-0.272727 22:-0.0666667 
1 1 1 0 1 0 0 0 0 0 0 0 0 0.2045589552662538 0 1:-1 2:-0.481481 3:-1 5:-0.6 6:1 7:-0.4 8:-0.69697 9:-0.878788 10:-1 11:-0.833333 12:-0.536842 13:-0.948052 14:-0.818182 15:-0.00319489 16:0.42801 17:0.431046 18:-0.771429 19:0.0909091 20:-0.870968 21:0.0909091 22:-0.0666667 
1 0 1 1 1 0 1 0 1 1 0 0 1 0 0.2651181830855136 1:-0.428571 2:-0.555556 3:-1 5:-0.6 6:1 7:-0.4 8:-0.777778 9:-0.757576 10:-1 11:-0.833333 12:-0.684211 13:-0.584416 14:-0.0909091 15:-0.853035 16:-0.520393 17:-0.495003 18:-0.771429 19:0.272727 20:-0.935484 21:0.272727 22:-0.0666667 
1 0 1 1 1 0 0 0 1 0 0 0 0 0 0 1:-0.904762 2:0.111111 3:-1 5:-0.6 6:-1 7:-0.4 8:-0.878788 9:-0.757576 10:-1 11:-0.833333 12:-0.305263 13:-0.844156 14:-0.0909091 15:-0.955272 16:-0.13317 17:-0.112592 18:-0.771429 19:0.818182 20:0.290323 21:0.818182 22:-0.0666667 
1 0 0 0 0 0 0 0 0 0 0 0 0 0 0 1:0.52381 2:-0.259259 3:-1 5:-0.6 6:1 7:-0.4 8:-0.737374 9:-0.757576 10:-1 11:-0.833333 12:-0.157895 13:-0.0909091 14:-0.272727 15:0.207668 16:0.756265 17:0.768155 18:-0.771429 19:0.454545 20:-0.290323 21:0.454545 22:-0.0666667 
1 0.6662188725471884 0 0 0 0 0 0 0 0.372621476850834 0 0 0 0 0 1:0.904762 2:-0.62963 3:-1 5:-0.6 6:-1 7:-0.4 8:0.979798 9:-0.878788 10:-1 11:-0.833333 12:-0.473684 13:-0.116883 14:-0.818182 15:-0.680511 16:0.849631 17:0.865423 18:-0.771429 19:0.818182 20:0.935484 21:1 22:-1 
1 0 1 1 1 0 1 0 1 0 0 0 0 0 0 1:-0.428571 2:-0.555556 3:-1 5:-0.6 6:-1 7:-0.4 8:-0.858586 9:-0.757576 10:-1 11:-0.833333 12:-0.705263 13:-0.688312 14:-0.0909091 15:-0.865815 16:-0.382801 17:-0.347102 18:-0.942857 19:0.454545 20:0.548387 21:0.818182 22:-0.0666667 
1 0 0 0 0.8334424068185963 0 0 1 0 0.5841969058136343 0 0 0 0 0 1:-0.142857 2:0.111111 3:-1 5:-0.6 6:1 7:-0.4 8:-0.757576 9:-0.878788 10:-1 11:-0.833333 12:-0.157895 13:-0.0909091 14:-0.272727 15:0.15016 16:0.186241 17:0.196536 18:-0.771429 19:0.818182 20:0.290323 21:-0.818182 22:-0.0666667 
1 0 0 0 1 0 1 1 0 1 0 0 1 0 0 1:-0.142857 2:0.111111 3:-1 5:-0.6 6:1 7:-0.4 8:-0.757576 9:-0.878788 10:-1 11:-0.833333 12:-0.578947 13:-0.0909091 14:-0.272727 15:0.15016 16:0.186241 17:0.196536 18:-0.771429 19:0.818182 20:0.290323 21:-0.818182 22:-0.0666667 
1 0 0 0 0 1 0 1 0 0 0 0 0 1 0 1:0.52381 2:0.111111 3:-1 5:-0.6 6:1 7:-0.4 8:-0.737374 9:-0.757576 10:-1 11:-0.833333 12:-0.157895 13:0.662338 14:-0.818182 15:0.0670927 16:-0.57543 17:-0.553631 18:-0.771429 19:-0.0909091 20:-0.290323 21:-0.0909091 22:-0.0666667 
1 0 1 0 1 0 1 0 0 1 0 0 0 0 0 1:-0.142857 2:-0.703704 3:-1 5:-0.6 6:1 7:-0.4 8:-0.69697 9:-0.757576 10:-1 11:-0.833333 12:-0.536842 13:-0.87013 14:-0.272727 15:-0.667732 16:-0.512531 17:-0.484344 18:-0.771429 19:-0.636364 20:0.0322581 21:-0.636364 22:-0.0666667 
1 1 1 0 1 0 0 0 0 0 0 0 0 0 0 1:-0.904762 2:-0.703704 3:-1 5:-0.6 6:-1 7:-0.4 8:-0.858586 9:-0.757576 10:-1 11:-0.833333 12:-0.284211 13:-0.948052 14:-0.818182 15:-0.00319489 16:0.675676 17:0.682878 18:-0.771429 19:0.272727 20:-0.16129 21:0.272727 22:-0.333333 
1 0 0 0 0 0 0 0 0 0 0 0 0 0 0 1:-0.428571 2:-0.555556 3:-1 5:-0.6 6:1 7:-0.4 8:-0.79798 9:-0.757576 10:-1 11:-0.833333 12:-0.221053 13:-0.0909091 14:-0.272727 15:0.207668 16:0.450614 17:0.453698 18:-0.771429 19:0.454545 20:-0.354839 21:0.454545 22:-0.0666667 
1 0 1 0 1 0 0 0 0 0 0 0 0 0 0 1:-1 2:-0.481481 3:-1 5:-0.6 6:-1 7:-0.4 8:-0.818182 9:-0.878788 10:-1 11:-0.833333 12:-0.705263 13:-0.220779 14:-0.636364 15:-0.738019 16:-0.00737101 17:-0.005996 18:-0.942857 19:-0.0909091 20:-0.419355 21:-0.0909091 22:-1 
1 -0 0 0.6107254138624765 0 0.5363244844882429 1 0 1 0.2449126785053165 0 0.3777394239571697 1 0 0.03866078168026181 1:0.619048 2:0.259259 3:-1 5:-0.6 6:-1 7:-0.4 8:0.979798 9:-0.757576 10:-1 11:-0.833333 12:-0.473684 13:-0.844156 14:-0.0909091 15:-0.955272 16:0.885995 17:0.897402 18:-0.771429 19:-0.818182 20:0.16129 21:-0.818182 22:-0.0666667 
1 0 1 0 1 0 0 0 0 0.01973022880429201 0 0 0 0 0 1:-0.52381 2:-0.703704 3:-1 5:-0.6 6:1 7:-0.4 8:-0.717172 9:-0.757576 10:-1 11:-0.833333 12:-0.663158 13:-0.220779 14:-0.636364 15:-0.738019 16:0.310074 17:0.248501 18:-0.771429 19:0.818182 20:-0.612903 21:0.818182 22:-0.0666667 
1 0 0 0 0 0 1 0 0 1 0 0 0 0 0 1:0.619048 2:0.259259 3:-1 5:-0.6 6:1 7:-0.4 8:-0.959596 9:-0.757576 10:-0.6 11:-0.666667 12:-0.178947 13:0.194805 14:-0.818182 15:-0.482428 16:-0.239312 17:-0.195203 18:-0.771429 19:0.272727 20:0.483871 21:0.272727 22:0.4 
1 0 1 1 1 0.8815105193645303 1 0.7088625995232198 1 1 0 0 1 0 0 1:-0.142857 2:-0.259259 3:-1 5:-0.6 6:1 7:-0.4 8:-0.737374 9:-0.757576 10:-1 11:-0.833333 12:-0.578947 13:-0.688312 14:-0.0909091 15:-0.865815 16:-0.465356 17:-0.596269 18:-0.771429 19:-0.636364 20:-0.225806 21:-0.636364 22:-0.0666667 
1 0 0 0 0 1 0.1534591391396098 1 0 0 0 0 0 0 0 1:0.904762 2:0.259259 3:-1 5:-0.6 6:-1 7:-0.4 8:-0.737374 9:-0.757576 10:-1 11:-0.833333 12:-0.684211 13:0.168831 14:-0.818182 15:-0.488818 16:-0.247174 17:-0.203198 18:-0.771429 19:-0.636364 20:-0.677419 21:-0.454545 22:-1 
1 0 0 0 0 0 0 0 0 0.1116532235242117 0 1 0 0 0 1:-0.904762 2:0.111111 3:-1 5:-0.6 6:-1 7:-0.4 8:-0.777778 9:-0.878788 10:-1 11:-0.833333 12:-0.621053 13:0.246753 14:-1 15:-0.271565 16:0.333661 17:0.336442 18:0.142857 19:-0.636364 20:1 21:-0.454545 22:-0.0666667 
1 0 0 1 0 0 0 0 0 1 0.3218089263632413 0 0 1 0 1:-0.904762 2:-0.703704 3:-1 5:-0.6 6:1 7:-0.4 8:-0.737374 9:-0.757576 10:-1 11:-0.833333 12:-0.578947 13:0.922078 14:-0.272727 15:0.680511 16:0.823096 17:0.840107 18:-0.771429 19:-0.636364 20:-0.548387 21:-0.636364 22:-0.0666667 
0.5916774927932 0 0 0 0 0 0 0 0 0 0 0 0 0 0 1:-0.142857 2:0.111111 3:-1 5:-0.6 6:-1 7:-0.4 8:-0.717172 9:-0.757576 10:-1 11:-0.833333 12:-0.705263 13:0.662338 14:-0.818182 15:0.0670927 16:-0.565602 17:-0.545636 18:-0.771429 19:1 20:-0.0322581 21:1 22:-0.0666667 
0 0 0 1 0 0 0 0 0 0 0 0 0 0 1 1:-0.428571 2:-0.555556 3:-1 5:-0.6 6:-1 7:-0.4 8:-0.757576 9:-0.757576 10:-1 11:-0.833333 12:-0.705263 13:0.61039 14:-0.0909091 15:-0.0607029 16:-0.345455 17:-0.308461 18:-0.771429 19:-0.0909091 20:0.677419 21:-0.0909091 22:0.666667 
1 0 0 0 1 0 0 0 0 0 0 1 0 0 0 1:-1 2:-0.481481 3:-1 5:-0.6 6:1 7:-0.4 8:-0.69697 9:-0.878788 10:-1 11:-0.833333 12:-0.326316 13:-0.116883 14:-0.818182 15:-0.642173 16:-0.897789 17:-0.88008 18:-0.0285714 19:-0.636364 20:-0.225806 21:-0.636364 22:-0.0666667 
1 0 1 0 1 0 0 0 0 0 0 0 0 0 0 1:-0.428571 2:-0.555556 3:-1 5:-0.6 6:-1 7:-0.4 8:-0.69697 9:-0.757576 10:-1 11:-0.833333 12:-0.642105 13:-0.61039 14:-0.818182 15:-0.341853 16:0.659951 17:0.662891 18:-0.771429 19:-0.818182 20:0.741935 21:-0.636364 22:-1 
1 0 0 0 0 0 0 0 0 0 0 0 0 0 0 1:-0.428571 2:-0.703704 3:-1 5:-0.6 6:-1 7:-0.4 8:-0.737374 9:-0.757576 10:-1 11:-0.833333 12:-0.6 13:-0.116883 14:-0.818182 15:-0.680511 16:-0.913514 17:-0.893404 18:-0.771429 19:0.272727 20:-0.677419 21:0.818182 22:-0.666667 
1 0 0 1 1 0 0 0 1 1 0 1 0 0 0 1:-0.904762 2:0.111111 3:-1 5:-0.6 6:-1 7:-0.4 8:-0.777778 9:-0.878788 10:-1 11:-0.833333 12:-0.578947 13:-0.688312 14:-0.0909091 15:-0.105431 16:-0.690418 17:-0.676216 18:0.142857 19:-0.454545 20:-0.548387 21:-0.454545 22:-0.6 
1 0 0 0 0 0 0 0 0 0 1 0 0 0 0 1:-0.428571 2:-0.555556 3:-1 5:-0.6 6:-1 7:-0.4 8:-0.717172 9:-0.878788 10:-1 11:-0.833333 12:-0.705263 13:0.168831 14:-0.818182 15:-0.201278 16:-0.726781 17:-0.717522 18:-0.771429 19:-1 20:0.741935 21:-1 22:0.733333 
1 0 0 0 0 0 0 0 0.461503498293864 1 0 0 0.2353507491833022 0 0 1:0.52381 2:-0.259259 3:-1 5:-0.6 6:1 7:-0.4 8:-0.69697 9:-0.757576 10:-1 11:-0.833333 12:-0.536842 13:-0.0909091 14:-0.272727 15:0.175719 16:0.82801 17:0.845436 18:-0.771429 19:-0.272727 20:0.677419 21:-0.272727 22:0.666667 
1 1 1 0 1 0 0 0 0 0 1 0 0 0 0 1:-0.428571 2:-0.703704 3:-1 5:-0.6 6:-1 7:-0.4 8:-0.757576 9:-0.757576 10:-1 11:-0.833333 12:-0.705263 13:-0.350649 14:-0.818182 15:-0.789137 16:-0.740541 17:-0.730846 18:-0.771429 19:-0.272727 20:-0.0322581 21:-0.272727 22:-0.0666667 
1 1 1 0 1 0 0 0 0 0 0.6616623311359459 0 0 0 1 1:-0.428571 2:-0.703704 3:-1 5:-0.6 6:1 7:-0.4 8:-0.69697 9:-0.757576 10:-1 11:-0.833333 12:-0.536842 13:-0.350649 14:-0.818182 15:-0.789137 16:-0.740541 17:-0.730846 18:-0.771429 19:-0.272727 20:-0.935484 21:-0.272727 22:-1 
1 0 0 0 1 0 0 0 0 0 1 0 0 0 0 1:-0.904762 2:0.111111 3:-1 5:-0.6 6:-1 7:-0.4 8:-0.69697 9:-0.757576 10:-1 11:-0.833333 12:-0.684211 13:-0.116883 14:-0.818182 15:-0.680511 16:-0.576413 17:-0.554963 18:-0.771429 19:-0.0909091 20:0.483871 21:-0.0909091 22:0.4 
0 0 0 1 0 0 0 0.8303872607230862 1 0 0 0 0.6998229664664058 0 1 1:-0.428571 2:-0.555556 3:-1 5:-0.6 6:-1 7:-0.4 8:-0.838384 9:-0.757576 10:-1 11:-0.833333 12:-0.684211 13:0.61039 14:-0.0909091 15:-0.0607029 16:-0.345455 17:-0.308461 18:-0.771429 19:1 20:-0.677419 21:1 22:-0.0666667 
1 0 1 0 1 0 1 0 0 1 0 1 0 0 0 1:-1 2:-0.481481 3:-1 5:-0.6 6:1 7:-0.4 8:-0.69697 9:-0.878788 10:-1 11:-0.833333 12:-0.6 13:-0.116883 14:-0.818182 15:-0.642173 16:-0.897789 17:-0.88008 18:-0.0285714 19:-0.636364 20:-0.225806 21:-0.636364 22:-0.0666667 
1 0 0 0.0452534797745183 1 0 0 0 1 0 0 0 1 0 0 1:-0.428571 2:-0.555556 3:-1 5:-0.6 6:-1 7:-0.4 8:-0.737374 9:-0.757576 10:-1 11:-0.833333 12:-0.684211 13:-0.454545 14:-0.0909091 15:-0.821086 16:-0.0663391 17:-0.0552965 18:-0.771429 19:-0.636364 20:-0.290323 21:-0.636364 22:-0.266667 
1 0 0 0 0 0 0 0 0 1 0 0 0 0 0 1:-0.428571 2:-0.555556 3:-1 5:-0.6 6:1 7:-0.4 8:-0.717172 9:-0.757576 10:-1 11:-0.833333 12:-0.663158 13:-0.0909091 14:-0.272727 15:0.207668 16:0.450614 17:0.453698 18:-0.771429 19:-0.0909091 20:-0.225806 21:-0.0909091 22:-0.0666667 
1 0 0 0 0 0 0 0 0 0 0 0 0 1 0 1:-0.428571 2:-0.555556 3:-1 5:-0.6 6:1 7:-0.4 8:-0.777778 9:-0.757576 10:-1 11:-0.833333 12:-0.621053 13:0.662338 14:-0.818182 15:0.482428 16:-0.0771499 17:-0.065956 18:-0.771429 19:-0.0909091 20:0.483871 21:-0.0909091 22:0.466667 
0 0 0 1 1 0 0 0 0 0 0 0 0 0 0 1:-0.904762 2:-0.703704 3:-1 5:-0.6 6:-1 7:-0.4 8:-0.69697 9:-0.878788 10:-1 11:-0.833333 12:-0.115789 13:-0.688312 14:-0.0909091 15:-0.105431 16:0.187224 17:0.193871 18:-0.771429 19:-1 20:-0.419355 21:-0.818182 22:-1 
1 0 0.05787963008812532 0 1 0 0.9749616107769224 0 0 0 1 0 0 0 0 1:-1 2:-0.481481 3:-1 5:-0.6 6:-1 7:-0.4 8:-0.717172 9:-0.878788 10:-1 11:-0.833333 12:-0.663158 13:-0.116883 14:-0.818182 15:-0.680511 16:0.248157 17:-0.88008 18:-0.771429 19:-1 20:1 21:-0.818182 22:-1 
1 0 0 1 0 0 0 0 0 0 0 0 0 0 0 1:-1 2:-0.481481 3:-1 5:-0.6 6:-1 7:-0.4 8:-0.737374 9:-0.757576 10:-1 11:-0.833333 12:-0.684211 13:-0.0909091 14:-0.272727 15:0.175719 16:-0.497789 17:-0.468354 18:-0.771429 19:-0.272727 20:-0.0322581 21:-0.272727 22:-0.0666667 
0 0 0 0 0 0 0 0 0 0.847072539403238 0 0 0 0 0 1:0.904762 2:0.333333 3:-1 5:-0.6 6:-1 7:-0.4 8:-0.818182 9:-0.757576 10:-1 11:-0.833333 12:-0.663158 13:0.168831 14:-0.818182 15:-0.488818 16:-0.246192 17:-0.203198 18:-0.771429 19:0.272727 20:-0.548387 21:0.272727 22:-0.0666667 
1 0 1 0 0 0 0 0 0.7843156483188826 0 0 0 0 0 0 1:0.52381 2:-0.703704 3:-1 5:-0.6 6:-1 7:-0.4 8:0.919192 9:-0.757576 10:-1 11:-0.833333 12:-0.536842 13:-0.844156 14:-0.0909091 15:-0.955272 16:0.0506143 17:-0.137908 18:-0.771429 19:-0.0909091 20:-0.419355 21:-0.0909091 22:-1 
1 1 1 0 1 0 0 0 0 0 0 0 0 0 0 1:-0.142857 2:0.111111 3:-1 5:-0.6 6:-1 7:-0.4 8:-0.737374 9:-0.757576 10:-1 11:-0.833333 12:-0.684211 13:-0.350649 14:-0.818182 15:-0.789137 16:-0.338575 17:-0.300466 18:-0.771429 19:0.272727 20:-0.612903 21:0.272727 22:-0.0666667 
1 0 1 1 1 0 1 0 1 1 0 0 1 0 0 1:-0.52381 2:-0.555556 3:-1 5:-0.6 6:1 7:-0.4 8:-0.757576 9:-0.878788 10:-1 11:-0.833333 12:-0.6 13:-0.584416 14:-0.0909091 15:-0.853035 16:0.297297 17:0.299134 18:-0.771429 19:0.818182 20:-0.612903 21:0.818182 22:-0.0666667 
1 0 1 0 1 0 0 0 0 0 0 0 0 0 0 1:-0.142857 2:0.111111 3:-1 5:-0.6 6:1 7:-0.4 8:-0.717172 9:-0.757576 10:-1 11:-0.833333 12:-0.136842 13:-0.350649 14:-0.818182 15:-0.789137 16:-0.338575 17:-0.300466 18:-0.771429 19:-0.272727 20:-0.0322581 21:-0.272727 22:-0.0666667 
1 1 1 0 1 0 0 0 0 0 0 0.6146575157978708 0 0 0 1:-0.904762 2:0.111111 3:-1 5:-0.6 6:-1 7:-0.4 8:0.979798 9:-0.757576 10:-1 11:-0.833333 12:-0.684211 13:-0.948052 14:-0.818182 15:-0.527157 16:0.679607 17:0.686875 18:-0.771429 19:1 20:-0.290323 21:1 22:-0.0666667 
1 0 1 1 1 0 0 0 1 0.1977700021145257 0 0.3044357500029355 0 0 0 1:-0.52381 2:-0.555556 3:-1 5:-0.6 6:-1 7:-0.4 8:-0.717172 9:-0.757576 10:-1 11:-0.833333 12:-0.663158 13:-0.844156 14:-0.0909091 15:-0.955272 16:0.517445 17:0.517655 18:-0.771429 19:-0.818182 20:0.612903 21:-0.636364 22:-1 
0 0 1 0 0 0 0 0 0 0 0 0 0 0 0 1:-0.428571 2:-0.703704 3:-1 5:-0.6 6:-1 7:-0.4 8:-0.69697 9:-0.878788 10:-1 11:-0.833333 12:-0.684211 13:-0.116883 14:-0.818182 15:-0.680511 16:0.0299754 17:0.0313125 18:-0.771429 19:-0.636364 20:0.225806 21:-0.636364 22:0.2 
1 1 1 0 1 0 0 0.6301674093068792 0 0 1 0 0 0 0 1:-0.904762 2:-0.703704 3:-1 5:-0.6 6:-1 7:-0.4 8:-0.858586 9:-0.757576 10:-1 11:-0.833333 12:-0.684211 13:-0.948052 14:-0.818182 15:-0.00319489 16:0.675676 17:0.682878 18:-0.771429 19:1 20:-0.225806 21:-0.818182 22:-1 
1 0 0 1 0 0 0 0 0.4563511179549669 0.1939105528754642 0 0 0.1353131228873622 0 1 1:-0.904762 2:0.111111 3:-1 5:-0.6 6:-1 7:-0.4 8:0.939394 9:-0.757576 10:-1 11:-0.833333 12:-0.515789 13:0.558442 14:-0.0909091 15:-0.0798722 16:0.792629 17:0.804131 18:-0.942857 19:-0.818182 20:0.354839 21:-0.818182 22:-0.0666667 
1 1 1 0 1 0 0 0 0 0 1 0.5364463688808628 0 0 0 1:-0.142857 2:-0.259259 3:-1 5:-0.6 6:-1 7:-0.4 8:-0.818182 9:-0.757576 10:-1 11:-0.833333 12:-0.663158 13:-0.948052 14:-0.818182 15:-0.00319489 16:-0.385749 17:-0.349767 18:-0.771429 19:-1 20:0.290323 21:-0.818182 22:-0.0666667 
1 0 0 1 1 0 0 0 1 0.6784099827643543 0 0 1 0 1 1:-0.428571 2:-0.555556 3:-1 5:-0.6 6:-1 7:-0.4 8:-0.757576 9:-0.757576 10:-1 11:-0.833333 12:-0.642105 13:-0.454545 14:-0.0909091 15:-0.821086 16:-0.0663391 17:-0.0552965 18:-0.771429 19:0.636364 20:-0.225806 21:-1 22:-0.0666667 
1 0 0 0 1 0 0 0 0 0 0 0 0 0 0 1:-0.904762 2:-0.703704 3:-1 5:-0.6 6:1 7:-0.4 8:-0.69697 9:-0.757576 10:-1 11:-0.833333 12:-0.115789 13:-0.0909091 14:-0.272727 15:0.15016 16:0.669779 17:0.674883 18:-0.771429 19:0.0909091 20:0.0967742 21:0.0909091 22:0.0666667 
1 0 1 0 0 0 1 0 0 1 0 0 0 0 0 1:-1 2:-0.481481 3:-1 5:-0.6 6:-1 7:-0.4 8:-0.717172 9:-0.878788 10:-1 11:-0.833333 12:-0.684211 13:-0.116883 14:-0.818182 15:-0.642173 16:0.931204 17:0.936043 18:-0.771429 19:-0.636364 20:-0.806452 21:-0.0909091 22:0.533333 
0 0 0 1 0 0 0 0 0 0 0 0 0 0 0 1:-0.428571 2:-0.555556 3:-1 5:-0.6 6:-1 7:-0.4 8:-0.757576 9:-0.757576 10:-1 11:-0.833333 12:-0.178947 13:0.61039 14:-0.0909091 15:-0.0607029 16:-0.345455 17:-0.308461 18:-0.771429 19:1 20:-0.677419 21:0.272727 22:-0.0666667 
1 0 0 0 1 0 1 0 1 0 0 0 0 0 0 1:-0.142857 2:-0.259259 3:-1 5:-0.6 6:1 7:-0.4 8:-0.717172 9:-0.757576 10:-1 11:-0.833333 12:-0.136842 13:-0.688312 14:-0.0909091 15:-0.865815 16:-0.465356 17:-0.596269 18:-0.771429 19:0.272727 20:0.16129 21:0.454545 22:-1 
1 0 1 0 0 0 0 0 0 0 0 0 0 0 0 1:-0.428571 2:-0.555556 3:-1 5:-0.6 6:-1 7:-0.4 8:-0.777778 9:-0.757576 10:-1 11:-0.833333 12:-0.621053 13:-0.61039 14:-0.818182 15:-0.341853 16:0.659951 17:0.662891 18:-0.771429 19:-0.818182 20:-0.806452 21:-0.636364 22:-1 
1 0 0 1 0 0 0 0.6026473797752233 1 0 0 0 0 0 0 1:0.52381 2:-0.259259 3:-1 5:-0.6 6:-1 7:-0.4 8:-0.818182 9:-0.757576 10:-1 11:-0.833333 12:-0.663158 13:-0.0909091 14:-0.272727 15:0.175719 16:0.82801 17:0.845436 18:-0.771429 19:-1 20:0.0322581 21:-0.818182 22:-1 
1 0 0 1 1 0.4306754202353258 0 1 0 0 0 0 1 0 0 1:-0.52381 2:-0.555556 3:-1 5:-0.6 6:1 7:-0.4 8:-0.737374 9:-0.757576 10:-1 11:-0.833333 12:-0.578947 13:-0.454545 14:-0.0909091 15:0.169329 16:-0.105651 17:-0.0939374 18:-0.771429 19:0.454545 20:0.548387 21:0.636364 22:-1 
1 0 0 1 1 0 0 0 0.2206119395970694 1 0 0 0 0 1 1:-0.904762 2:-0.703704 3:-1 5:-0.6 6:1 7:-0.4 8:-0.737374 9:-0.757576 10:-1 11:-0.833333 12:-0.578947 13:-0.0909091 14:-0.272727 15:-0.616613 16:-0.653071 17:-0.62958 18:-0.771429 19:-0.454545 20:0.870968 21:0.0909091 22:-0.0666667 
0 0 0 0 1 0 0 0 0 0 0 0 0 0 0 1:-0.428571 2:-0.555556 3:-1 5:-0.6 6:-1 7:-0.4 8:0.979798 9:-0.757576 10:-1 11:-0.833333 12:-0.473684 13:-0.688312 14:-0.0909091 15:-0.865815 16:-0.382801 17:-0.347102 18:-0.942857 19:0.0909091 20:-0.548387 21:0.0909091 22:-0.0666667 
1 0 0 1 1 1 1 1 1 1 0 0 1 0 0 1:-0.142857 2:-0.259259 3:-1 5:-0.6 6:1 7:-0.4 8:-0.777778 9:-0.757576 10:-1 11:-0.833333 12:-0.621053 13:-0.688312 14:-0.0909091 15:-0.865815 16:-0.465356 17:-0.596269 18:-0.771429 19:-0.272727 20:0.225806 21:-0.0909091 22:-1 
1 0 0 0.7852112554064012 0 0 0 0 1 0 0 0 0 0 0 1:-0.428571 2:-0.555556 3:-1 5:-0.6 6:-1 7:-0.4 8:-0.717172 9:-0.757576 10:-1 11:-0.833333 12:-0.705263 13:-0.454545 14:-0.0909091 15:-0.821086 16:-0.0663391 17:-0.0552965 18:-0.771429 19:0.454545 20:-0.0322581 21:1 22:-0.0666667 
1 0 1 0 1 0 1 0 0.594750556499021 0 0 0 0 0 0 1:-0.142857 2:-0.703704 3:-1 5:-0.6 6:1 7:-0.4 8:0.959596 9:-0.878788 10:-1 11:-0.833333 12:-0.494737 13:-0.844156 14:-0.0909091 15:-0.955272 16:0.537101 17:0.537642 18:-0.771429 19:0.818182 20:0.612903 21:0.818182 22:-0.0666667 
1 0 0 1 1 0 0 0 0 0 0 0 0 0 0 1:-0.52381 2:-0.555556 3:-1 5:-0.6 6:-1 7:-0.4 8:0.959596 9:-0.757576 10:-1 11:-0.833333 12:-0.494737 13:-0.454545 14:-0.0909091 15:0.169329 16:-0.105651 17:-0.0939374 18:-0.771429 19:-0.818182 20:0.290323 21:-0.818182 22:-0.0666667 
1 0 0 0 1 0 0 0 0 0 0 1 0 0 0 1:-1 2:-0.481481 3:-1 5:-0.6 6:1 7:-0.4 8:-0.69697 9:-0.878788 10:-1 11:-0.833333 12:-0.115789 13:-0.116883 14:-0.818182 15:-0.642173 16:-0.897789 17:-0.88008 18:-0.0285714 19:-0.636364 20:-0.225806 21:-0.636364 22:-0.0666667 
1 0 0 0 1 0 0 0 0 0.5908268904292547 0.2537099856973942 0.4074462562638948 0 0.6298037686842696 0 1:-1 2:-0.481481 3:-1 5:-0.6 6:1 7:-0.4 8:-0.717172 9:-0.878788 10:-1 11:-0.833333 12:-0.557895 13:-0.116883 14:-0.818182 15:-0.642173 16:-0.897789 17:-0.88008 18:-0.0285714 19:0.818182 20:-0.225806 21:-0.0909091 22:-0.0666667 
1 0 1 1 1 0 1 0 1 1 0 0 1 0 0 1:-0.904762 2:0.111111 3:-1 5:-0.6 6:-1 7:-0.4 8:-0.717172 9:-0.878788 10:-1 11:-0.833333 12:-0.663158 13:-0.844156 14:-0.0909091 15:-0.955272 16:0.539066 17:0.537642 18:-0.771429 19:-0.0909091 20:-0.354839 21:-1 22:-0.0666667 
0 0 0 1 0 0 0 0 0 0 0 0 0 0 0 1:-0.428571 2:-0.555556 3:-1 5:-0.6 6:-1 7:-0.4 8:-0.737374 9:-0.757576 10:-1 11:-0.833333 12:-0.642105 13:0.61039 14:-0.0909091 15:-0.0607029 16:-0.344472 17:-0.308461 18:-0.771429 19:1 20:0.225806 21:1 22:-0.0666667 
1 0 0 0.3587566802259114 0 0 0 0 0 0 0 0 0 1 0 1:-0.904762 2:0.111111 3:-1 5:-0.6 6:1 7:-0.4 8:-0.717172 9:-0.757576 10:-1 11:-0.833333 12:-0.136842 13:0.922078 14:-0.272727 15:0.680511 16:0.412285 17:0.412392 18:-0.771429 19:-0.272727 20:-0.16129 21:-0.272727 22:-0.0666667 
1 1 1 0 1 0 1 0 0 0 0 0 0 0 0 1:-0.428571 2:-0.703704 3:-1 5:-0.6 6:1 7:-0.4 8:-0.757576 9:-0.757576 10:-1 11:-0.833333 12:-0.6 13:-0.350649 14:-0.818182 15:-0.789137 16:-0.740541 17:-0.730846 18:-0.771429 19:-0.272727 20:-0.0322581 21:-0.272727 22:-0.0666667 
1 0 1 0 1 0 0 0 0 0 0 0 0.6903280680167485 0 0.3347514462841321 1:-0.428571 2:-0.555556 3:-1 5:-0.6 6:-1 7:-0.4 8:0.979798 9:-0.757576 10:-1 11:-0.833333 12:-0.684211 13:-0.688312 14:-0.0909091 15:-0.865815 16:-0.382801 17:-0.347102 18:-0.942857 19:0.0909091 20:-0.548387 21:0.0909091 22:-0.0666667 
1 1 1 0 0 0 0.006605580081720995 0 1 0 0 0 0.4975115551081971 0 0 1:0.52381 2:-0.703704 3:-1 5:-0.6 6:-1 7:-0.4 8:0.79798 9:-0.757576 10:-1 11:-0.833333 12:-0.663158 13:-0.844156 14:-0.0909091 15:-0.955272 16:0.0506143 17:-0.137908 18:-0.771429 19:-0.0909091 20:0.419355 21:-0.0909091 22:-0.0666667 
1 0 0 0 0 0 0 0 0 0 0 0 0 1 0 1:-0.142857 2:0.111111 3:-1 5:-0.6 6:1 7:-0.4 8:-0.717172 9:-0.757576 10:-1 11:-0.833333 12:-0.136842 13:0.662338 14:-0.818182 15:0.0670927 16:-0.565602 17:-0.545636 18:-0.771429 19:1 20:-0.0322581 21:1 22:-0.0666667 
0 0 0 0 0 0 0 0 0 0.8746536974735449 0 1 0 0 0 1:0.52381 2:-0.259259 3:-1 5:-0.6 6:-1 7:-0.4 8:-0.89899 9:-0.878788 10:-1 11:-0.833333 12:-0.326316 13:0.168831 14:-0.818182 15:-0.201278 16:0.156757 17:0.168554 18:0.142857 19:-0.0909091 20:0.806452 21:-0.0909091 22:-0.0666667 
1 0 0 0.5168147514317025 0 0 0 1 0 1 0 0 0 0 0 1:-0.904762 2:-0.703704 3:-1 5:-0.6 6:-1 7:-0.4 8:-0.79798 9:-0.757576 10:-1 11:-0.833333 12:-0.642105 13:0.922078 14:-0.272727 15:0.680511 16:0.823096 17:0.840107 18:-0.771429 19:0.454545 20:0.806452 21:0.636364 22:-1 
1 1 1 0 1 0 0 0 0 0 1 0 0 0 0 1:-0.142857 2:-0.259259 3:-1 5:-0.6 6:-1 7:-0.4 8:-0.757576 9:-0.757576 10:-1 11:-0.833333 12:-0.178947 13:-0.948052 14:-0.818182 15:-0.00319489 16:-0.385749 17:-0.349767 18:-0.771429 19:0.272727 20:-0.870968 21:0.272727 22:-0.933333 
1 0 1 0 1 0 0 0 1 0 0 0 0 0 0 1:-0.52381 2:-0.555556 3:-1 5:-0.6 6:1 7:-0.4 8:-0.757576 9:-0.757576 10:-1 11:-0.833333 12:-0.2 13:-0.844156 14:-0.0909091 15:-0.955272 16:0.517445 17:0.517655 18:-0.771429 19:-0.0909091 20:0.741935 21:0.454545 22:-0.0666667 
1 0 0.07641895114369099 0 0 1 1 1 0.2970175828376141 1 1 0 0 0 1 1:0.904762 2:-0.777778 3:-1 5:0.6 6:-1 7:-0.4 8:-0.818182 9:-0.454545 10:-1 11:-0.833333 12:-0.663158 13:-0.558442 14:-0.818182 15:0.13099 16:0.611794 17:0.616256 18:-0.771429 19:-0.636364 20:0.677419 21:0.0909091 22:-1 
1 1 0 0 1 0 1 0 0 0 0 0 0 0 0 1:0.52381 2:-0.259259 3:-1 5:-0.6 6:1 7:-0.4 8:-0.717172 9:-0.757576 10:-1 11:-0.833333 12:-0.115789 13:-0.350649 14:-0.818182 15:-0.789137 16:0.315971 17:0.315123 18:-0.771429 19:0.818182 20:0.0967742 21:-0.818182 22:-1 
0 0 0 0 1 0 0 0 1 0 0 0 0 0 0 1:-0.428571 2:-0.555556 3:-1 5:-0.6 6:-1 7:-0.4 8:-0.818182 9:-0.757576 10:-1 11:-0.833333 12:-0.452632 13:-0.454545 14:-0.0909091 15:-0.821086 16:-0.0673219 17:-0.0552965 18:-0.771429 19:0.636364 20:0.0322581 21:0.636364 
1 0 1 1 1 0 0 0 1 0 0 0 0 0 0 1:-1 2:-0.481481 3:-1 5:-0.6 6:1 7:-0.4 8:-0.69697 9:-0.757576 10:-1 11:-0.833333 12:-0.115789 13:-0.584416 14:-0.0909091 15:-0.392971 16:0.404423 17:0.156562 18:-0.771429 19:-0.454545 20:0.741935 21:-0.454545 22:0.733333 
1 0 0 0 1 1 1 1 0 1 0 0 1 0.7617849770562007 0 1:-0.142857 2:0.111111 3:-1 5:-0.6 6:1 7:-0.4 8:-0.737374 9:-0.878788 10:-1 11:-0.833333 12:-0.578947 13:-0.0909091 14:-0.272727 15:0.15016 16:0.186241 17:0.196536 18:-0.771429 19:0.454545 20:-0.612903 21:0.454545 22:-1 
1 0 1 0 1 0 0 0 0 0 0 0 0 0 0 1:-0.619048 2:-0.703704 3:-1 5:-0.6 6:-1 7:-0.4 8:0.818182 9:-0.757576 10:-1 11:-0.833333 12:-0.642105 13:-0.688312 14:-0.0909091 15:-0.865815 16:-0.191155 17:-0.152565 18:-0.771429 19:-0.0909091 20:0.16129 21:-0.0909091 22:-0.0666667 
1 0 0 0 0 0 1 0.300441486869259 0 1 0 0 0 0 0.0107977443513907 1:0.619048 2:0.259259 3:-1 5:-0.6 6:-1 7:-0.4 8:-0.777778 9:-0.757576 10:-1 11:-0.833333 12:-0.705263 13:0.194805 14:-0.818182 15:-0.482428 16:-0.239312 17:-0.195203 18:-0.771429 19:0.818182 20:-0.483871 21:-1 22:-0.0666667 
1 0 0 1 1 0 0 0 0 0 0 0 0 0 0 1:-0.904762 2:-0.703704 3:-1 5:-0.6 6:-1 7:-0.4 8:-0.757576 9:-0.878788 10:-1 11:-0.833333 12:-0.178947 13:-0.688312 14:-0.0909091 15:-0.105431 16:0.187224 17:0.193871 18:-0.771429 19:0.0909091 20:0.741935 21:0.272727 22:-1 
1 0 0 1 1 0 0 0 1 1 0 0 0.5475737336725369 0 0.2173366517351566 1:-0.904762 2:-0.481481 3:-1 5:-0.6 6:-1 7:-0.4 8:-0.818182 9:-0.757576 10:-1 11:-0.833333 12:-0.663158 13:-0.506494 14:-0.0909091 15:-0.833866 16:0.833907 17:0.850766 18:-0.771429 19:0.272727 20:0.548387 21:0.454545 22:-1 
0 0 0 0 0 0 0 0 0.6211292964678917 0 0 0 0 0 0 1:0.52381 2:-0.259259 3:-1 5:-0.6 6:-1 7:-0.4 8:-0.79798 9:-0.757576 10:-1 11:-0.833333 12:-0.221053 13:-0.0909091 14:-0.272727 15:0.175719 16:0.82801 17:0.845436 18:-0.771429 19:0.272727 20:-0.870968 21:0.0909091 22:-0.0666667 
1 0 0 0 0 0 0 0 0 0 1 0 0 0 0 1:0.52381 2:0.111111 3:-1 5:-0.6 6:-1 7:-0.4 8:-0.717172 9:-0.757576 10:-1 11:-0.833333 12:-0.663158 13:-0.116883 14:-0.818182 15:-0.252396 16:-0.368059 17:-0.80946 18:-0.771429 19:0.818182 20:0.225806 21:0.818182 22:-0.0666667 
0 0 0.5590945685209854 0 0 0 0 0 0 0 0 0 0 0 0 1:-0.238095 2:-0.407407 3:-1 5:-0.6 6:-1 7:-0.4 8:-0.838384 9:-0.757576 10:-1 11:-0.833333 12:-0.684211 13:-0.116883 14:-0.818182 15:-0.680511 16:0.612776 17:0.617588 18:-0.771429 19:-0.0909091 20:0.483871 21:0.0909091 22:-0.0666667 
1 0 0 0 1 0 1 0 1 1 0 0 1 0 0 1:-0.428571 2:-0.555556 3:-1 5:-0.6 6:1 7:-0.4 8:-0.757576 9:-0.757576 10:-1 11:-0.833333 12:-0.6 13:-0.454545 14:-0.0909091 15:-0.821086 16:-0.0673219 17:-0.0552965 18:-0.771429 19:-0.0909091 20:-0.483871 21:-0.0909091 22:-0.533333 
0 1 1 0 0 0 0 0 0 0 0 0 0 0 0 1:0.52381 2:-0.703704 3:-1 5:-0.6 6:-1 7:-0.4 8:-0.69697 9:-0.757576 10:-1 11:-0.833333 12:-0.6 13:-0.350649 14:-0.818182 15:-0.789137 16:-0.541032 17:-0.521652 18:-0.771429 19:0.454545 20:-0.0322581 21:0.454545 22:-0.0666667 
1 0 1 1 1 1 1 1 1 1 1 0 1 0 0 1:-0.142857 2:-0.259259 3:-1 5:-0.6 6:1 7:-0.4 8:-0.757576 9:-0.757576 10:-1 11:-0.833333 12:-0.6 13:-0.688312 14:-0.0909091 15:-0.865815 16:-0.465356 17:-0.596269 18:-0.771429 19:-0.636364 20:-0.870968 21:-0.636364 22:-0.0666667 
1 0 1 0 1 0 0.4807400368761198 0.2909517603300594 0 0 0 0 0 0 0 1:-0.142857 2:-0.703704 3:-1 5:-0.6 6:-1 7:-0.4 8:1 9:-0.757576 10:-1 11:-0.833333 12:-0.663158 13:-0.87013 14:-0.272727 15:-0.667732 16:-0.512531 17:-0.484344 18:-0.771429 19:0.454545 20:0.806452 21:0.636364 22:-1 
1 0 0 0 0 0 0 0 0 0 0 1 0 0 0 1:-0.52381 2:-0.555556 3:-1 5:-0.6 6:-1 7:-0.4 8:-0.757576 9:-0.757576 10:-1 11:-0.833333 12:-0.663158 13:-0.116883 14:-0.818182 15:-0.680511 16:-0.676658 17:-0.657562 18:-0.542857 19:0.454545 20:0.16129 21:0.454545 22:0.133333 
1 0 1 1 1 0 0 0 1 0 0 0 0 0 0 1:-0.904762 2:-0.703704 3:-1 5:-0.6 6:-1 7:-0.4 8:-0.818182 9:-0.878788 10:-1 11:-0.833333 12:-0.663158 13:-0.688312 14:-0.0909091 15:-0.105431 16:0.187224 17:0.193871 18:-0.771429 19:-1 20:0.0322581 21:-1 22:-0.0666667 
1 0 0 0 0 0 0 0 0 0 0 0 0 0 0 1:-0.428571 2:-0.555556 3:-1 5:-0.6 6:-1 7:-0.4 8:0.818182 9:-0.757576 10:-1 11:-0.833333 12:-0.642105 13:-0.0909091 14:-0.272727 15:0.476038 16:-0.0712531 17:-0.0579614 18:-0.771429 19:0.0909091 20:-0.677419 21:0.0909091 22:-1 
1 0 0 0 0 0 1 1 0 1 0 0 1 0 0 1:0.52381 2:-0.259259 3:-1 5:-0.6 6:1 7:-0.4 8:-0.79798 9:-0.757576 10:-1 11:-0.833333 12:-0.621053 13:-0.0909091 14:-0.272727 15:0.207668 16:0.756265 17:0.768155 18:-0.771429 19:0.818182 20:0.419355 21:-0.454545 22:-0.0666667 
1 0 0 0 0 0 0 0 0 0 0 0 0 0 0 1:0.904762 2:-0.555556 3:-1 5:-0.6 6:1 7:-0.4 8:-0.757576 9:-0.757576 10:-1 11:-0.833333 12:-0.178947 13:-0.116883 14:-0.818182 15:-0.680511 16:0.850614 17:0.865423 18:-0.771429 19:0.454545 20:-0.16129 21:0.454545 22:-0.0666667 
1 1 1 0 1 0 0 0.4754116434413385 0 0 1 0 0 0 0 1:-0.142857 2:-0.259259 3:-1 5:-0.6 6:-1 7:-0.4 8:-0.777778 9:-0.757576 10:-1 11:-0.833333 12:-0.621053 13:-0.948052 14:-0.818182 15:-0.00319489 16:-0.385749 17:-0.349767 18:-0.771429 19:-0.454545 20:-0.677419 21:-0.454545 22:-0.0666667 
1 1 1 0 1 0 0 0 0 0 0 0 0 0 0 1:-0.428571 2:-0.703704 3:-1 5:-0.6 6:-1 7:-0.4 8:-0.838384 9:-0.757576 10:-1 11:-0.833333 12:-0.263158 13:-0.350649 14:-0.818182 15:-0.789137 16:-0.740541 17:-0.730846 18:-0.771429 19:-0.272727 20:0.483871 21:-0.0909091 22:-1 
1 0 0 1 0 0 0 0.3855024433719709 1 1 0 0 1 0 0 1:-0.904762 2:0.111111 3:-1 5:-0.6 6:-1 7:-0.4 8:-0.858586 9:-0.878788 10:-1 11:-0.833333 12:-0.305263 13:0.61039 14:-0.0909091 15:-0.0607029 16:0.618673 17:0.625583 18:-0.771429 19:-0.818182 20:-0.612903 21:0.818182 22:-0.0666667 
1 0 1 1 1 0 0 0 1 0.872048607654362 0 0 1 0 0 1:-0.142857 2:-0.703704 3:-1 5:-0.6 6:-1 7:-0.4 8:-0.858586 9:-0.757576 10:-1 11:-0.833333 12:-0.684211 13:-0.688312 14:-0.0909091 15:-0.865815 16:-0.418182 17:-0.387075 18:-0.771429 19:0.454545 20:-0.548387 21:-0.636364 22:-0.0666667 
1 0 0 0 1 0 1 0.8052038827987833 0 1 0 0 0 1 0 1:-0.142857 2:0.111111 3:-1 5:-0.6 6:1 7:-0.4 8:-0.737374 9:-0.757576 10:-1 11:-0.833333 12:-0.578947 13:-0.116883 14:-0.818182 15:-0.252396 16:0.831941 17:0.848101 18:-0.771429 19:-0.636364 20:-0.483871 21:-0.636364 22:-0.0666667 
1 0 0 0 0 0 0 0.724368478127471 0 0 0 0 0 0 0 1:0.619048 2:0.259259 3:-1 5:-0.6 6:1 7:-0.4 8:-0.838384 9:-0.757576 10:-0.6 11:-0.666667 12:-0.0526316 13:0.194805 14:-0.818182 15:-0.482428 16:-0.239312 17:-0.195203 18:-0.771429 19:-0.272727 20:-0.0967742 21:-0.272727 22:-0.0666667 
0 0 0 1 0 0 0 0 1 0 0 0 0 0 0 1:-0.428571 2:-0.555556 3:-1 5:-0.6 6:-1 7:-0.4 8:-0.838384 9:-0.757576 10:-1 11:-0.833333 12:-0.263158 13:0.61039 14:-0.0909091 15:-0.0607029 16:-0.345455 17:-0.308461 18:-0.771429 19:1 20:-0.677419 21:1 22:-0.0666667 
1 0 0 0 0 0 0 0 0 0 0 0 0 1 0 1:-0.428571 2:-0.555556 3:-1 5:-0.6 6:1 7:-0.4 8:-0.69697 9:-0.757576 10:-1 11:-0.833333 12:-0.642105 13:0.662338 14:-0.818182 15:0.482428 16:-0.0771499 17:-0.065956 18:-0.771429 19:0.454545 20:-0.0322581 21:0.454545 22:-0.0666667 
1 0 0.1776736060800376 0 1 0 1 0 0 0 0 0 0 0 0 1:-0.904762 2:0.111111 3:-1 5:-0.6 6:1 7:-0.4 8:-0.69697 9:-0.757576 10:-1 11:-0.833333 12:-0.326316 13:-0.220779 14:-0.636364 15:-0.738019 16:0.561671 17:-0.28048 18:-0.771429 19:-0.272727 20:0.677419 21:0.454545 22:-0.0666667 
1 0 0 0 0 0 0 0 0 0 0 0 0 1 1 1:-1 2:-0.481481 3:-1 5:-0.6 6:-1 7:-0.4 8:-0.818182 9:-0.757576 10:-1 11:-0.833333 12:-0.642105 13:0.662338 14:-0.818182 15:0.15655 16:-0.509582 17:-0.480346 18:-0.771429 19:1 20:-0.0967742 21:-1 22:-0.0666667 
1 0 1 0 0.8345327539763456 0 0 0 0 1 0 0 0 0 0 1:-0.52381 2:-0.703704 3:-1 5:-0.6 6:-1 7:-0.4 8:-0.79798 9:-0.878788 10:-1 11:-0.833333 12:-0.642105 13:-0.220779 14:-0.636364 15:-0.738019 16:0.310074 17:0.248501 18:-0.771429 19:0.818182 20:-0.870968 21:0.818182 22:-1 
1 0 0 1 1 0.4519829666758427 0 1 1 1 1 0 0.06488562657349231 0 0 1:-1 2:-0.481481 3:-1 5:-0.6 6:1 7:-0.4 8:-0.777778 9:-0.878788 10:-1 11:-0.833333 12:-0.621053 13:-0.584416 14:-0.0909091 15:0.853035 16:0.690418 17:0.7002 18:-0.771429 19:-0.818182 20:-0.548387 21:-0.818182 22:-0.0666667 
1 0 0 0 0 0 0 0 0 0 0 0 0 0 0 1:-0.238095 2:-0.407407 3:-1 5:-0.6 6:-1 7:-0.4 8:-0.717172 9:-0.757576 10:-1 11:-0.833333 12:-0.663158 13:-0.116883 14:-0.818182 15:-0.680511 16:0.612776 17:0.617588 18:-0.771429 19:0.818182 20:0.354839 21:1 22:-0.733333 
0.141858229951021 0 0 0 0 0 0 0 0 0 0 0 0 0.7028796775019036 0 1:-0.428571 2:-0.259259 3:-1 5:-0.6 6:-1 7:-0.4 8:-0.737374 9:-0.878788 10:-1 11:-0.833333 12:-0.684211 13:0.662338 14:-0.818182 15:0.15655 16:0.842752 17:-0.115256 18:-0.771429 19:-0.636364 20:0.677419 21:-0.454545 22:-1 
0 0 1 0 0 0 0 0 0 0 0 0 0 0 0.3736562430606096 1:-0.52381 2:-0.703704 3:-1 5:-0.6 6:-1 7:-0.4 8:0.979798 9:-0.757576 10:-1 11:-0.833333 12:-0.473684 13:-0.220779 14:-0.636364 15:-0.738019 16:0.310074 17:0.248501 18:-0.771429 19:-0.0909091 20:-0.870968 21:-0.0909091 22:-1 
1 0 0 0 1 0 0 0 0 0.4212489804786902 0 0 0 1 0 1:-1 2:-0.481481 3:-1 5:-0.6 6:1 7:-0.4 8:-0.737374 9:-0.878788 10:-1 11:-0.833333 12:-0.578947 13:0.324675 14:-0.818182 15:-0.399361 16:0.752334 17:0.76549 18:-0.771429 19:-0.272727 20:0.290323 21:-0.272727 22:0.266667 
1 0 0 1 1 0 1 0 1 0 0 0 0 0 0 1:-0.142857 2:-0.259259 3:-1 5:-0.6 6:1 7:-0.4 8:-0.757576 9:-0.757576 10:-1 11:-0.833333 12:-0.178947 13:-0.688312 14:-0.0909091 15:-0.865815 16:-0.465356 17:-0.596269 18:-0.771429 19:0.272727 20:0.483871 21:0.454545 22:-1 
1 1 1 0 1 0 0 1 0 0 1 0 0 0 0 1:-0.142857 2:-0.259259 3:-1 5:-0.6 6:-1 7:-0.4 8:0.838384 9:-0.757576 10:-1 11:-0.833333 12:-0.621053 13:-0.948052 14:-0.818182 15:-0.00319489 16:-0.385749 17:-0.349767 18:-0.771429 19:-0.272727 20:-0.419355 21:-0.272727 22:-1 
0 0 0 0 0 0 0 0 1 1 0 0 0 0 0 1:0.52381 2:-0.259259 3:-1 5:-0.6 6:-1 7:-0.4 8:-0.858586 9:-0.757576 10:-1 11:-0.833333 12:-0.705263 13:-0.0909091 14:-0.272727 15:0.175719 16:0.82801 17:0.845436 18:-0.771429 19:-0.636364 20:-0.0322581 21:-0.636364 22:-0.0666667 
1 0 0 1 1 0 0 0 0 0 0 0 0 0 0 1:-1 2:-0.481481 3:-1 5:-0.6 6:-1 7:-0.4 8:-0.919192 9:-0.757576 10:-1 11:-0.833333 12:-0.347368 13:-0.688312 14:-0.0909091 15:0.271565 16:-0.427027 17:-0.397735 18:-0.771429 19:0.272727 20:-0.677419 21:-0.272727 22:-1 
1 0 0 1 1 0 0 0 1 1 0 0 1 0 0 1:-0.428571 2:-0.555556 3:-1 5:-0.6 6:-1 7:-0.4 8:-0.858586 9:-0.757576 10:-1 11:-0.833333 12:-0.705263 13:-0.454545 14:-0.0909091 15:-0.821086 16:-0.0663391 17:-0.0552965 18:-0.771429 19:-0.454545 20:-0.16129 21:-0.454545 22:-0.2 
0 0 0 0 0 0 0 1 0 0 0 0 0 0 0 1:0.52381 2:0.111111 3:-1 5:-0.6 6:-1 7:-0.4 8:-0.79798 9:-0.757576 10:-1 11:-0.833333 12:-0.642105 13:0.662338 14:-0.818182 15:0.0670927 16:-0.57543 17:-0.553631 18:-0.771429 19:-0.636364 20:-0.419355 21:-0.636364 22:-0.0666667 
0 0 0 0 0 0 0 0 0 0 0 0 1 0 0 1:-0.428571 2:-0.555556 3:-1 5:-0.6 6:-1 7:-0.4 8:-0.717172 9:-0.757576 10:-1 11:-0.833333 12:-0.705263 13:0.61039 14:-0.0909091 15:-0.0607029 16:-0.344472 17:-0.308461 18:-0.771429 19:0.272727 20:0.290323 21:0.272727 22:0.133333 
1 0 0 0 0 0 0 0 0 0 0 0 0 1 0 1:-0.428571 2:-0.259259 3:-1 5:-0.6 6:1 7:-0.4 8:-0.737374 9:-0.878788 10:-1 11:-0.833333 12:-0.157895 13:0.662338 14:-0.818182 15:0.15655 16:0.842752 17:-0.115256 18:-0.771429 19:-0.636364 20:0.677419 21:-0.454545 22:-1 
1 0 1 0 1 0 0 0 0 0 0 0 0 0 0 1:-0.428571 2:-0.555556 3:-1 5:-0.6 6:-1 7:-0.4 8:-0.858586 9:-0.757576 10:-1 11:-0.833333 12:-0.284211 13:-0.61039 14:-0.818182 15:-0.341853 16:0.659951 17:0.662891 18:-0.771429 19:0.0909091 20:0.935484 21:0.272727 22:-1 
1 0 0 1 1 0 1 0 1 1 0 1 1 0 0 1:-0.142857 2:-0.259259 3:-1 5:-0.6 6:-1 7:-0.4 8:-1 9:-0.757576 10:-1 11:-0.833333 12:-0.642105 13:-0.688312 14:-0.0909091 15:-0.865815 16:-0.465356 17:-0.596269 18:-0.771429 19:-0.454545 20:-0.0967742 21:-0.454545 22:-0.0666667 
1 0 0 0 1 0 0 0 0 0 0 0 0 0 0 1:-0.904762 2:0.111111 3:-1 5:-0.6 6:1 7:-0.4 8:-0.69697 9:-0.757576 10:-1 11:-0.833333 12:-0.115789 13:-0.116883 14:-0.818182 15:-0.680511 16:-0.576413 17:-0.554963 18:-0.771429 19:-0.0909091 20:0.483871 21:-0.0909091 22:0.466667 
1 1 0.7938426230390775 0 0 0 0 0 1 0 1 0.08356061944223774 0 0 0 1:0.904762 2:-0.62963 3:-1 5:-0.6 6:1 7:-0.4 8:-0.919192 9:-0.878788 10:-0.6 11:-0.666667 12:-0.136842 13:-0.116883 14:-0.818182 15:-0.680511 16:0.849631 17:0.865423 18:-0.771429 19:-0.818182 20:-0.225806 21:-0.818182 22:-0.266667 
1 0 0 0 0 0 0 0 0 0 0 0 0 1 0 1:-0.904762 2:0.333333 3:-1 5:-0.6 6:-1 7:-0.4 8:-0.79798 9:-0.757576 10:-1 11:-0.833333 12:-0.642105 13:0.662338 14:-0.818182 15:0.482428 16:0.733661 17:0.745503 18:-0.771429 19:-0.818182 20:0.225806 21:-0.636364 22:-1 
1 1 1 0 1 0 0 0 0 0 0 1 0 0 0 1:-0.904762 2:-0.703704 3:-1 5:-0.6 6:-1 7:-0.4 8:-0.838384 9:-0.757576 10:-1 11:-0.833333 12:-0.684211 13:-0.948052 14:-0.818182 15:-0.00319489 16:0.675676 17:0.682878 18:-0.771429 19:-0.272727 20:0.419355 21:0.272727 22:0.466667 
1 0 0 0 0 0 0 0 0 0 0 0 0 0 0 1:-0.142857 2:-0.703704 3:-1 5:-0.6 6:1 7:-0.4 8:-0.69697 9:-0.757576 10:-1 11:-0.833333 12:-0.642105 13:-0.0909091 14:-0.272727 15:0.297125 16:-0.410319 17:-0.379081 18:-0.771429 19:0.0909091 20:0.290323 21:0.0909091 22:0.266667 
1 0 0 0 1 0 0 0 0 0 0 0 0 0 0 1:-0.52381 2:-0.555556 3:-1 5:-0.6 6:-1 7:-0.4 8:-0.757576 9:-0.757576 10:-1 11:-0.833333 12:-0.6 13:-0.116883 14:-0.818182 15:-0.680511 16:-0.496806 17:-0.467022 18:-0.771429 19:0.0909091 20:1 21:0.272727 22:-1 
1 1 1 0 0 0 0.5380038168607785 0 0.006822140389984555 0 1 0.7059407853904343 0 0 0.5459775995890378 1:0.904762 2:-0.555556 3:-1 5:-0.6 6:-1 7:-0.4 8:-0.757576 9:-0.757576 10:-1 11:-0.833333 12:-0.684211 13:-0.116883 14:-0.818182 15:-0.680511 16:0.850614 17:0.865423 18:-0.771429 19:0.454545 20:-0.16129 21:-1 22:1 
1 0 0 1 1 0 0 0 1 1 0 0 1 0 0 1:-0.428571 2:-0.555556 3:-1 5:-0.6 6:-1 7:-0.4 8:-0.757576 9:-0.757576 10:-1 11:-0.833333 12:-0.705263 13:-0.454545 14:-0.0909091 15:-0.821086 16:-0.0663391 17:-0.0552965 18:-0.771429 19:-0.818182 20:0.741935 21:-0.636364 22:-0.0666667 
0 0 1 0 1 0 0 0 1 0 0 1 0 0 0 1:-0.428571 2:-0.555556 3:-1 5:-0.6 6:-1 7:-0.4 8:-0.838384 9:-0.757576 10:-1 11:-0.833333 12:-0.263158 13:-0.844156 14:-0.0909091 15:-0.955272 16:-0.0014742 17:-0.00333111 18:-0.771429 19:-0.636364 20:-0.0967742 21:-0.636364 22:-0.0666667 
0 0 0 0 0 0 0 0 1 0 0 0 0 0 0 1:0.52381 2:-0.259259 3:-1 5:-0.6 6:-1 7:-0.4 8:-0.818182 9:-0.757576 10:-1 11:-0.833333 12:-0.242105 13:-0.0909091 14:-0.272727 15:0.175719 16:0.82801 17:0.845436 18:-0.771429 19:-1 20:0.0322581 21:-0.818182 22:-1 
1 0.3053234600787751 1 0 1 0 1 0 0 1 0 0 0 0 0 1:-0.142857 2:0.111111 3:-1 5:-0.6 6:1 7:-0.4 8:-0.69697 9:-0.757576 10:-1 11:-0.833333 12:-0.536842 13:-0.350649 14:-0.818182 15:-0.789137 16:-0.338575 17:-0.300466 18:-0.771429 19:0.272727 20:-0.225806 21:0.272727 22:-0.0666667 
1 0 0 0 0 0 0 0 0 0 0 0 0 0 0 1:0.904762 2:-0.555556 3:-1 5:-0.6 6:-1 7:-0.4 8:-0.69697 9:-0.757576 10:-1 11:-0.833333 12:-0.6 13:-0.116883 14:-0.818182 15:-0.680511 16:0.850614 17:0.865423 18:-0.771429 19:-0.818182 20:-0.354839 21:-0.818182 22:-0.4 
0 0 0 1 0 0 0 0 0 0 0 0 0 0 0 1:-0.428571 2:-0.555556 3:-1 5:-0.6 6:-1 7:-0.4 8:-0.737374 9:-0.757576 10:-1 11:-0.833333 12:-0.642105 13:0.61039 14:-0.0909091 15:-0.0607029 16:-0.344472 17:-0.308461 18:-0.771429 19:0.818182 20:0.354839 21:0.818182 22:-0.0666667 
1 0 0 1 1 0 0 0 1 0 0 0 0 0 0 1:-0.428571 2:-0.555556 3:-1 5:-0.6 6:-1 7:-0.4 8:-0.717172 9:-0.757576 10:-1 11:-0.833333 12:-0.663158 13:-0.454545 14:-0.0909091 15:-0.821086 16:-0.0663391 17:-0.0552965 18:-0.771429 19:-0.636364 20:-0.741935 21:-0.636364 22:-0.8 
0 0 0 1 0 0 0 0 0 0 0 0 0 0 0 1:-0.52381 2:-0.555556 3:-1 5:-0.6 6:-1 7:-0.4 8:0.979798 9:-0.757576 10:-1 11:-0.833333 12:1 13:-0.454545 14:-0.0909091 15:0.169329 16:-0.105651 17:-0.0939374 18:-0.771429 19:-0.636364 20:-0.806452 21:-0.636364 22:-1 
1 1 1 0 1 0 0 0 0 0 0 0 0 0 0 1:-0.904762 2:-0.703704 3:-1 5:-0.6 6:-1 7:-0.4 8:-0.858586 9:-0.757576 10:-1 11:-0.833333 12:-0.705263 13:-0.948052 14:-0.818182 15:-0.00319489 16:0.675676 17:0.682878 18:-0.771429 19:0.272727 20:-0.16129 21:0.272727 22:-0.333333 
0 0 0 0 0 0 0.2291114311336193 0 0 0 0 0 0 0 0 1:0.904762 2:0.333333 3:-1 5:-0.6 6:-1 7:-0.4 8:0.858586 9:-0.757576 10:-1 11:-0.833333 12:-0.6 13:0.168831 14:-0.818182 15:-0.488818 16:-0.246192 17:-0.203198 18:-0.771429 19:0.454545 20:-0.0322581 21:0.454545 22:-0.0666667 
0 0 0 0 0 0 0 0 1 0 0 0 1 0 0 1:0.52381 2:-0.703704 3:-1 5:-0.6 6:-1 7:-0.4 8:-0.777778 9:-0.757576 10:-1 11:-0.833333 12:-0.221053 13:-0.584416 14:-0.0909091 15:-0.853035 16:0.74742 17:0.76016 18:-0.771429 19:0.0909091 20:0.870968 21:-0.0909091 22:-1 
1 0 1 0 1 0 0 0 0 0 0 0.3759187870537021 0 1 0 1:-0.904762 2:-0.703704 3:-1 5:-0.6 6:1 7:-0.4 8:-0.717172 9:-0.757576 10:-1 11:-0.833333 12:-0.663158 13:-0.948052 14:-0.818182 15:-0.00319489 16:0.675676 17:0.682878 18:-0.771429 19:-1 20:0.0322581 21:-0.818182 22:-1 
1 0 0 0 0 0 0 1 0 0.440755957055471 0 0 0 0 0 1:-0.428571 2:-0.555556 3:-1 5:-0.6 6:1 7:-0.4 8:-0.777778 9:-0.757576 10:-1 11:-0.833333 12:-0.621053 13:-0.0909091 14:-0.272727 15:0.207668 16:0.450614 17:0.453698 18:-0.771429 19:-0.636364 20:1 21:-0.454545 22:-1 
1 1 1 0 1 0 0 0 0 0 1 0 0 0 0 1:-1 2:-0.481481 3:-1 5:-0.6 6:-1 7:-0.4 8:-0.858586 9:-0.878788 10:-1 11:-0.833333 12:-0.705263 13:-0.948052 14:-0.818182 15:-0.527157 16:-0.0643735 17:-0.053964 18:-1 19:0.454545 20:0.741935 21:-0.0909091 22:-0.0666667 
0 0 0 1 0 0 0 0 0 0 0 0 0 0 0 1:-0.428571 2:-0.555556 3:-1 5:-0.6 6:-1 7:-0.4 8:-0.757576 9:-0.757576 10:-1 11:-0.833333 12:-0.6 13:0.61039 14:-0.0909091 15:-0.0607029 16:-0.344472 17:-0.308461 18:-0.771429 19:1 20:-0.16129 21:1 22:-0.0666667 
0 1 1 0 1 0 0 0 0 0 0 0 0 0 0 1:-0.142857 2:-0.703704 3:-1 5:-0.6 6:-1 7:-0.4 8:-0.919192 9:-0.878788 10:-1 11:-0.833333 12:-0.347368 13:-0.558442 14:-0.818182 15:-0.533546 16:0.0358722 17:0.0393071 18:-0.771429 19:-0.0909091 20:-0.870968 21:-0.0909091 22:-1 
0 0 0 0 0 0 0 0 0 1 0 0 0 0.6867358600745699 0 1:-0.142857 2:0.111111 3:-1 5:-0.6 6:-1 7:-0.4 8:-0.757576 9:-0.878788 10:-1 11:-0.833333 12:-0.705263 13:0.168831 14:-0.818182 15:-0.201278 16:0.90172 17:0.909394 18:-0.771429 19:-0.272727 20:-0.806452 21:-0.272727 22:-1 
1 0 0 0 0 0 0 0 0 0 0 0 0 1 0 1:-0.428571 2:-0.555556 3:-1 5:-0.6 6:1 7:-0.4 8:-0.69697 9:-0.757576 10:-1 11:-0.833333 12:-0.536842 13:0.662338 14:-0.818182 15:0.482428 16:-0.0771499 17:-0.065956 18:-0.771429 19:0.454545 20:-0.0322581 21:0.454545 22:-0.0666667 
1 1 1 0 1 0 0 0 0 0 0 0 0 0 0 1:-0.142857 2:-0.703704 3:-1 5:-0.6 6:-1 7:-0.4 8:-0.79798 9:-0.878788 10:-1 11:-0.833333 12:-0.642105 13:-0.558442 14:-0.818182 15:-0.533546 16:0.0358722 17:0.0393071 18:-0.771429 19:0.0909091 20:-0.935484 21:0.636364 22:-1 
1 1 1 0 1 0 0 0 0 0 0 0 0 0 0 1:-0.904762 2:-0.703704 3:-1 5:-0.6 6:-1 7:-0.4 8:-0.79798 9:-0.757576 10:-1 11:-0.833333 12:-0.221053 13:-0.948052 14:-0.818182 15:-0.00319489 16:0.675676 17:0.682878 18:-0.771429 19:-0.818182 20:-0.483871 21:-0.818182 22:-0.466667 
0 0 0 0 0 0 0.9873308979004599 0.2941377507278237 0 0 0 0 0 0 0 1:0.619048 2:0.259259 3:-1 5:-0.6 6:-1 7:-0.4 8:-0.717172 9:-0.757576 10:-1 11:-0.833333 12:-0.663158 13:0.194805 14:-0.818182 15:-0.482428 16:-0.239312 17:-0.195203 18:-0.771429 19:-0.636364 20:-0.806452 21:-0.636364 22:-0.0666667 
0.8697043198048949 0 0 0 0 0 0 0 0 0 0 0 0 0 0 1:0.52381 2:0.111111 3:-1 5:-0.6 6:-1 7:-0.4 8:-0.838384 9:-0.757576 10:-1 11:-0.833333 12:-0.684211 13:0.662338 14:-0.818182 15:0.0670927 16:-0.57543 17:-0.553631 18:-0.771429 19:-0.272727 20:0.419355 21:-0.0909091 22:-1 
0 0 0 1 0 0 0 0 0 0 0 0 0 0 0 1:-0.428571 2:-0.555556 3:-1 5:-0.6 6:-1 7:-0.4 8:-0.717172 9:-0.757576 10:-1 11:-0.833333 12:-0.621053 13:0.61039 14:-0.0909091 15:-0.0607029 16:-0.344472 17:-0.308461 18:-0.771429 19:-0.636364 20:0.225806 21:-0.636364 22:-0.0666667 
1 0 0 0 0 0 0 0 0 0 0 0 0 0 0 1:-0.142857 2:-0.481481 3:-1 5:-0.6 6:-1 7:-0.4 8:-0.737374 9:-0.878788 10:-1 11:-0.833333 12:-0.621053 13:-0.116883 14:-0.818182 15:0.105431 16:0.15086 17:0.16056 18:-0.771429 19:-1 20:-0.290323 21:0.818182 22:-0.0666667 
0.4498564522160555 0 0 0 0 0 0 0.8529385685878847 0 0 0 0 0 0 0 1:-0.428571 2:-0.555556 3:-1 5:-0.6 6:-1 7:-0.4 8:-0.919192 9:-0.878788 10:-1 11:-0.833333 12:-0.663158 13:0.168831 14:-0.818182 15:-0.201278 16:-0.728747 17:-0.717522 18:-0.771429 19:-0.636364 20:-0.935484 21:-0.636364 22:-1 
0 1 1 0 1 0 0 0 0 0 0 0 0 0 0 1:-0.142857 2:-0.703704 3:-1 5:-0.6 6:-1 7:-0.4 8:-0.757576 9:-0.878788 10:-1 11:-0.833333 12:-0.178947 13:-0.558442 14:-0.818182 15:-0.533546 16:0.0358722 17:0.0393071 18:-0.771429 19:-0.636364 20:-0.0322581 21:-0.636364 22:-0.0666667 
1 0 0 0 0 0 0 0 0 0 0 0 0 1 0 1:-0.142857 2:0.111111 3:-1 5:-0.6 6:1 7:-0.4 8:-0.69697 9:-0.757576 10:-1 11:-0.833333 12:-0.136842 13:0.662338 14:-0.818182 15:0.0670927 16:-0.565602 17:-0.545636 18:-0.771429 19:-0.454545 20:0.548387 21:-0.272727 22:-0.0666667 
1 0 0 1 1 0 0 0 0 0 0 0 1 0 1 1:-0.142857 2:-0.703704 3:-1 5:-0.6 6:-1 7:-0.4 8:0.959596 9:-0.757576 10:-1 11:-0.833333 12:-0.705263 13:-0.688312 14:-0.0909091 15:-0.865815 16:-0.418182 17:-0.387075 18:-0.771429 19:0.636364 20:-0.354839 21:-0.272727 22:-1 
1 0 1 1 1 0 0 0 1 1 0 0 0 0 0 1:-1 2:-0.481481 3:-1 5:-0.6 6:1 7:-0.4 8:-0.69697 9:-0.757576 10:-1 11:-0.833333 12:-0.642105 13:-0.584416 14:-0.0909091 15:-0.392971 16:0.404423 17:0.156562 18:-0.771429 19:-0.454545 20:0.741935 21:-0.454545 22:0.733333 
1 0 0 1 0 0 0 0 0 0 0 0 0 0 0 1:-0.142857 2:-0.703704 3:-1 5:-0.6 6:-1 7:-0.4 8:-0.717172 9:-0.878788 10:-1 11:-0.833333 12:-0.663158 13:-0.688312 14:-0.0909091 15:0.271565 16:0.47715 17:0.480346 18:-0.771429 19:-0.636364 20:-0.612903 21:-0.636364 22:-0.0666667 
0 0 0 1 0 0 0 0 1 0 0 0 1 0 0 1:-0.428571 2:-0.555556 3:-1 5:-0.6 6:1 7:-0.4 8:-0.717172 9:-0.757576 10:-1 11:-0.833333 12:-0.136842 13:0.61039 14:-0.0909091 15:-0.0607029 16:-0.345455 17:-0.308461 18:-0.771429 19:-0.272727 20:-0.483871 21:-0.272727 22:-0.0666667 
1 0 0 0 0 0 0 0 0 1 1 0 0 0 0 1:0.52381 2:0.111111 3:-1 5:-0.6 6:-1 7:-0.4 8:-0.818182 9:-0.878788 10:-1 11:-0.833333 12:-0.663158 13:-0.116883 14:-0.818182 15:-0.252396 16:-0.745455 17:-0.734843 18:-0.771429 19:0.818182 20:0.225806 21:0.818182 22:-0.0666667 
1 1 1 0 1 0 0 0 0 0 1 1 0 0 0 1:-0.142857 2:-0.703704 3:-1 5:-0.6 6:-1 7:-0.4 8:-0.79798 9:-0.757576 10:-1 11:-0.833333 12:-0.642105 13:-0.87013 14:-0.272727 15:-0.667732 16:-0.512531 17:-0.484344 18:-0.771429 19:0.454545 20:0.0322581 21:0.454545 22:-0.0666667 
1 0 1 1 1 0 0 0.01568358892005661 0.2450706480171654 0 0 0 0 0 0 1:-1 2:-0.481481 3:-1 5:-0.6 6:1 7:-0.4 8:-0.69697 9:-0.757576 10:-1 11:-0.833333 12:-0.536842 13:-0.844156 14:-0.0909091 15:0.699681 16:0.436855 17:0.440373 18:-0.771429 19:0.272727 20:-0.806452 21:0.272727 22:-0.0666667 
1 0 0 0 0 0 0 0 0 0 0.9653080902686207 0 0 0 0.8472747814646725 1:-0.428571 2:-0.703704 3:-1 5:-0.6 6:-1 7:-0.4 8:-0.737374 9:-0.757576 10:-1 11:-0.833333 12:-0.705263 13:-0.116883 14:-0.818182 15:-0.680511 16:-0.913514 17:-0.893404 18:-0.771429 19:0.272727 20:-0.677419 21:0.818182 22:-0.666667 
1 1 1 0 1 0 0 0 0 0 0 0 0 0 0 1:-1 2:-0.481481 3:-1 5:-0.6 6:-1 7:-0.4 8:0.979798 9:-0.878788 10:-1 11:-0.833333 12:-0.473684 13:-0.948052 14:-0.818182 15:-0.00319489 16:0.42801 17:0.431046 18:-0.771429 19:0.0909091 20:-0.0322581 21:0.0909091 22:-0.0666667 
1 1 1 0 1 0 1 0.6225915525461081 0 0 0.815198404484884 0 0 0.9486400659291859 0 1:-0.904762 2:0.111111 3:-1 5:-0.6 6:1 7:-0.4 8:-0.717172 9:-0.757576 10:-1 11:-0.833333 12:-0.621053 13:-0.948052 14:-0.818182 15:-0.527157 16:0.679607 17:0.686875 18:-0.771429 19:0.636364 20:0.806452 21:0.818182 22:-1 
1 0 1 0 1 0 0 0 0 1 0 0 0 0 0 1:-1 2:-0.481481 3:-1 5:-0.6 6:-1 7:-0.4 8:-0.757576 9:-0.878788 10:-1 11:-0.833333 12:-0.578947 13:-0.116883 14:-0.818182 15:-0.642173 16:0.931204 17:0.936043 18:-0.771429 19:1 20:0.354839 21:-1 22:-0.0666667 
1 1 1 0 1 0 0 0 0 0 0 0 0 0 0 1:-0.904762 2:0.111111 3:-1 5:-0.6 6:-1 7:-0.4 8:0.979798 9:-0.757576 10:-1 11:-0.833333 12:-0.684211 13:-0.948052 14:-0.818182 15:-0.527157 16:0.679607 17:0.686875 18:-0.771429 19:-0.272727 20:-0.290323 21:-0.272727 22:-1 
1 0 1 0 1 0 1 1 0 1 0.2034761408714791 0 0 0.1186331776263151 0.2769333890422473 1:-1 2:0.111111 3:-1 5:-0.4 6:1 7:-0.4 8:-0.69697 9:-0.818182 10:-1 11:-0.833333 12:-0.536842 13:-0.948052 14:-0.818182 15:-0.00319489 16:0.42801 17:0.431046 18:-0.771429 19:-1 20:0.935484 21:-0.818182 22:-0.0666667 
1 0 0 0 0 1 1 1 0 1 1 0 0 1 0 1:0.52381 2:0.111111 3:-1 5:-0.6 6:1 7:-0.4 8:-0.69697 9:-0.757576 10:-1 11:-0.833333 12:-0.536842 13:-0.116883 14:-0.818182 15:-0.252396 16:-0.745455 17:-0.734843 18:-0.771429 19:-0.818182 20:0.290323 21:-0.636364 22:-1 
1 0 1 0 1 0 0 0 0 0 0 0 0 0 0 1:-0.428571 2:-0.555556 3:-1 5:-0.6 6:-1 7:-0.4 8:-0.79798 9:-0.757576 10:-1 11:-0.833333 12:-0.642105 13:-0.61039 14:-0.818182 15:-0.341853 16:0.659951 17:0.662891 18:-0.771429 19:0.0909091 20:0.870968 21:0.272727 22:-1 
0.4124937291536745 0 0 1 0.2293441871063858 0 0 0 0 0 0 0 0 0 0 1:-0.428571 2:-0.555556 3:-1 5:-0.6 6:-1 7:-0.4 8:0.838384 9:-0.757576 10:-1 11:-0.833333 12:-0.410526 13:-0.584416 14:-0.0909091 15:-0.853035 16:-0.51941 17:-0.495003 18:-0.771429 19:0.818182 20:0.16129 21:0.818182 22:-0.0666667 
1 0 0 0 0 1 0 0 0 0 0 0 0 0 0 1:0.52381 2:-0.703704 3:-1 5:-0.6 6:1 7:-0.4 8:-0.717172 9:-0.757576 10:-1 11:-0.833333 12:-0.136842 13:-0.0909091 14:-0.272727 15:0.0926518 16:-0.564619 17:-0.544304 18:-0.771429 19:0.0909091 20:0.0967742 21:0.272727 22:-1 
0.2637862513722203 0 0 1 0 0 0 0.1519265282861477 0 0 0 0 1 0 1 1:-0.428571 2:-0.555556 3:-1 5:-0.6 6:-1 7:-0.4 8:0.979798 9:-0.757576 10:-1 11:-0.833333 12:-0.368421 13:0.0909091 14:-0.0909091 15:-0.386581 16:-0.822113 17:-0.798801 18:-0.771429 19:-0.0909091 20:0.612903 21:-0.0909091 22:-1 
1 0 0 1 1 0 0 0 0 0 0 0 0 0 0 1:-0.904762 2:-0.703704 3:-1 5:-0.6 6:1 7:-0.4 8:-0.69697 9:-0.757576 10:-1 11:-0.833333 12:-0.536842 13:-0.0909091 14:-0.272727 15:-0.616613 16:-0.653071 17:-0.62958 18:-0.771429 19:-0.454545 20:0.870968 21:-0.454545 22:-0.0666667 
1 0 0 1 1 0 0 0 1 0 0 0 0 0 0 1:-0.428571 2:-0.555556 3:-1 5:-0.6 6:1 7:-0.4 8:-0.757576 9:-0.757576 10:-1 11:-0.833333 12:-0.178947 13:-0.688312 14:-0.0909091 15:-0.865815 16:-0.382801 17:-0.347102 18:-0.942857 19:0.818182 20:0.290323 21:0.818182 22:-0.0666667 
1 0.6337400956017603 1 0 0 0 0 0 0 0 0 0 0 0 0 1:0.619048 2:-0.925926 3:-1 5:-0.6 6:-1 7:-0.4 8:-0.858586 9:-0.757576 10:-1 11:-0.833333 12:-0.705263 13:-0.116883 14:-0.818182 15:-0.642173 16:0.458477 17:0.461692 18:-0.771429 19:-0.636364 20:0.483871 21:-0.636364 22:0.933333 
0 0 0 0 0 0 0 0 0 1 0 0 0 0 0 1:-0.142857 2:0.111111 3:-1 5:-0.6 6:-1 7:-0.4 8:-0.757576 9:-0.878788 10:-1 11:-0.833333 12:-0.6 13:0.168831 14:-0.818182 15:-0.201278 16:0.90172 17:0.909394 18:-0.771429 19:-0.272727 20:-0.806452 21:-0.272727 22:-1 
1 0 0 0 0 0 0 0 1 0 0 0 1 0 0 1:0.52381 2:-0.703704 3:-1 5:-0.6 6:1 7:-0.4 8:-0.69697 9:-0.757576 10:-1 11:-0.833333 12:-0.115789 13:-0.584416 14:-0.0909091 15:-0.853035 16:0.74742 17:0.76016 18:-0.771429 19:-0.818182 20:0.290323 21:-0.636364 22:-1 
0 0 0 0 0 0 0 0 1 0 0 0 0 0 0 1:0.52381 2:-0.259259 3:-1 5:-0.6 6:-1 7:-0.4 8:-0.838384 9:-0.757576 10:-1 11:-0.833333 12:-0.263158 13:-0.0909091 14:-0.272727 15:0.175719 16:0.82801 17:0.845436 18:-0.771429 19:-0.818182 20:0.870968 21:-0.636364 22:-1 
1 1 1 0 1 0 0 0 0 0 0 0 0 0 0 1:-0.142857 2:0.111111 3:-1 5:-0.6 6:-1 7:-0.4 8:-0.757576 9:-0.757576 10:-1 11:-0.833333 12:-0.6 13:-0.350649 14:-0.818182 15:-0.789137 16:-0.338575 17:-0.300466 18:-0.771429 19:0.272727 20:-0.419355 21:0.272727 22:-0.0666667 
1 1 1 0 1 0 1 0 0 1 1 0 0 0.7442952036792411 1 1:-0.428571 2:-0.703704 3:-1 5:-0.6 6:1 7:-0.4 8:-0.69697 9:-0.757576 10:-1 11:-0.833333 12:-0.6 13:-0.350649 14:-0.818182 15:-0.789137 16:-0.740541 17:-0.730846 18:-0.771429 19:-0.272727 20:-0.935484 21:-0.272727 22:-1 
1 1 1 0 0 0 1 0 0 1 0 0 0 0 0 1:0.619048 2:0.259259 3:-1 5:-0.6 6:-1 7:-0.4 8:-0.737374 9:-0.757576 10:-1 11:-0.833333 12:-0.684211 13:-0.402597 14:-0.818182 15:-0.801917 16:0.610811 17:0.614923 18:-0.771429 19:-0.272727 20:-0.419355 21:-0.272727 22:-0.0666667 
0 0 0 0 0 0.2972422210865506 0 0 0 0 0 0 0 0 0 1:0.52381 2:0.111111 3:-1 5:-0.6 6:-1 7:-0.4 8:-0.858586 9:-0.757576 10:-1 11:-0.833333 12:-0.284211 13:0.662338 14:-0.818182 15:0.0670927 16:-0.57543 17:-0.553631 18:-0.771429 19:1 20:-0.548387 21:1 22:-1 
1 0 0 0 0 0 0 0 0 0 0 0 0 1 0 1:-0.142857 2:0.111111 3:-1 5:-0.6 6:-1 7:-0.4 8:-0.69697 9:-0.757576 10:-1 11:-0.833333 12:-0.663158 13:0.662338 14:-0.818182 15:0.0670927 16:-0.565602 17:-0.545636 18:-0.771429 19:-0.454545 20:0.548387 21:0.272727 22:-1 
1 0 0 1 0 1 1 1 1 1 0 0 1 0 1 1:-0.428571 2:-0.555556 3:-1 5:0.6 6:-1 7:-0.4 8:-0.737374 9:-0.454545 10:-1 11:-0.833333 12:-0.684211 13:0.61039 14:-0.0909091 15:-0.0607029 16:-0.344472 17:-0.308461 18:-0.771429 19:0.454545 20:-0.612903 21:0.454545 22:-0.666667 
0 0 0 1 0 0 0 1 0 0 0 0 0 0 0 1:-0.142857 2:-0.703704 3:-1 5:-0.6 6:-1 7:-0.4 8:-0.818182 9:-0.757576 10:-1 11:-0.833333 12:-0.663158 13:-0.0909091 14:-0.272727 15:0.297125 16:-0.410319 17:-0.379081 18:-0.771429 19:-0.636364 20:-0.16129 21:-0.636364 22:-0.0666667 
1 0 0 0 0 0 0 0 0 0 0 0 0 0 0 1:-0.142857 2:-0.703704 3:-1 5:-0.6 6:1 7:-0.4 8:-0.69697 9:-0.757576 10:-1 11:-0.833333 12:-0.6 13:-0.0909091 14:-0.272727 15:0.297125 16:-0.410319 17:-0.379081 18:-0.771429 19:0.0909091 20:0.290323 21:0.0909091 22:0.266667 
1 0 0 0 0 0 0 0.9495519989450745 0 0 0 0 0 0 0 1:-0.142857 2:0.111111 3:-1 5:-0.6 6:-1 7:-0.4 8:0.838384 9:-0.878788 10:-1 11:-0.833333 12:-0.621053 13:-0.0909091 14:-0.272727 15:0.15016 16:0.186241 17:0.196536 18:-0.771429 19:-1 20:-0.0967742 21:-1 22:-1 
1 0 0 0 0 0 0 0 0 0 0 0 0 0 0 1:-0.142857 2:-0.703704 3:-1 5:-0.6 6:-1 7:-0.4 8:-0.858586 9:-0.757576 10:-1 11:-0.833333 12:-0.494737 13:-0.0909091 14:-0.272727 15:0.297125 16:-0.410319 17:-0.379081 18:-0.771429 19:-0.272727 20:0.612903 21:-0.0909091 22:-1 
1 0 0.07364426689439578 0 1 0 1 0 0 0 0.7159666293259509 0 0 0 0 1:-0.904762 2:0.111111 3:-1 5:-0.6 6:1 7:-0.4 8:-0.777778 9:-0.757576 10:-1 11:-0.833333 12:-0.6 13:-0.220779 14:-0.636364 15:-0.738019 16:0.561671 17:-0.28048 18:-0.771429 19:0.818182 20:0.0322581 21:-0.818182 22:-0.0666667 
1 0 0 1 1 0 0 0 1 0 0 0 0 0 0 1:-0.428571 2:-0.555556 3:-1 5:-0.6 6:-1 7:-0.4 8:-0.818182 9:-0.757576 10:-1 11:-0.833333 12:-0.663158 13:-0.454545 14:-0.0909091 15:-0.821086 16:-0.0673219 17:-0.0552965 18:-0.771429 19:0.636364 20:0.0322581 21:0.636364 
1 0 0 0 0 0 0 0 0 0 0 0 0 0 0 1:-0.428571 2:-0.703704 3:-1 5:-0.6 6:-1 7:-0.4 8:-0.737374 9:-0.757576 10:-1 11:-0.833333 12:-0.684211 13:-0.116883 14:-0.818182 15:-0.680511 16:-0.913514 17:-0.893404 18:-0.771429 19:0.272727 20:-0.677419 21:0.818182 22:-0.666667 
1 0 0.7721981977235349 1 1 0 0 0 1 0.4047271483704548 0 0 1 0 0.6270512150919044 1:-0.428571 2:-0.555556 3:-1 5:-0.6 6:-1 7:-0.4 8:-0.757576 9:-0.757576 10:-1 11:-0.833333 12:-0.578947 13:-0.454545 14:-0.0909091 15:-0.821086 16:-0.0663391 17:-0.0552965 18:-0.771429 19:-0.0909091 20:0.870968 21:-1 22:0.733333 
1 1 1 0 1 0 1 0 0 0 0 0 0 0 0 1:-0.904762 2:0.111111 3:-1 5:-0.6 6:1 7:-0.4 8:-0.737374 9:-0.757576 10:-1 11:-0.833333 12:-0.621053 13:-0.948052 14:-0.818182 15:-0.527157 16:0.679607 17:0.686875 18:-0.771429 19:1 20:0.483871 21:-1 22:-0.0666667 
1 0 0 1 1 0 0 0 1 1 0 0 1 0 0 1:-0.428571 2:-0.555556 3:-1 5:-0.6 6:-1 7:-0.4 8:-0.757576 9:-0.757576 10:-1 11:-0.833333 12:-0.6 13:-0.454545 14:-0.0909091 15:-0.821086 16:-0.0663391 17:-0.0552965 18:-0.771429 19:-0.818182 20:0.741935 21:-0.636364 22:-0.0666667 
1 0 0 1 1 0 1 0 1 1 1 1 0 0 0 1:-0.428571 2:-0.555556 3:-1 5:-0.6 6:-1 7:-0.4 8:-0.757576 9:-0.878788 10:-1 11:-0.833333 12:-0.705263 13:-0.636364 14:-0.0909091 15:-0.872204 16:-0.958722 17:-0.948035 18:-0.771429 19:-0.272727 20:-0.483871 21:-0.272727 22:-0.533333 
0 0 0 1 0 0 0 0 0 0 0 0 0 0 0.3040503875536893 1:-0.428571 2:-0.555556 3:-1 5:-0.6 6:-1 7:-0.4 8:-0.737374 9:-0.757576 10:-1 11:-0.833333 12:-0.578947 13:0.61039 14:-0.0909091 15:-0.0607029 16:-0.344472 17:-0.308461 18:-0.771429 19:0.818182 20:0.677419 21:0.818182 22:0.533333 
1 1 1 0 0 0 1 0 0 0 0 0 0 0 0 1:0.52381 2:-0.703704 3:-1 5:-0.6 6:1 7:-0.4 8:-0.69697 9:-0.757576 10:-1 11:-0.833333 12:-0.536842 13:-0.350649 14:-0.818182 15:-0.789137 16:-0.541032 17:-0.521652 18:-0.771429 19:0.454545 20:-0.0322581 21:0.454545 22:-0.0666667 
1 0 0 0 1 0 1 0 1 1 0 0 1 0 0 1:-0.142857 2:-0.259259 3:-1 5:-0.6 6:1 7:-0.4 8:-0.79798 9:-0.757576 10:-1 11:-0.833333 12:-0.221053 13:-0.688312 14:-0.0909091 15:-0.865815 16:-0.465356 17:-0.596269 18:-0.771429 19:-0.272727 20:0.0967742 21:-0.272727 22:-1 
1 0 0 0 0 0 0 0 0 1 0 0 0 0 0 1:-0.428571 2:-0.555556 3:-1 5:-0.6 6:1 7:-0.4 8:-0.79798 9:-0.757576 10:-1 11:-0.833333 12:-0.642105 13:-0.0909091 14:-0.272727 15:0.207668 16:0.450614 17:0.453698 18:-0.771429 19:0.454545 20:-0.354839 21:0.454545 22:-0.0666667 
1 0 0 0 1 0 0 0 1 0 0 0 0 0 0 1:-0.142857 2:-0.703704 3:-1 5:-0.6 6:1 7:-0.4 8:-0.717172 9:-0.757576 10:-1 11:-0.833333 12:0.0736842 13:-0.688312 14:-0.0909091 15:-0.865815 16:-0.418182 17:-0.387075 18:-0.771429 19:0.0909091 20:0.354839 21:0.272727 22:-1 
1 0 1 1 1 0 0 0 1 0 0 0 0 0 0 1:-0.428571 2:-0.555556 3:-1 5:-0.6 6:-1 7:-0.4 8:-0.818182 9:-0.757576 10:-1 11:-0.833333 12:-0.663158 13:-0.688312 14:-0.0909091 15:-0.865815 16:-0.382801 17:-0.347102 18:-0.942857 19:-0.818182 20:0.612903 21:-0.636364 22:-1 
0 1 1 0 1 0 0 0 0 0 0 0 0 0 0 1:-0.428571 2:-0.703704 3:-1 5:-0.6 6:-1 7:-0.4 8:0.959596 9:-0.757576 10:-1 11:-0.833333 12:0.978947 13:-0.350649 14:-0.818182 15:-0.789137 16:-0.740541 17:-0.730846 18:-0.771429 19:-0.454545 20:-0.483871 21:-0.454545 22:-1 
1 0 0 0 0 0 0 0 0 0 0 0 0 0 0 1:0.52381 2:-0.259259 3:-1 5:-0.6 6:1 7:-0.4 8:-0.737374 9:-0.878788 10:-1 11:-0.833333 12:-0.157895 13:0.168831 14:-0.818182 15:0.0734824 16:-0.0309582 17:-0.0313125 18:-0.542857 19:-0.454545 20:0.870968 21:-0.454545 22:0.866667 
1 1 1 0 1 0 0 0 0 0 1 1 0 0 0.7678563108743097 1:-0.428571 2:-0.703704 3:-1 5:-0.6 6:-1 7:-0.4 8:-0.818182 9:-0.757576 10:-1 11:-0.833333 12:-0.663158 13:-0.350649 14:-0.818182 15:-0.789137 16:-0.740541 17:-0.730846 18:-0.771429 19:-1 20:0.0322581 21:-0.818182 22:-1 
1 0 1 0 1 0 1 0 1 1 0 0 1 0 0 1:-0.52381 2:-0.555556 3:-1 5:-0.6 6:1 7:-0.4 8:-0.757576 9:-0.757576 10:-1 11:-0.833333 12:-0.621053 13:-0.844156 14:-0.0909091 15:-0.955272 16:0.517445 17:0.517655 18:-0.771429 19:-0.0909091 20:0.741935 21:0.454545 22:-0.0666667 
1 0 1 0 0 0 0 0 0 0 0 0 0 0 0 1:-0.428571 2:-0.555556 3:-1 5:-0.6 6:-1 7:-0.4 8:-0.757576 9:-0.757576 10:-1 11:-0.833333 12:-0.6 13:-0.61039 14:-0.818182 15:-0.341853 16:0.659951 17:0.662891 18:-0.771429 19:-0.818182 20:-0.419355 21:-0.636364 22:-1 
1 0 0 0 0 0.5385696376176572 0 1 0 0 0 0 0 0 0 1:-0.142857 2:0.111111 3:-1 5:-0.6 6:-1 7:-0.4 8:-1 9:-0.878788 10:-1 11:-0.833333 12:-0.663158 13:-0.0909091 14:-0.272727 15:0.15016 16:0.186241 17:0.196536 18:-0.771429 19:-0.0909091 20:-0.677419 21:-0.0909091 22:-1 
1 1 1 0 1 0 0 1 0 1 1 0 0 0 0 1:-0.142857 2:-0.259259 3:-1 5:-0.6 6:1 7:-0.4 8:-0.69697 9:-0.757576 10:-1 11:-0.833333 12:-0.536842 13:-0.948052 14:-0.818182 15:-0.00319489 16:-0.385749 17:-0.349767 18:-0.771429 19:-0.636364 20:0.225806 21:-0.636364 22:0.2 
1 0 1 0 1 0 1 0 0 1 0 0 0 1 0 1:-1 2:-0.481481 3:-1 5:-0.6 6:1 7:-0.4 8:-0.757576 9:-0.878788 10:-1 11:-0.833333 12:-0.6 13:-0.220779 14:-0.636364 15:-0.738019 16:-0.00737101 17:-0.005996 18:-0.942857 19:-0.636364 20:0.0322581 21:-0.454545 22:-1 
1 0 0 0 1 0 0 0 0 0 0 0 0 0 0 1:-0.904762 2:0.111111 3:-1 5:-0.6 6:1 7:-0.4 8:-0.69697 9:-0.757576 10:-1 11:-0.833333 12:-0.0947368 13:-0.220779 14:-0.636364 15:-0.738019 16:0.561671 17:-0.28048 18:-0.771429 19:-0.272727 20:0.677419 21:-0.272727 22:-0.0666667 
1 1 1 0 1 0 0 0 0 0 0 0 0 0.3912694621556965 0 1:-0.142857 2:-0.703704 3:-1 5:-0.6 6:1 7:-0.4 8:-0.757576 9:-0.757576 10:-1 11:-0.833333 12:-0.6 13:-0.61039 14:-0.818182 15:-0.341853 16:-0.254054 17:-0.212525 18:-0.771429 19:0.454545 20:-0.16129 21:0.454545 22:-0.0666667 
0 1 0 0 1 0 0 0 0 0 0 0 0 0 0 1:-0.142857 2:0.111111 3:-1 5:-0.6 6:-1 7:-0.4 8:-0.737374 9:-0.757576 10:-1 11:-0.833333 12:-0.157895 13:-0.350649 14:-0.818182 15:-0.789137 16:-0.338575 17:-0.300466 18:-0.771429 19:0.272727 20:-0.612903 21:0.272727 22:-0.0666667 
1 0 1 0 1 0 0 0 0 0 0 0 0 0 0 1:-0.428571 2:-0.555556 3:-1 5:-0.6 6:-1 7:-0.4 8:-0.69697 9:-0.757576 10:-1 11:-0.833333 12:-0.536842 13:-0.61039 14:-0.818182 15:-0.341853 16:0.659951 17:0.662891 18:-0.771429 19:-0.818182 20:0.741935 21:-0.636364 22:-1 
1 0 1 0 1 0 0.201934821166868 0 1 0 0 0 0 0 0 1:-0.52381 2:-0.555556 3:-1 5:-0.6 6:1 7:-0.4 8:-0.757576 9:-0.757576 10:-1 11:-0.833333 12:-0.178947 13:-0.844156 14:-0.0909091 15:-0.955272 16:0.517445 17:0.517655 18:-0.771429 19:0.272727 20:0.806452 21:0.454545 22:-1 
1 0 0 0 1 0 0 0 0 0 1 0 0 0 0 1:-1 2:-0.481481 3:-1 5:-0.6 6:-1 7:-0.4 8:-0.737374 9:-0.878788 10:-1 11:-0.833333 12:-0.684211 13:-0.116883 14:-0.818182 15:-0.680511 16:-0.82801 17:-0.88008 18:-0.771429 19:-0.636364 20:-0.225806 21:-0.636364 22:-0.0666667 
1 0 0 0 0 0 0 0 0 0 0 0 0 0 0 1:-0.428571 2:-0.555556 3:-1 5:-0.6 6:-1 7:-0.4 8:0.979798 9:-0.878788 10:-1 11:-0.833333 12:-0.473684 13:0.168831 14:-0.818182 15:-0.201278 16:-0.728747 17:-0.717522 18:-0.771429 19:-1 20:-0.225806 21:-1 22:-1 
1 0 0 1 0.1608065221833186 0 0 0 0 0 0 0 0 0 0.06200056486623333 1:-0.52381 2:-0.555556 3:-1 5:-0.6 6:-1 7:-0.4 8:0.979798 9:-0.757576 10:-1 11:-0.833333 12:-0.473684 13:-0.454545 14:-0.0909091 15:0.169329 16:-0.105651 17:-0.0939374 18:-0.771429 19:-0.636364 20:-0.806452 21:-0.636364 22:-1 
0 0 0 1 1 0 0 0 1 0 0 0 0 0 0 1:-0.428571 2:-0.555556 3:-1 5:-0.6 6:-1 7:-0.4 8:-0.818182 9:-0.757576 10:-1 11:-0.833333 12:-0.221053 13:-0.584416 14:-0.0909091 15:-0.853035 16:-0.51941 17:-0.495003 18:-0.771429 19:0.0909091 20:0.806452 21:-0.818182 22:-0.0666667 
1 1 0 0 1 0 1 0 0 0 0 0 0 0 0 1:0.52381 2:-0.259259 3:-1 5:-0.6 6:1 7:-0.4 8:-0.777778 9:-0.757576 10:-1 11:-0.833333 12:-0.2 13:-0.350649 14:-0.818182 15:-0.789137 16:0.315971 17:0.315123 18:-0.771429 19:1 20:-0.16129 21:1 22:-1 
1 1 1 0 1 0 0 0 0 0 1 0 0 0 0 1:-0.142857 2:-0.259259 3:-1 5:-0.6 6:-1 7:-0.4 8:-0.818182 9:-0.757576 10:-1 11:-0.833333 12:-0.663158 13:-0.948052 14:-0.818182 15:-0.00319489 16:0.301229 17:0.300466 18:-0.771429 19:-0.818182 20:-0.806452 21:-0.818182 22:-0.0666667 
1 0 0 0 0 0 0 0 0 0 0 0 0 0 0 1:-0.142857 2:-0.703704 3:-1 5:-0.6 6:1 7:-0.4 8:-0.69697 9:-0.757576 10:-1 11:-0.833333 12:-0.536842 13:-0.0909091 14:-0.272727 15:0.297125 16:-0.410319 17:-0.379081 18:-0.771429 19:0.0909091 20:0.290323 21:0.0909091 22:0.266667 
1 0 0 0 0 0 0 0 0 0 0 0 0 0 0 1:-0.428571 2:-0.555556 3:-1 5:-0.6 6:-1 7:-0.4 8:0.838384 9:-0.757576 10:-1 11:-0.833333 12:-0.621053 13:-0.0909091 14:-0.272727 15:0.476038 16:-0.0712531 17:-0.0579614 18:-0.771429 19:0.636364 20:-0.483871 21:0.636364 22:-1 
1 0 1 0 1 0 1 0 0 1 0 0 0 0 0 1:-0.142857 2:0.111111 3:-1 5:-0.6 6:1 7:-0.4 8:-0.717172 9:-0.757576 10:-1 11:-0.833333 12:-0.557895 13:-0.350649 14:-0.818182 15:-0.789137 16:-0.338575 17:-0.300466 18:-0.771429 19:-0.272727 20:-0.0322581 21:-0.272727 22:-0.0666667 
1 0 1 1 0.8890939152726598 0 0.6345372622011494 0 1 0 1 1 0.7320416065711205 0 1 1:-0.428571 2:-0.555556 3:-1 5:-0.6 6:-1 7:-0.4 8:-0.717172 9:-0.757576 10:-1 11:-0.833333 12:-0.621053 13:-0.584416 14:-0.0909091 15:-0.853035 16:-0.51941 17:-0.495003 18:-0.771429 19:0.636364 20:1 21:0.636364 22:0.933333 
1 0 0 0 0 0 0 0 0 0 1 0 0 0 0 1:0.52381 2:0.111111 3:-1 5:-0.6 6:-1 7:-0.4 8:-0.757576 9:-0.757576 10:-1 11:-0.833333 12:-0.705263 13:-0.116883 14:-0.818182 15:-0.252396 16:-0.368059 17:-0.80946 18:-0.771429 19:-0.272727 20:0.354839 21:-0.0909091 22:-0.0666667 
1 0 0 0 0 0 1 1 0 1 1 0 0 1 0 1:0.52381 2:0.111111 3:-1 5:-0.6 6:1 7:-0.4 8:-0.717172 9:-0.757576 10:-1 11:-0.833333 12:-0.557895 13:-0.116883 14:-0.818182 15:-0.252396 16:-0.368059 17:-0.80946 18:-0.771429 19:0.818182 20:0.225806 21:0.818182 22:-0.0666667 
1 0 0 1 0 0 0 0.02198185991848567 0 0.005263549683912959 0 0 1 0 0 1:-0.428571 2:-0.555556 3:-1 5:-0.6 6:-1 7:-0.4 8:-0.858586 9:-0.757576 10:-1 11:-0.833333 12:-0.705263 13:0.61039 14:-0.0909091 15:-0.0607029 16:-0.344472 17:-0.308461 18:-0.771429 19:0.454545 20:-0.741935 21:0.454545 22:-1 
0.7825559366929726 1 1 0 0 0 0 0 0 0 0 0 0 0 0 1:0.904762 2:-0.62963 3:-1 5:-0.6 6:-1 7:-0.4 8:-0.79798 9:-0.878788 10:-1 11:-0.833333 12:-0.642105 13:-0.350649 14:-0.818182 15:-0.789137 16:0.309091 17:0.308461 18:-0.771429 19:0.636364 20:0.354839 21:-0.0909091 22:-0.0666667 
1 0 1 0 1 0 1 0 1 1 0 0 1 0 0 1:-0.52381 2:-0.555556 3:-1 5:-0.6 6:1 7:-0.4 8:-0.777778 9:-0.878788 10:-1 11:-0.833333 12:-0.621053 13:-0.584416 14:-0.0909091 15:-0.853035 16:0.297297 17:0.299134 18:-0.771429 19:0.0909091 20:-0.225806 21:0.0909091 22:-0.0666667 
1 0 1 1 1 0 0 0 1 1 0 1 1 0 1 1:-0.428571 2:-0.555556 3:-1 5:-0.6 6:-1 7:-0.4 8:-0.737374 9:-0.757576 10:-1 11:-0.833333 12:-0.684211 13:-0.584416 14:-0.0909091 15:-0.853035 16:-0.51941 17:-0.495003 18:-0.771429 19:-0.272727 20:-0.806452 21:-0.272727 22:-0.0666667 
1 1 1 0 1 0 0 0 0 0 1 0 0 0 0 1:-0.809524 2:-0.481481 3:-1 5:-1 6:-1 7:-0.4 8:0.838384 9:-1 10:-1 11:-0.833333 12:-0.621053 13:-0.948052 14:-0.818182 15:-0.00319489 16:-0.208845 17:-0.168554 18:-0.771429 19:-0.636364 20:-0.225806 21:-0.636364 22:-1 
1 0 1 0 1 0 0 0 0 0 0 0 0 0 0 1:-0.428571 2:-0.555556 3:-1 5:-0.6 6:-1 7:-0.4 8:-0.69697 9:-0.757576 10:-1 11:-0.833333 12:-0.536842 13:-0.61039 14:-0.818182 15:-0.341853 16:0.659951 17:0.662891 18:-0.771429 19:0.272727 20:-0.612903 21:0.272727 22:-0.0666667 
1 1 1 0 1 0 0 0 0 0 0 0 0 0 0 1:-0.904762 2:-0.703704 3:-1 5:-0.6 6:-1 7:-0.4 8:-0.979798 9:-0.757576 10:-1 11:-0.833333 12:-0.410526 13:-0.948052 14:-0.818182 15:-0.00319489 16:0.675676 17:0.682878 18:-0.771429 19:0.818182 20:-0.870968 21:0.818182 22:-1 
1 0 0 0 0 0 0 0 0 0 0 0.5883411285155382 0 0 0 1:0.904762 2:-0.555556 3:-1 5:-0.6 6:1 7:-0.4 8:-0.69697 9:-0.757576 10:-1 11:-0.833333 12:-0.115789 13:-0.116883 14:-0.818182 15:-0.680511 16:0.850614 17:0.865423 18:-0.771429 19:-0.818182 20:-0.354839 21:-0.818182 22:-0.4 
1 0 0 1 0 0 0 0.4738406719676595 0 0 0 0 0 0 0 1:-0.52381 2:-1 3:-1 5:-0.6 6:-1 7:-0.4 8:-0.757576 9:-0.757576 10:-1 11:-0.833333 12:-0.705263 13:0.402597 14:-0.272727 15:0.859425 16:0.6914 17:0.701532 18:-0.6 19:-0.0909091 20:0.870968 21:-0.0909091 22:0.866667 
1 0 0 0 0 0 0 0 0 0 0 0 0 0 0 1:-0.428571 2:-0.555556 3:-1 5:-0.6 6:-1 7:-0.4 8:0.979798 9:-0.757576 10:-1 11:-0.833333 12:-0.473684 13:-0.0909091 14:-0.272727 15:0.476038 16:-0.0712531 17:-0.0579614 18:-0.771429 19:0.0909091 20:0.548387 21:0.272727 22:-1 
1 0 0 1 0 0 0 0 0.9592985030517991 0.2774742891176087 0 0 0 1 0 1:-0.904762 2:-0.703704 3:-1 5:-0.6 6:1 7:-0.4 8:-0.777778 9:-0.757576 10:-1 11:-0.833333 12:-0.2 13:0.922078 14:-0.272727 15:0.680511 16:0.823096 17:0.840107 18:-0.771429 19:0.818182 20:-0.483871 21:0.818182 22:-1 
1 0 0 0 0 0 0 0 0 0 0 0 0 0 0 1:-0.904762 2:0.111111 3:-1 5:-0.6 6:-1 7:-0.4 8:-0.858586 9:-0.757576 10:-1 11:-0.833333 12:-0.705263 13:0.922078 14:-0.272727 15:0.680511 16:0.412285 17:0.412392 18:-0.771429 19:0.454545 20:0.0967742 21:0.454545 22:-0.0666667 
0 0 0 1 0 0 0 0 0.09156806411310883 0.8183949157992303 0 0 1 0 0 1:-0.428571 2:-0.555556 3:-1 5:-0.6 6:-1 7:-0.4 8:-0.757576 9:-0.757576 10:-1 11:-0.833333 12:-0.6 13:0.61039 14:-0.0909091 15:-0.0607029 16:-0.344472 17:-0.308461 18:-0.771429 19:-0.272727 20:0.935484 21:-0.0909091 22:-1 
1 0 0 0 0 0 0 1 0 1 0 0 0 0 0 1:-0.142857 2:-0.703704 3:-1 5:-0.6 6:1 7:-0.4 8:-0.777778 9:-0.757576 10:-1 11:-0.833333 12:-0.621053 13:-0.0909091 14:-0.272727 15:0.297125 16:-0.410319 17:-0.379081 18:-0.771429 19:-0.272727 20:-0.225806 21:-0.272727 22:-0.0666667 
1 0 0 1 1 0 0 0.05559192100941199 0 1 1 1 0 0 0 1:-1 2:-0.481481 3:-1 5:-0.6 6:-1 7:-0.4 8:-0.717172 9:-0.878788 10:-1 11:-0.833333 12:-0.705263 13:-0.116883 14:-0.818182 15:-0.642173 16:-0.897789 17:-0.88008 18:-0.0285714 19:0.818182 20:-0.225806 21:-0.0909091 22:-0.0666667 
0 0 0 0 0 0 0 0 0 0 0 0 1 0 0 1:-0.428571 2:-0.555556 3:-1 5:-0.6 6:-1 7:-0.4 8:0.979798 9:-0.757576 10:-1 11:-0.833333 12:-0.473684 13:0.61039 14:-0.0909091 15:-0.0607029 16:-0.345455 17:-0.308461 18:-0.771429 19:0.0909091 20:0.290323 21:0.0909091 22:-0.0666667 
1 0 1 0 1 0 1 0 0 0.5652703408629094 0 0 0 0 0 1:-0.904762 2:0.111111 3:-1 5:-0.6 6:1 7:-0.4 8:-0.717172 9:-0.757576 10:-1 11:-0.833333 12:-0.557895 13:-0.220779 14:-0.636364 15:-0.738019 16:0.561671 17:-0.28048 18:-0.771429 19:-0.0909091 20:-0.354839 21:-0.0909091 22:-0.0666667 
1 0 0 0 0 0 0 0 0 0 1 0 0 0 0 1:-0.52381 2:-0.555556 3:-1 5:-0.6 6:-1 7:-0.4 8:-0.69697 9:-0.757576 10:-1 11:-0.833333 12:-0.6 13:-0.116883 14:-0.818182 15:-0.680511 16:-0.914496 17:-0.894737 18:-0.771429 19:-0.636364 20:-0.354839 21:-0.636364 22:-0.0666667 
1 0 0 0 0 0 0 0 0 0 0 0 0 0 0 1:-0.428571 2:-0.555556 3:-1 5:-0.6 6:1 7:-0.4 8:-0.777778 9:-0.757576 10:-1 11:-0.833333 12:-0.2 13:-0.0909091 14:-0.272727 15:0.207668 16:0.450614 17:0.453698 18:-0.771429 19:-0.636364 20:1 21:-0.454545 22:-1 
0 0 0 0 0 0 0 0 1 0 0 0 0 0 0 1:0.619048 2:-0.555556 3:-1 5:-0.6 6:1 7:-0.4 8:-0.69697 9:-0.757576 10:-1 11:-0.833333 12:-0.115789 13:-0.194805 14:-0.272727 15:-0.71246 16:0.343489 17:0.349767 18:-0.771429 19:-0.0909091 20:-0.290323 21:-0.0909091 22:-0.0666667 
0 0 0 1 0 0 0 0 0 0 0 0 0 0 0 1:-0.904762 2:-0.703704 3:-1 5:-0.6 6:-1 7:-0.4 8:-0.959596 9:-0.757576 10:-1 11:-0.833333 12:-0.368421 13:-0.0909091 14:-0.272727 15:0.15016 16:0.669779 17:0.674883 18:-0.771429 19:0.818182 20:0.354839 21:-1 22:-0.0666667 
1 0 0 1 1 0 0 0.5477962860771054 0 0 0 0 0 0 0 1:-1 2:-0.481481 3:-1 5:-0.6 6:1 7:-0.4 8:-0.737374 9:-0.757576 10:-1 11:-0.833333 12:-0.578947 13:-0.0909091 14:-0.272727 15:0.476038 16:-0.0103194 17:-0.00732845 18:-0.771429 19:-0.454545 20:-0.290323 21:-0.454545 22:-0.0666667 
1 0 0 0 0 0 0 0 0 0 0 0 0 1 0 1:-1 2:-0.481481 3:-1 5:-0.6 6:-1 7:-0.4 8:-0.737374 9:-0.757576 10:-1 11:-0.833333 12:-0.684211 13:0.662338 14:-0.818182 15:0.15655 16:-0.509582 17:-0.480346 18:-0.771429 19:0.272727 20:-0.16129 21:0.636364 22:-1 
1 0 0 0 1 0 1 0 1 1 0 0 1 0 0.2669611650918502 1:-0.142857 2:-0.703704 3:-1 5:-0.6 6:1 7:-0.4 8:-0.777778 9:-0.757576 10:-1 11:-0.833333 12:-0.621053 13:-0.688312 14:-0.0909091 15:-0.865815 16:-0.418182 17:-0.387075 18:-0.771429 19:-0.272727 20:0.612903 21:-0.0909091 22:-1 
1 0 1 1 1 0 0 0 1 0 0 0 0 0 0 1:-1 2:-0.481481 3:-1 5:-0.6 6:1 7:-0.4 8:-0.717172 9:-0.878788 10:-1 11:-0.833333 12:-0.157895 13:-0.688312 14:-0.0909091 15:-0.865815 16:0.636364 17:0.64024 18:-0.771429 19:-0.0909091 20:0.548387 21:-0.272727 22:-0.0666667 
1 1 1 0 0 0 0 0 1 0 0.8559818979531357 0 0 0 0 1:0.904762 2:-0.62963 3:-1 5:-0.6 6:1 7:-0.4 8:-0.979798 9:-0.878788 10:-0.6 11:-0.666667 12:-0.2 13:-0.116883 14:-0.818182 15:-0.680511 16:0.849631 17:0.865423 18:-0.771429 19:0.818182 20:0.0322581 21:1 22:0.333333 
0 0 0 1 0 0 0 0 0 0 0 0 1 0 0 1:-0.428571 2:-0.555556 3:-1 5:-0.6 6:-1 7:-0.4 8:-0.838384 9:-0.757576 10:-1 11:-0.833333 12:-0.684211 13:0.61039 14:-0.0909091 15:-0.0607029 16:-0.344472 17:-0.308461 18:-0.771429 19:-0.636364 20:0.741935 21:-0.454545 22:-0.0666667 
0 0.7085012719359881 1 0 0 0 0 0 0 0 0 0 0 0 0 1:-0.428571 2:-0.555556 3:-1 5:-0.6 6:-1 7:-0.4 8:-0.777778 9:-0.757576 10:-1 11:-0.833333 12:-0.2 13:-0.61039 14:-0.818182 15:-0.341853 16:0.659951 17:0.662891 18:-0.771429 19:-0.818182 20:-0.806452 21:-0.636364 22:-1 
0 0 0 0.7341133332763128 0 0 0 0 0 0 0 0 0 0 0 1:-0.428571 2:-0.555556 3:-1 5:-0.6 6:-1 7:-0.4 8:-0.737374 9:-0.757576 10:-1 11:-0.833333 12:-0.642105 13:0.61039 14:-0.0909091 15:-0.0607029 16:-0.344472 17:-0.308461 18:-0.771429 19:0.636364 20:-0.354839 21:0.636364 22:-0.0666667 
1 1 1 0 1 0 0 0 0 0 0.1329607629967819 0 0 0 0 1:-0.142857 2:0.111111 3:-1 5:-0.6 6:-1 7:-0.4 8:-0.818182 9:-0.757576 10:-1 11:-0.833333 12:-0.663158 13:-0.948052 14:-0.818182 15:-0.00319489 16:0.641278 17:0.646902 18:-0.771429 19:0.818182 20:0.225806 21:0.818182 22:-0.0666667 
1 0 0 1 1 0 0 0 0 0 0 0 0 1 0 1:-0.904762 2:-0.703704 3:-1 5:-0.6 6:1 7:-0.4 8:-0.757576 9:-0.757576 10:-1 11:-0.833333 12:-0.578947 13:-0.0909091 14:-0.272727 15:0.15016 16:0.669779 17:0.674883 18:-0.771429 19:0.454545 20:0.612903 21:-0.818182 22:-1 
1 1 1 0 1 0 0 0 0 0 0 0 0 0 0 1:-0.904762 2:0.111111 3:-1 5:-0.6 6:1 7:-0.4 8:-0.79798 9:-0.878788 10:-1 11:-0.833333 12:-0.221053 13:-0.948052 14:-0.818182 15:-0.527157 16:0.679607 17:0.686875 18:-0.771429 19:0.0909091 20:-0.16129 21:0.0909091 22:-0.0666667 
1 1 1 0 1 0 0 0 0 0 1 0 0 0 0 1:-0.142857 2:-0.259259 3:-1 5:-0.6 6:-1 7:-0.4 8:-0.858586 9:-0.757576 10:-1 11:-0.833333 12:-0.705263 13:-0.948052 14:-0.818182 15:-0.00319489 16:0.301229 17:0.300466 18:-0.771429 19:-1 20:0.548387 21:-0.818182 22:-0.0666667 
1 0 0 1 0 0 0 0 1 0 0 0 0.92058501855147 0 1 1:-0.428571 2:-0.555556 3:-1 5:-0.6 6:-1 7:-0.4 8:-0.777778 9:-0.757576 10:-1 11:-0.833333 12:-0.621053 13:0.0909091 14:-0.0909091 15:-0.386581 16:-0.822113 17:-0.798801 18:-0.771429 19:-0.818182 20:0.0967742 21:-0.636364 22:-1 
1 1 0 -0 0 0 0 0 0 0 1 0 0 0 1 1:-0.52381 2:-0.555556 3:-1 5:-0.6 6:-1 7:-0.4 8:-0.858586 9:-0.757576 10:-1 11:-0.833333 12:-0.284211 13:-0.116883 14:-0.818182 15:-0.680511 16:-0.914496 17:-0.894737 18:-0.771429 19:0.818182 20:-0.419355 21:0.818182 22:0.933333 
1 1 1 0 1 0 1 0 0 1 1 0 0 0 0 1:-0.428571 2:-0.703704 3:-1 5:-0.6 6:1 7:-0.4 8:-0.717172 9:-0.757576 10:-1 11:-0.833333 12:-0.663158 13:-0.350649 14:-0.818182 15:-0.789137 16:-0.740541 17:-0.730846 18:-0.771429 19:-0.272727 20:0.419355 21:-0.272727 22:0.4 
0 0 0 0 1 0 0 0 0 0 0 0 0 0 0 1:-0.52381 2:-0.555556 3:-1 5:-0.6 6:-1 7:-0.4 8:-0.757576 9:-0.757576 10:-1 11:-0.833333 12:-0.178947 13:-0.116883 14:-0.818182 15:-0.680511 16:-0.496806 17:-0.467022 18:-0.771429 19:0.0909091 20:1 21:0.272727 22:-1 
1 0 0 0.8081311050530895 0 0 0 0 1 0 0 0.2169167599846358 0 0 0 1:0.52381 2:-0.703704 3:-1 5:-0.6 6:-1 7:-0.4 8:-0.737374 9:-0.757576 10:-1 11:-0.833333 12:-0.178947 13:-0.584416 14:-0.0909091 15:-0.853035 16:0.74742 17:0.76016 18:-0.771429 19:-0.272727 20:0.870968 21:1 22:-0.0666667 
1 0 0 0 1 0 0 0 0 0 0 0 0 0 0 1:-0.904762 2:-0.703704 3:-1 5:-0.6 6:1 7:-0.4 8:-0.69697 9:-0.757576 10:-1 11:-0.833333 12:-0.536842 13:-0.0909091 14:-0.272727 15:0.15016 16:0.669779 17:0.674883 18:-0.771429 19:0.0909091 20:0.0967742 21:0.0909091 22:0.0666667 
1 0 1 0 1 1 0.305357949115256 0 1 0.81309546874941 0 0 0 0 0 1:-0.142857 2:0.111111 3:-1 5:-0.6 6:1 7:-0.4 8:-0.777778 9:-0.757576 10:-1 11:-0.833333 12:-0.2 13:-0.87013 14:-0.272727 15:-0.667732 16:0.614742 17:0.620253 18:-0.771429 19:1 20:-0.870968 21:1 22:-1 
1 0 0 1 1 0 0 0 1 0 0 0 0 0 0 1:-0.142857 2:-0.703704 3:-1 5:-0.6 6:1 7:-0.4 8:-0.79798 9:-0.757576 10:-1 11:-0.833333 12:-0.2 13:-0.688312 14:-0.0909091 15:-0.865815 16:-0.418182 17:-0.387075 18:-0.771429 19:0.636364 20:0.354839 21:-0.454545 22:-0.0666667 
0 0 0 0 1 0 0 0 0 0 0 0 0 0 0 1:-1 2:-0.481481 3:-1 5:-0.6 6:-1 7:-0.4 8:-0.757576 9:-0.878788 10:-1 11:-0.833333 12:-0.178947 13:-0.220779 14:-0.636364 15:-0.738019 16:-0.00737101 17:-0.005996 18:-0.942857 19:0.272727 20:0.483871 21:0.454545 22:-1 
0 0 0 1 0 0 0 0 1 0 0 0 1 0 0 1:-0.428571 2:-0.555556 3:-1 5:-0.6 6:1 7:-0.4 8:-0.717172 9:-0.757576 10:-1 11:-0.833333 12:0.284211 13:0.61039 14:-0.0909091 15:-0.0607029 16:-0.345455 17:-0.308461 18:-0.771429 19:-0.272727 20:-0.483871 21:-0.272727 22:-0.0666667 
1 0 1 1 1 0 0 0 1 1 0 1 0 0 0 1:-0.52381 2:-0.555556 3:-1 5:-0.6 6:-1 7:-0.4 8:-0.717172 9:-0.757576 10:-1 11:-0.833333 12:-0.705263 13:-0.844156 14:-0.0909091 15:-0.955272 16:0.517445 17:0.517655 18:-0.771429 19:-0.818182 20:0.612903 21:-0.818182 22:0.6 
1 0 0 0 0 0 0.7698526271238552 0 0 0 0 0 0 0 0 1:0.52381 2:0.111111 3:-1 5:-0.6 6:1 7:-0.4 8:-0.69697 9:-0.757576 10:-1 11:-0.833333 12:-0.115789 13:-0.116883 14:-0.818182 15:-0.252396 16:-0.368059 17:-0.80946 18:-0.771429 19:-0.0909091 20:0.483871 21:0.454545 22:-0.0666667 
1 0 1 1 1 0 0 0 1 0 0 1 0 0 0 1:-0.428571 2:-0.555556 3:-1 5:-0.6 6:-1 7:-0.4 8:-0.89899 9:-0.757576 10:-1 11:-0.833333 12:-0.326316 13:-0.844156 14:-0.0909091 15:-0.955272 16:-0.0014742 17:-0.00333111 18:-0.771429 19:0.636364 20:-0.16129 21:0.636364 22:-0.0666667 
0.699311647548217 0 0 0 1 0 0 0 1 0 0 0 0 0 0 1:-0.142857 2:0.111111 3:-1 5:-0.6 6:1 7:-0.4 8:-0.717172 9:-0.757576 10:-1 11:-0.833333 12:0.284211 13:-0.87013 14:-0.272727 15:-0.667732 16:0.614742 17:0.620253 18:-0.771429 19:-0.0909091 20:-0.16129 21:0.0909091 22:-0.933333 
0 0 0 0.03772572558847431 0 0 0 0 0 0 0 0 0 0 0 1:-0.428571 2:-0.555556 3:-1 5:-0.6 6:-1 7:-0.4 8:-0.737374 9:-0.757576 10:-1 11:-0.833333 12:-0.536842 13:0.61039 14:-0.0909091 15:-0.0607029 16:-0.344472 17:-0.308461 18:-0.771429 19:0.818182 20:0.354839 21:0.818182 22:-0.0666667 
1 0 0 0 0 0 0 0 0 0 0 0 0 0 0 1:0.619048 2:-0.555556 3:-1 5:-0.6 6:-1 7:-0.4 8:-0.69697 9:-0.757576 10:-1 11:-0.833333 12:-0.684211 13:-0.116883 14:-0.818182 15:-0.680511 16:0.737592 17:0.750833 18:-0.771429 19:-0.636364 20:-0.677419 21:-0.636364 22:-1 
0.4260371231143257 0 0 0.1455857936152488 0 0 0 0 0 0 0 0 0 0 0 1:-0.428571 2:-0.555556 3:-1 5:-0.6 6:-1 7:-0.4 8:0.979798 9:-0.757576 10:-1 11:-0.833333 12:-0.473684 13:-0.0909091 14:-0.272727 15:0.476038 16:-0.0712531 17:-0.0579614 18:-0.771429 19:-1 20:-0.419355 21:-1 22:-1 
0 0 0 0.3432079183325044 0 0 0 0 1 0 0 0 0 0 0 1:0.52381 2:-0.259259 3:-1 5:-0.6 6:-1 7:-0.4 8:-0.79798 9:-0.757576 10:-1 11:-0.833333 12:-0.642105 13:-0.0909091 14:-0.272727 15:0.175719 16:0.82801 17:0.845436 18:-0.771429 19:0.272727 20:-0.870968 21:0.0909091 22:-0.0666667 
1 0 0 1 1 0 0 1 0 1 0 0 1 0 0 1:-0.142857 2:-0.703704 3:-1 5:-0.6 6:1 7:-0.4 8:-0.69697 9:-0.878788 10:-1 11:-0.833333 12:-0.6 13:-0.688312 14:-0.0909091 15:0.271565 16:0.47715 17:0.480346 18:-0.771429 19:0.272727 20:-0.612903 21:0.272727 22:-0.0666667 
0 0 1 1 1 0 0 0 1 0 0 0 0 0 0 1:-0.904762 2:0.111111 3:-1 5:-0.6 6:-1 7:-0.4 8:-0.717172 9:-0.878788 10:-1 11:-0.833333 12:-0.157895 13:-0.844156 14:-0.0909091 15:-0.955272 16:0.539066 17:0.537642 18:-0.771429 19:-0.0909091 20:-0.354839 21:-0.0909091 22:-0.0666667 
1 0 0 1 1 0 0 0 0 0 0 0 1 0 0 1:-0.428571 2:-0.555556 3:-1 5:-0.6 6:-1 7:-0.4 8:0.838384 9:-0.757576 10:-1 11:-0.833333 12:-0.621053 13:-0.584416 14:-0.0909091 15:-0.853035 16:-0.51941 17:-0.495003 18:-0.771429 19:0.272727 20:-0.0322581 21:0.272727 22:-0.0666667 
1 1 1 0 1 0 0 0 0 0 0 1 0 0 0 1:-0.142857 2:-0.703704 3:-1 5:-0.6 6:-1 7:-0.4 8:1 9:-0.757576 10:-1 11:-0.833333 12:-0.452632 13:-0.87013 14:-0.272727 15:-0.667732 16:-0.512531 17:-0.484344 18:-0.771429 19:-0.818182 20:0.419355 21:-0.818182 22:-0.0666667 
1 1 1 0 1 0 0 0 0 0 1 0 0 0 0 1:-1 2:-0.481481 3:-1 5:-0.6 6:-1 7:-0.4 8:-0.777778 9:-0.878788 10:-1 11:-0.833333 12:-0.221053 13:-0.948052 14:-0.818182 15:-0.527157 16:-0.0643735 17:-0.053964 18:-1 19:-0.636364 20:0.354839 21:0.636364 22:-1 
0 0 0 1 0 0 0 0 0 0 0 0 0 0 0 1:-0.428571 2:-0.555556 3:-1 5:-0.6 6:-1 7:-0.4 8:-0.979798 9:-0.757576 10:-1 11:-0.833333 12:-0.410526 13:0.61039 14:-0.0909091 15:-0.0607029 16:-0.345455 17:-0.308461 18:-0.771429 19:-0.272727 20:-0.290323 21:-0.272727 22:-1 
1 0 0.4995183032831223 1 1 0 0 0 1 1 0 0 1 0 0.4281163363725105 1:-0.428571 2:-0.555556 3:-1 5:-0.6 6:-1 7:-0.4 8:-0.818182 9:-0.757576 10:-1 11:-0.833333 12:-0.663158 13:-0.584416 14:-0.0909091 15:-0.853035 16:-0.51941 17:-0.495003 18:-0.771429 19:-0.636364 20:-0.16129 21:-0.636364 22:-0.0666667 
1 0 0 1 1 0 0 0 1 0 0 0 0 0 0 1:-1 2:-0.481481 3:-1 5:-0.6 6:-1 7:-0.4 8:-0.79798 9:-0.757576 10:-1 11:-0.833333 12:-0.221053 13:-0.584416 14:-0.0909091 15:-0.392971 16:0.404423 17:0.156562 18:-0.771429 19:1 20:-0.806452 21:1 22:-0.0666667 
1 0 0 0 1 0 1 0 0 1 0 0 0 1 0 1:0.52381 2:-0.259259 3:-1 5:-0.6 6:1 7:-0.4 8:-0.69697 9:-0.757576 10:-1 11:-0.833333 12:-0.6 13:-0.350649 14:-0.818182 15:-0.789137 16:0.315971 17:0.315123 18:-0.771429 19:0.454545 20:-0.0967742 21:0.454545 22:-1 
0 0 0 1 0 0 0 0.01394199386371388 1 0.6934831382632354 0 0 1 0 0 1:-0.428571 2:-0.555556 3:-1 5:-0.6 6:-1 7:-0.4 8:-0.737374 9:-0.757576 10:-1 11:-0.833333 12:-0.684211 13:0.61039 14:-0.0909091 15:-0.0607029 16:-0.344472 17:-0.308461 18:-0.771429 19:-0.818182 20:0.806452 21:-0.636364 22:-1 
1 0 0 1 1 0 0 0 0 0 0 0 0 0.7175806529378089 0 1:-0.904762 2:-0.703704 3:-1 5:-0.6 6:1 7:-0.4 8:-0.777778 9:-0.757576 10:-1 11:-0.833333 12:-0.621053 13:-0.0909091 14:-0.272727 15:0.15016 16:0.669779 17:0.674883 18:-0.771429 19:0.636364 20:0.0967742 21:0.818182 22:-1 
0 0 0 1 0 0 0 0 0 0 0 0 1 0 0.8829715851276261 1:-0.428571 2:-0.555556 3:-1 5:-0.6 6:-1 7:-0.4 8:0.838384 9:-0.757576 10:-1 11:-0.833333 12:-0.621053 13:0.61039 14:-0.0909091 15:-0.0607029 16:-0.345455 17:-0.308461 18:-0.771429 19:-0.636364 20:0.354839 21:-0.636364 22:-0.0666667 
0 0 0 0.04328369910130044 0 0 0 0 0 0 0 0 0.07683363067575473 0 0 1:-0.428571 2:-0.555556 3:-1 5:-0.6 6:-1 7:-0.4 8:-0.717172 9:-0.757576 10:-1 11:-0.833333 12:-0.621053 13:0.61039 14:-0.0909091 15:-0.0607029 16:-0.344472 17:-0.308461 18:-0.771429 19:-0.272727 20:0.935484 21:-0.272727 22:-0.0666667 
1 0 0 1 1 1 1 1 1 1 0 0 1 0 0 1:-0.142857 2:-0.259259 3:-1 5:-0.6 6:1 7:-0.4 8:-0.69697 9:-0.757576 10:-1 11:-0.833333 12:-0.536842 13:-0.688312 14:-0.0909091 15:-0.865815 16:-0.465356 17:-0.596269 18:-0.771429 19:-0.636364 20:-0.419355 21:-0.454545 22:-1 
1 1 0 0 1 0 0 0 0 0 0 0 0 0 0 1:-0.142857 2:0.111111 3:-1 5:-0.6 6:1 7:-0.4 8:-0.69697 9:-0.757576 10:-1 11:-0.833333 12:-0.115789 13:-0.350649 14:-0.818182 15:-0.789137 16:-0.338575 17:-0.300466 18:-0.771429 19:0.272727 20:-0.225806 21:0.272727 22:-0.0666667 
1 0 1 0 1 0 0 0 0 0 0 0.4961638180684446 0 0 0 1:-1 2:-0.481481 3:-1 5:-0.6 6:1 7:-0.4 8:-0.737374 9:-0.757576 10:-1 11:-0.833333 12:-0.578947 13:-0.116883 14:-0.818182 15:-0.642173 16:0.931204 17:0.936043 18:-0.771429 19:0.818182 20:0.870968 21:0.818182 22:0.866667 
1 0 0 1 1 0.1248755235662289 0.1959157365041671 1 1 1 0 1 0.1686369761049475 0 0 1:-0.904762 2:0.111111 3:-1 5:-0.6 6:-1 7:-0.4 8:-0.777778 9:-0.878788 10:-1 11:-0.833333 12:-0.684211 13:-0.688312 14:-0.0909091 15:-0.105431 16:-0.690418 17:-0.676216 18:0.142857 19:-0.454545 20:-0.548387 21:-0.454545 22:-0.6 
0 0 0 0 1 0 0 0 1 0 0 0 0 0 0 1:-0.428571 2:-0.555556 3:-1 5:-0.6 6:-1 7:-0.4 8:-0.777778 9:-0.757576 10:-1 11:-0.833333 12:-0.621053 13:-0.454545 14:-0.0909091 15:-0.821086 16:-0.0663391 17:-0.0552965 18:-0.771429 19:0.0909091 20:-0.225806 21:0.0909091 22:-0.266667 
0 0 0 0 0 0 0 0 0 0 0 0 0 0 0.0160302107697554 1:-0.52381 2:-0.555556 3:-1 5:-0.6 6:-1 7:-0.4 8:0.878788 9:-0.757576 10:-1 11:-0.833333 12:-0.578947 13:-0.116883 14:-0.818182 15:-0.680511 16:-0.496806 17:-0.467022 18:-0.771429 19:-0.0909091 20:-0.741935 21:-0.0909091 22:-0.0666667 
1 1 1 0 1 0 0 0 0 0 0 0 0 0 0 1:0.52381 2:-0.259259 3:-1 5:-0.6 6:1 7:-0.4 8:-0.717172 9:-0.757576 10:-1 11:-0.833333 12:-0.136842 13:-0.350649 14:-0.818182 15:-0.789137 16:0.315971 17:0.315123 18:-0.771429 19:-0.636364 20:-0.548387 21:-0.454545 22:-1 
1 1 1 0 1 0 0 0 0 0 0 0 0 0 0 1:-0.142857 2:-0.703704 3:-1 5:-0.6 6:1 7:-0.4 8:-0.69697 9:-0.757576 10:-1 11:-0.833333 12:-0.115789 13:-0.87013 14:-0.272727 15:-0.667732 16:-0.512531 17:-0.484344 18:-0.771429 19:-0.636364 20:0.0322581 21:-0.636364 22:-0.0666667 
1 0 0 0 1 0 0 0 0 1 0 1 0 0 0 1:-1 2:-0.481481 3:-1 5:-0.6 6:-1 7:-0.4 8:-0.69697 9:-0.878788 10:-1 11:-0.833333 12:-0.705263 13:-0.116883 14:-0.818182 15:-0.642173 16:-0.897789 17:-0.88008 18:-0.0285714 19:-0.636364 20:-0.225806 21:-0.636364 22:-1 
1 0 0 1 1 0 0 0 0 0.6856941075408917 0 0 0 0 1 1:-0.904762 2:-0.703704 3:-1 5:-0.6 6:1 7:-0.4 8:-0.757576 9:-0.757576 10:-1 11:-0.833333 12:-0.6 13:-0.0909091 14:-0.272727 15:-0.616613 16:-0.653071 17:-0.62958 18:-0.771429 19:-0.454545 20:0.548387 21:-0.454545 22:-0.0666667 
1 0 0 0 1 0 0.6848231542036761 0 1 0 0 0 0 0 0 1:-0.142857 2:-0.703704 3:-1 5:-0.6 6:1 7:-0.4 8:-0.757576 9:-0.757576 10:-1 11:-0.833333 12:-0.157895 13:-0.688312 14:-0.0909091 15:-0.865815 16:-0.418182 17:-0.387075 18:-0.771429 19:-0.818182 20:0.806452 21:-0.636364 22:-1 
0 0 0 0 0 0 0 0 0 0 0 0 0 1 0 1:0.52381 2:-0.259259 3:-1 5:-0.6 6:-1 7:-0.4 8:0.858586 9:-0.878788 10:-1 11:-0.833333 12:-0.6 13:0.168831 14:-0.818182 15:0.0734824 16:-0.0299754 17:-0.0313125 18:-0.771429 19:0.454545 20:0.354839 21:0.454545 22:-0.0666667 
1 0 0 0 0 0 0 0 0 0 1 0 0 0 0 1:0.52381 2:0.111111 3:-1 5:-0.6 6:-1 7:-0.4 8:-0.69697 9:-0.757576 10:-1 11:-0.833333 12:-0.684211 13:-0.116883 14:-0.818182 15:-0.252396 16:-0.368059 17:-0.80946 18:-0.771429 19:-0.0909091 20:0.483871 21:-0.0909091 22:-0.0666667 
1 0 0 1 1 0 0 0 0 0 0 0 0 0 0 1:-0.904762 2:-0.703704 3:-1 5:-0.6 6:-1 7:-0.4 8:-0.69697 9:-0.878788 10:-1 11:-0.833333 12:-0.536842 13:-0.688312 14:-0.0909091 15:-0.105431 16:0.187224 17:0.193871 18:-0.771429 19:-1 20:-0.419355 21:-0.818182 22:-1 
1 0 0 1 1 0 0 0 1 1 0 0 1 0 0 1:-0.428571 2:-0.555556 3:-1 5:-0.6 6:-1 7:-0.4 8:-0.69697 9:-0.757576 10:-1 11:-0.833333 12:-0.684211 13:-0.454545 14:-0.0909091 15:-0.821086 16:-0.0663391 17:-0.0552965 18:-0.771429 19:-1 20:0.0322581 21:-1 
1 1 1 0 0 0 0 0 0 0 1 0 0 0 1 1:-0.52381 2:-0.555556 3:-1 5:-0.6 6:-1 7:-0.4 8:-0.79798 9:-0.757576 10:-1 11:-0.833333 12:-0.642105 13:-0.116883 14:-0.818182 15:-0.680511 16:-0.914496 17:-0.894737 18:-0.771429 19:-0.272727 20:0.741935 21:-0.272727 22:0.733333 
1 0 0 1 1 0 0 0 1 0 0 0 1 0 0 1:-0.142857 2:-0.259259 3:-1 5:-0.6 6:-1 7:-0.4 8:0.959596 9:-0.757576 10:-1 11:-0.833333 12:-0.494737 13:-0.688312 14:-0.0909091 15:-0.865815 16:-0.465356 17:-0.596269 18:-0.771429 19:1 20:-0.419355 21:1 22:-1 
1 0 1 0 0 0 0 0 0 0 0 0.8254076597839464 0 0 0 1:-0.142857 2:-0.703704 3:-1 5:-0.6 6:-1 7:-0.4 8:0.959596 9:-0.878788 10:-1 11:-0.833333 12:-0.494737 13:-0.844156 14:-0.0909091 15:-0.955272 16:0.537101 17:0.537642 18:-0.771429 19:0.818182 20:0.225806 21:0.818182 22:0.2 
1 0 0 1 0 0 0 0.1307144210087423 0 0 0 0 0 0 0 1:-1 2:-0.925926 3:-1 5:-0.6 6:-1 7:-0.4 8:-0.79798 9:-0.757576 10:-1 11:-0.833333 12:-0.642105 13:-0.844156 14:-0.0909091 15:0.70607 16:0.442752 17:0.44437 18:-0.771429 19:0.0909091 20:-0.419355 21:0.0909091 22:-0.0666667 
1 0 -0 0 0 0 0.596543864788453 0 0 1 0 0 0 0.3485914766023032 0 1:0.52381 2:-0.259259 3:-1 5:-0.6 6:1 7:-0.4 8:-0.737374 9:-0.878788 10:-1 11:-0.833333 12:-0.578947 13:0.168831 14:-0.818182 15:0.0734824 16:-0.0309582 17:-0.0313125 18:-0.542857 19:-0.454545 20:0.870968 21:-0.454545 22:0.866667 
1 0 0 0 1 0 0 0 0 0 0 0 0 0 0 1:-0.428571 2:-0.555556 3:-1 5:-0.6 6:1 7:-0.4 8:-0.737374 9:-0.757576 10:-1 11:-0.833333 12:-0.136842 13:-0.0909091 14:-0.272727 15:0.207668 16:0.450614 17:0.453698 18:-0.771429 19:0.454545 20:-0.354839 21:-0.818182 22:-0.0666667 
1 0 0.9733739314440835 1 1 0 0 0 0 0 0 0 0 0 0 1:-0.904762 2:-0.703704 3:-1 5:-0.6 6:-1 7:-0.4 8:-0.737374 9:-0.878788 10:-1 11:-0.833333 12:-0.578947 13:-0.688312 14:-0.0909091 15:-0.105431 16:0.187224 17:0.193871 18:-0.771429 19:-0.454545 20:-0.290323 21:-0.454545 22:-0.0666667 
1 0 0 1 1 0 1 0 1 1 0 0 1 0 0 1:-0.142857 2:0.111111 3:-1 5:-0.6 6:-1 7:-0.4 8:-0.717172 9:-0.878788 10:-1 11:-0.833333 12:-0.557895 13:-0.584416 14:-0.0909091 15:-0.853035 16:-0.635381 17:-0.609594 18:-0.771429 19:0.636364 20:-0.548387 21:0.636364 22:-0.6 
1 0 1 1 1 0 0 0 1 0 0 0 0 0 0 1:-1 2:-0.481481 3:-1 5:-0.6 6:1 7:-0.4 8:-0.69697 9:-0.757576 10:-1 11:-0.833333 12:-0.326316 13:-0.584416 14:-0.0909091 15:-0.392971 16:0.404423 17:0.156562 18:-0.771429 19:-0.454545 20:0.741935 21:-0.454545 22:0.733333 
1 0 0 0 1 0 1 0 0 0 0 0 0 0 0.1510520388749373 1:-0.904762 2:0.111111 3:-1 5:-0.6 6:-1 7:-0.4 8:0.878788 9:-0.757576 10:-1 11:-0.833333 12:-0.578947 13:-0.220779 14:-0.636364 15:-0.738019 16:0.561671 17:-0.28048 18:-0.771429 19:0.818182 20:-0.741935 21:0.818182 22:-1 
0 0 0 1 0 0 0 0 1 0 0 0 0 0 0 1:0.52381 2:-0.259259 3:-1 5:-0.6 6:-1 7:-0.4 8:-0.757576 9:-0.757576 10:-1 11:-0.833333 12:-0.178947 13:-0.0909091 14:-0.272727 15:0.175719 16:0.82801 17:0.845436 18:-0.771429 19:-0.818182 20:-0.548387 21:-0.818182 22:-0.0666667 
1 0 0 0 0 1 0.3377271457640842 1 0 1 0 0 1 0 0 1:0.52381 2:-0.259259 3:-1 5:-0.6 6:1 7:-0.4 8:-0.757576 9:-0.757576 10:-1 11:-0.833333 12:-0.6 13:-0.0909091 14:-0.272727 15:0.207668 16:0.756265 17:0.768155 18:-0.771429 19:-0.454545 20:0.483871 21:-0.454545 22:-0.0666667 
1 0 0 0 0 0 0 0.725388690275189 0 1 0 0 0 0 0 1:-0.904762 2:-0.703704 3:-1 5:-0.6 6:-1 7:-0.4 8:-0.79798 9:-0.757576 10:-1 11:-0.833333 12:-0.221053 13:0.922078 14:-0.272727 15:0.680511 16:0.823096 17:0.840107 18:-0.771429 19:0.454545 20:0.806452 21:0.636364 22:-1 
1 1 1 0 1 0 0 0 0 0 1 0 0 0 0 1:-0.142857 2:-0.703704 3:-1 5:-0.6 6:-1 7:-0.4 8:-0.858586 9:-0.757576 10:-1 11:-0.833333 12:-0.705263 13:-0.61039 14:-0.818182 15:-0.341853 16:-0.254054 17:-0.212525 18:-0.771429 19:0.636364 20:-0.419355 21:0.636364 22:-0.0666667 
0 0 0 1 0 0 0 0 0 0 0 0 0 0 0 1:-0.428571 2:-0.555556 3:-1 5:-0.6 6:-1 7:-0.4 8:-0.69697 9:-0.757576 10:-1 11:-0.833333 12:-0.642105 13:0.61039 14:-0.0909091 15:-0.0607029 16:-0.344472 17:-0.308461 18:-0.771429 19:-0.636364 20:-0.677419 21:-0.636364 22:-0.733333 
1 0 0 0 0.005242601824952444 0 0 1 0 1 0 0 0 0 0 1:-0.428571 2:-0.555556 3:-1 5:-0.6 6:1 7:-0.4 8:-0.737374 9:-0.757576 10:-1 11:-0.833333 12:-0.578947 13:-0.0909091 14:-0.272727 15:0.207668 16:0.450614 17:0.453698 18:-0.771429 19:-0.454545 20:-0.677419 21:-0.454545 22:-1 
0 0 0 0 0 0 0 0 0.2409690761844209 0 0 0 0 0 0 1:0.52381 2:-0.259259 3:-1 5:-0.6 6:-1 7:-0.4 8:-0.89899 9:-0.757576 10:-1 11:-0.833333 12:-0.326316 13:-0.0909091 14:-0.272727 15:0.207668 16:0.756265 17:0.768155 18:-0.771429 19:0.636364 20:-0.612903 21:0.636364 22:-0.0666667 
1 0 0 0 0 0 0 0 0 0 0 0 0 1 0 1:-0.904762 2:-0.703704 3:-1 5:-0.6 6:-1 7:-0.4 8:-0.79798 9:-0.757576 10:-1 11:-0.833333 12:-0.242105 13:-0.116883 14:-0.818182 15:0.929712 16:0.834889 17:0.852099 18:-0.771429 19:0.0909091 20:-0.612903 21:0.818182 22:-1 
1 1 1 0 1 0 0 0 0 0 1 0 0 0 0 1:-1 2:0.111111 3:-1 5:-0.6 6:1 7:-0.4 8:-0.737374 9:-0.757576 10:-1 11:-0.833333 12:-0.157895 13:-0.948052 14:-0.818182 15:-0.00319489 16:-0.208845 17:-0.168554 18:-0.771429 19:-1 20:0.612903 21:-1 22:0.6 
1 1 1 0 1 0 0 0 0 0 0 1 0 0 0 1:-0.904762 2:0.111111 3:-1 5:-0.6 6:-1 7:-0.4 8:-0.838384 9:-0.878788 10:-1 11:-0.833333 12:-0.642105 13:-0.948052 14:-0.818182 15:-0.527157 16:0.679607 17:0.686875 18:-0.771429 19:-1 20:0.0322581 21:-1 22:-0.0666667 
0 1 0 0 1 0 0 0 0 0 0 0 0 0 0 1:-0.142857 2:0.111111 3:-1 5:-0.6 6:-1 7:-0.4 8:-0.79798 9:-0.757576 10:-1 11:-0.833333 12:-0.221053 13:-0.350649 14:-0.818182 15:-0.789137 16:-0.338575 17:-0.300466 18:-0.771429 19:0.636364 20:-0.548387 21:0.636364 22:-0.0666667 
1 0 0 0 1 0 0 0 1 0 0 0 0 0 0 1:-0.428571 2:-0.555556 3:-1 5:-0.6 6:-1 7:-0.4 8:-0.69697 9:-0.757576 10:-1 11:-0.833333 12:-0.684211 13:-0.454545 14:-0.0909091 15:-0.821086 16:-0.0663391 17:-0.0552965 18:-0.771429 19:0.0909091 20:-0.0967742 21:0.0909091 22:-0.2 
1 1 1 0 1 0 0 0 0 0 0 0 0 0 0 1:-0.142857 2:-0.703704 3:-1 5:-0.6 6:-1 7:-0.4 8:-0.757576 9:-0.878788 10:-1 11:-0.833333 12:-0.705263 13:-0.558442 14:-0.818182 15:-0.533546 16:0.0358722 17:0.0393071 18:-0.771429 19:-0.636364 20:-0.0322581 21:-0.636364 22:-0.0666667 
1 1 1 0 1 0 0 0 0 0 1 0 0 0 0 1:-1 2:0.111111 3:-1 5:-0.6 6:-1 7:-0.4 8:-1 9:-0.757576 10:-1 11:-0.833333 12:-0.431579 13:-0.948052 14:-0.818182 15:-0.00319489 16:-0.208845 17:-0.168554 18:-0.771429 19:0.454545 20:0.16129 21:0.454545 22:-0.0666667 
1 0 1 0 1 0 0 0 0 0 0 0 0 0 0 1:-1 2:-0.481481 3:-1 5:-0.6 6:-1 7:-0.4 8:-0.69697 9:-0.878788 10:-1 11:-0.833333 12:-0.684211 13:-0.948052 14:-0.818182 15:-0.00319489 16:0.42801 17:0.431046 18:-0.771429 19:0.0909091 20:-0.870968 21:0.0909091 22:-0.933333 
1 0 0 1 0 0 0 0 0.4753353689681707 0 0 0 0 0 0 1:-1 2:-0.481481 3:-1 5:-0.6 6:-1 7:-0.4 8:-0.717172 9:-0.878788 10:-1 11:-0.833333 12:-0.705263 13:-0.584416 14:-0.0909091 15:0.853035 16:0.690418 17:0.7002 18:-0.771429 19:-0.272727 20:0.806452 21:-0.272727 22:0.8 
1 0.2576898824213821 1 0 0 0 0 0 1 0 0 0 0 0 0 1:0.904762 2:-0.62963 3:-1 5:-0.6 6:1 7:-0.4 8:-0.979798 9:-0.878788 10:-0.6 11:-0.666667 12:-0.2 13:-0.116883 14:-0.818182 15:-0.680511 16:0.849631 17:0.865423 18:-0.771429 19:-0.0909091 20:0.870968 21:-0.0909091 22:0.333333 
1 1 1 0 1 0 0 0 0 0 0.3402242980832464 0 0 0 0 1:-0.904762 2:-0.703704 3:-1 5:-0.6 6:-1 7:-0.4 8:-0.838384 9:-0.757576 10:-1 11:-0.833333 12:-0.242105 13:-0.948052 14:-0.818182 15:-0.00319489 16:0.675676 17:0.682878 18:-0.771429 19:-0.272727 20:0.419355 21:-1 22:0.666667 
0 0 -0 1 0 0 0 0 1 0 0 0 0 0 0.5101014626932302 1:-0.428571 2:-0.555556 3:-1 5:-0.6 6:-1 7:-0.4 8:-1 9:-0.757576 10:-1 11:-0.833333 12:-0.431579 13:-0.454545 14:-0.0909091 15:-0.821086 16:-0.0673219 17:-0.0552965 18:-0.771429 19:-0.272727 20:-0.935484 21:-0.272727 22:-0.0666667 
1 0 0 1 1 0.3799476805595491 1 0 1 1 0 0 0.8619726518262 0 0 1:-0.142857 2:-0.259259 3:-1 5:-0.6 6:1 7:-0.4 8:-0.69697 9:-0.757576 10:-1 11:-0.833333 12:-0.115789 13:-0.688312 14:-0.0909091 15:-0.865815 16:-0.465356 17:-0.596269 18:-0.771429 19:-0.636364 20:-0.419355 21:-0.454545 22:-1 
1 0 0 0 1 0 0 0.6097790087478039 0 0 1 0 0 0 0 1:-1 2:-0.481481 3:-1 5:-0.6 6:-1 7:-0.4 8:-0.79798 9:-0.878788 10:-1 11:-0.833333 12:-0.642105 13:-0.116883 14:-0.818182 15:-0.680511 16:-0.82801 17:-0.88008 18:-0.771429 19:0.454545 20:-0.0967742 21:0.454545 22:-0.0666667 
