svm_type c_svc
kernel_type rbf
gamma 0.047619
nr_class 16
total_sv 5642
rho -0.665169 0.625988 0.62103 1.12986 0.960691 0.579087 1.06156 -0.631363 -0.0241473 0.467535 -0.453582 0.809622 0.375142 -0.734353 -0.264893 0.132068 0.890204 1.38459 1.94554 1.09026 0.545669 0.0996697 0.0379727 0.594955 0.473899 -0.102746 0.736436 0.114956 0.194549 -1.12052 4.7032 3.39835 -0.0969111 1.08178 -0.700045 -0.469744 0.152784 -0.5932 1.71778 0.222077 -1.53301 -0.264397 4.35733 0.200372 -0.17944 4.32642 -0.734479 -0.425365 0.22922 -0.607666 0.972961 0.139341 -0.455668 -0.589749 -0.830147 -0.984968 -0.852855 -5.93835 -1.07679 -1.4064 -1.02672 -2.392 -0.796472 -1.23188 -1.76992 -0.418544 0.293383 -1.38585 -0.42307 -0.627686 -0.868702 -2.63896 -0.021258 -0.504431 -0.264646 0.685903 -1.01233 -0.550927 0.0803513 -0.365814 -0.054197 0.131281 -0.568596 -0.438743 -1.52568 -0.660141 -0.647493 -0.846629 0.990355 -0.355579 -0.249411 0.0309585 0.0117506 0.530344 0.128969 1.83796 0.485848 -0.304835 0.229884 0.509468 0.327417 0.447514 0.298958 -0.312437 0.0764345 -0.183303 0.889293 0.42441 -0.801286 -0.436786 0.583238 0.344496 -0.487477 -0.16824 0.163745 -0.717939 -0.687146 -0.704123 -0.366579 0.316657
label 10 9 3 2 1 7 11 4 5 12 8 13 6 16 15 14
nr_sv 174 166 783 996 1023 380 144 551 510 63 135 89 412 62 81 73
SV
1 1 1 1 1 1 1 1 0 1 1 1 0 0 0 1:0.297074 2:0.761876 3:0.418378 4:0.737284 5:0.14785 6:-0.150514 7:0.542142 8:-0.208209 9:0.05862 10:0.00431406 11:-0.0730886 12:-0.696594 13:0.725866 14:-0.188579 15:-0.00732197 16:0.678158 17:-0.0948598 18:0.645015 19:0.382197 20:-0.403579 21:0.953001 
0 1 1 1 1 1 1 1 1 1 0 1 0 0.536968026406919 0 1:0.703497 2:0.727642 3:0.621835 4:0.670961 5:-0.409356 6:0.835275 7:0.609872 8:-0.0717935 9:0.628152 10:0.742137 11:0.0115112 12:-0.739943 13:0.0452667 14:0.0315631 15:0.0539762 16:0.636323 17:-0.169542 18:0.342851 19:-0.0892648 20:-0.401195 21:0.95306 
0.4825587157818653 1 1 1 1 0 1 1 1 0.19933774084654 0 1 0 0 0 1:-0.724181 2:0.749502 3:0.70162 4:0.817952 5:-0.608984 6:0.463731 7:0.715588 8:0.392616 9:0.624521 10:0.12499 11:-0.0850039 12:-0.717424 13:0.72932 14:-0.178673 15:-0.463774 16:0.602688 17:-0.113189 18:0.567362 19:-0.334313 20:-0.402194 21:0.9545 
1 1 1 1 1 1 0 1 0 0 0.3088830644117493 1 0 0 0 1:0.495279 2:0.748268 3:0.460471 4:0.747332 5:-0.333818 6:-0.00399687 7:0.631565 8:0.0437723 9:-0.0837375 10:0.0276613 11:0.232245 12:-0.704185 13:0.739682 14:-0.237738 15:-0.490591 16:0.657862 17:-0.124859 18:0.55454 19:0.437074 20:-0.404033 21:0.953922 
1 1 1 1 1 1 0 1 0 0 0 1 0 1 0 1:0.0835585 2:0.736963 3:0.611534 4:0.70068 5:-0.551749 6:0.343588 7:0.553002 8:0.358351 9:0.766024 10:0.70285 11:0.494929 12:-0.769583 13:0.752994 14:-0.23823 15:0.0661696 16:0.60241 17:-0.0851052 18:0.480452 19:0.539931 20:-0.402856 21:0.955063 
1 1 1 1 1 1 0.728181247559037 1 1 0 0 1 0 0 0 1:-0.464373 2:0.738468 3:0.672948 4:0.825933 5:-0.579272 6:0.115377 7:0.677685 8:0.157765 9:-0.228045 10:0.085802 11:0.476215 12:-0.724346 13:0.737476 14:-0.236807 15:-0.41224 16:0.642541 17:-0.133673 18:0.657625 19:-0.334345 20:-0.402543 21:0.953887 
1 1 1 1 1 1 1 1 0 0 0 1 0 0 0 1:-0.336211 2:0.732879 3:0.890416 4:0.67892 5:-0.10271 6:0.133505 7:0.557978 8:-0.815067 9:0.706249 10:0.602793 11:0.485686 12:-0.773638 13:0.728202 14:-0.383003 15:0.0310096 16:0.6017 17:-0.0865256 18:0.556157 19:0.494311 20:-0.40261 21:0.954471 
1 1 1 1 1 1 1 1 1 1 0 1 1 0 0 1:-0.0363438 2:0.320683 3:0.772398 4:0.660957 5:-0.124326 6:0.172371 7:0.563094 8:0.0226119 9:0.0596724 10:-0.31867 11:0.461507 12:-0.558858 13:0.517788 14:-0.288267 15:0.0136527 16:0.707216 17:-0.144196 18:0.620813 19:-0.334329 20:-0.402315 21:0.953219 
0 1 1 1 1 1 0 1 0 0 0 1 0 0 0 1:-0.724178 2:0.749472 3:0.701366 4:0.663497 5:-0.593321 6:0.118622 7:0.647419 8:0.134115 9:0.621124 10:0.153975 11:0.32907 12:-0.740321 13:0.731826 14:-0.21346 15:0.368258 16:0.627075 17:-0.0962769 18:0.58665 19:0.451522 20:-0.403764 21:0.955229 
1 1 1 1 1 0 0 1 0 1 1 1 1 0 0 1:0.249044 2:0.773563 3:-0.32487 4:0.779015 5:0.309249 6:0.40149 7:0.502134 8:-0.478893 9:0.431632 10:0.219197 11:0.116515 12:-0.694295 13:0.700457 14:-0.400312 15:0.0776448 16:0.631129 17:-0.131217 18:0.357665 19:0.235761 20:-0.401581 21:0.953478 
1 1 1 1 0 1 0 1 0 0 0 1 0 0 1 1:-0.371723 2:0.743702 3:0.668542 4:0.671536 5:-0.56518 6:0.401101 7:0.609027 8:0.356269 9:0.0812655 10:0.0140899 11:-0.750236 12:-0.44969 13:0.695438 14:-0.0923732 15:0.0437608 16:0.598848 17:0.420493 18:0.676364 19:0.340574 20:-0.404643 21:0.953595 
0 1 1 1 1 0 1 1 0 0.8445076878657746 1 1 0 1 1 1:-0.562762 2:0.740835 3:0.31028 4:0.678897 5:-0.246653 6:0.101131 7:0.553805 8:0.109944 9:0.621177 10:0.218527 11:0.603593 12:-0.47319 13:0.715902 14:-0.146695 15:0.0421429 16:0.607281 17:0.107752 18:0.551037 19:0.357881 20:-0.403616 21:0.954413 
1 1 1 1 1 1 1 1 0 1 0 1 1 0 0 1:0.76909 2:0.72501 3:0.523566 4:0.754966 5:0.132379 6:0.0742373 7:0.533059 8:-0.0588016 9:-0.252342 10:-0.360087 11:-0.339821 12:-0.63433 13:0.72286 14:-0.389071 15:0.0777639 16:0.708576 17:-0.101126 18:0.635013 19:0.321906 20:-0.403626 21:0.952999 
1 1 1 1 0 1 1 1 0 0 0 1 0 0 0 1:-0.856057 2:0.755104 3:0.716392 4:0.627216 5:-0.642034 6:0.752838 7:0.517057 8:-0.0927387 9:0.172047 10:0.709255 11:-0.116306 12:-0.809052 13:0.703723 14:-0.211308 15:-0.167275 16:0.554885 17:-0.100589 18:0.599613 19:0.546366 20:-0.403454 21:0.954414 
1 1 1 1 1 0 1 1 1 1 0 1 0 0 1 1:0.0835602 2:0.736966 3:0.611317 4:0.665915 5:-0.543719 6:0.203998 7:0.612946 8:0.242109 9:0.759719 10:0.71279 11:0.485838 12:-0.77356 13:0.755362 14:-0.241178 15:0.0551917 16:0.623285 17:-0.0956848 18:0.470574 19:-0.258294 20:-0.400807 21:0.954435 
0.08658487594447031 1 1 1 1 1 1 1 0 1 0 1 0 1 0 1:0.683757 2:0.732618 3:0.370319 4:0.746846 5:0.157418 6:0.315686 7:0.527303 8:0.173105 9:0.631921 10:0.593427 11:-0.444376 12:-0.724039 13:0.739259 14:-0.205977 15:-0.0391697 16:0.633486 17:-0.0698965 18:0.519647 19:0.481397 20:-0.402417 21:0.953251 
0 1 1 1 1 0.3921797793421374 1 1 1 1 1 1 0 0 1 1:0.70349 2:0.727561 3:0.623629 4:0.726734 5:-0.422994 6:0.659595 7:0.154743 8:-0.166856 9:0.647583 10:0.711584 11:0.469906 12:-0.753186 13:0.02451 14:0.0573055 15:0.0482877 16:0.635156 17:-0.145304 18:0.382211 19:-0.20253 20:-0.401437 21:0.952838 
1 1 1 1 1 1 1 1 1 1 0 1 0 0 0 1:0.0585138 2:0.735967 3:0.601314 4:0.694271 5:0.0780397 6:0.538175 7:0.519696 8:0.314501 9:0.79983 10:0.208004 11:0.441845 12:-0.670008 13:0.741602 14:-0.396775 15:0.0422121 16:0.622207 17:-0.0700752 18:0.532927 19:0.427698 20:-0.402702 21:0.954392 
0 1 1 1 1 1 1 1 1 1 0 1 0 0 1 1:0.94796 2:0.720559 3:0.645077 4:0.724486 5:-0.201462 6:-0.392749 7:0.52942 8:-0.340878 9:0.0975486 10:0.161346 11:0.109037 12:-0.650541 13:0.737071 14:0.0640293 15:0.264319 16:0.730281 17:-0.141825 18:0.635726 19:-0.338102 20:-0.401318 21:0.952196 
1 1 0 1 1 1 1 1 1 0 0 1 0 0 0 1:0.5401 2:0.733684 3:0.678861 4:0.719892 5:-0.280653 6:0.0646041 7:0.694304 8:0.0367782 9:-0.0687759 10:-0.135236 11:-0.607762 12:-0.725375 13:-0.32203 14:-0.451972 15:0.0927625 16:0.698969 17:-0.156686 18:0.397331 19:0.605232 20:-0.40604 21:0.954443 
1 1 1 1 0 1 0 1 0 0 0 1 0 0 0 1:-0.464371 2:0.738482 3:0.672067 4:0.708104 5:-0.589925 6:0.460493 7:0.634661 8:0.425106 9:-0.278587 10:-0.136153 11:-0.482409 12:-0.635762 13:0.70914 14:-0.189807 15:0.118188 16:0.636027 17:0.0202225 18:0.703133 19:0.407412 20:-0.404614 21:0.95395 
1 1 1 1 1 1 1 1 0.5226981227347819 1 0 1 0 0 1 1:0.0835548 2:0.736977 3:0.612414 4:0.880218 5:-0.546157 6:0.0187355 7:0.675918 8:0.0564663 9:0.741898 10:0.653458 11:-0.152079 12:-0.762224 13:0.747723 14:-0.209184 15:-0.900091 16:0.598642 17:-0.117355 18:0.464946 19:-0.268984 20:-0.401797 21:0.954354 
1 1 1 1 1 1 0 1 0 0 0 1 0 1 0 1:0.0835606 2:0.736986 3:0.610492 4:0.676969 5:-0.565843 6:0.038159 7:0.601402 8:-0.693564 9:0.688527 10:0.751823 11:0.449435 12:-0.831833 13:0.732358 14:-0.179196 15:0.0703137 16:0.608429 17:-0.110438 18:0.439964 19:0.514407 20:-0.402458 21:0.954677 
0.7794468312791308 1 1 1 1 1 1 1 0 1 1 0 1 0 1 1:0.50253 2:0.753144 3:0.00194355 4:0.735935 5:0.381001 6:0.305388 7:0.559647 8:0.182907 9:-0.179429 10:-0.0668912 11:0.255523 12:-0.395243 13:0.712809 14:-0.082489 15:-0.129948 16:0.641033 17:0.412404 18:0.630055 19:0.24769 20:-0.403294 21:0.951812 
1 1 1 1 1 0 1 1 0.6544523378686053 1 1 1 0 0 0 1:0.108535 2:0.744036 3:0.154195 4:0.749164 5:0.0431902 6:-0.073551 7:0.490201 8:-0.0316017 9:0.110647 10:0.673407 11:-0.0617579 12:-0.707562 13:0.730915 14:-0.496879 15:-0.846887 16:0.613017 17:-0.122052 18:0.492423 19:-0.36606 20:-0.401538 21:0.953432 
1 1 1 1 1 1 1 1 0 1 0.6837081039521808 1 1 0 0 1:0.769092 2:0.725022 3:0.523052 4:0.738178 5:0.13098 6:0.232119 7:0.605435 8:0.0830977 9:-0.229214 10:-0.304147 11:0.0876691 12:-0.627035 13:0.735386 14:-0.364315 15:-0.759521 16:0.67145 17:-0.113309 18:0.601002 19:0.392713 20:-0.404053 21:0.95316 
1 1 1 1 1 1 1 1 0.2268575058032786 0 0 1 0.3087400726762858 0 0 1:0.279083 2:0.759945 3:0.816989 4:0.720487 5:-0.0954766 6:0.594588 7:0.598153 8:0.3694 9:0.179019 10:0.014744 11:0.384802 12:-0.601481 13:0.743 14:-0.370208 15:0.376502 16:0.651751 17:0.0493462 18:0.640389 19:0.423933 20:-0.403056 21:0.953894 
0 1 0.715111909004341 1 0 0 1 0 0 1 1 0 1 1 0 1:-0.580798 2:0.755082 3:-0.327328 4:0.836359 5:-0.349477 6:0.107829 7:0.551803 8:0.288439 9:-0.254231 10:-0.143302 11:-0.143971 12:-0.708651 13:0.687632 14:0.313411 15:0.0567317 16:0.600711 17:0.642562 18:0.667797 19:0.137142 20:-0.404333 21:0.951969 
1 1 0 1 1 0 0 0 0 1 1 0 0 1 1 1:-0.780443 2:0.757366 3:-0.0443459 4:0.742149 5:-0.9275 6:-0.37835 7:0.548364 8:0.0329165 9:-0.375334 10:0.0841987 11:0.544323 12:-0.785456 13:0.709298 14:-0.0181582 15:0.0263301 16:0.660718 17:-0.164994 18:0.569335 19:-0.462876 20:-0.402644 21:0.953948 
1 1 1 1 1 1 1 1 0 0 0 1 0 0 1 1:-0.464369 2:0.738489 3:0.671125 4:0.718042 5:-0.623668 6:0.789452 7:0.591738 8:-0.0914762 9:-0.0042784 10:0.718169 11:-0.683395 12:-0.541422 13:0.688446 14:-0.104417 15:0.0141138 16:0.559131 17:0.40759 18:0.623538 19:-0.373476 20:-0.401354 21:0.952704 
1 1 1 1 1 1 1 1 0 1 1 1 1 1 0 1:0.933983 2:0.724502 3:0.597007 4:0.694161 5:-0.387996 6:0.352889 7:0.563609 8:-0.489433 9:-0.0758318 10:-0.0185801 11:-0.36162 12:-0.773674 13:0.709807 14:0.0555288 15:0.0799801 16:0.680326 17:-0.108093 18:0.566928 19:0.428871 20:-0.402965 21:0.952573 
1 1 1 1 1 1 1 1 0.9280849714641513 1 0.02430444516336886 1 1 0 0 1:0.688547 2:0.728988 3:0.533287 4:0.735544 5:0.143572 6:-0.401605 7:0.538032 8:-0.439327 9:-0.176633 10:-0.320979 11:0.214647 12:-0.653335 13:0.731468 14:-0.39639 15:0.0486082 16:0.718785 17:-0.108977 18:0.626392 19:0.317138 20:-0.40375 21:0.953285 
1 1 1 1 1 1 1 1 0 1 1 1 0 1 0.9795405233917404 1:0.933981 2:0.724472 3:0.598575 4:0.780766 5:-0.357807 6:0.180723 7:0.598959 8:0.167611 9:0.00590619 10:-0.00989994 11:0.236378 12:-0.728792 13:0.746455 14:-0.023991 15:0.0457787 16:0.688983 17:-0.0995223 18:0.595239 19:0.459098 20:-0.403376 21:0.953256 
1 1 1 1 1 1 0 1 0 0 0 1 0 0 0 1:-0.724179 2:0.749502 3:0.700774 4:0.751587 5:-0.622317 6:0.0617621 7:0.656351 8:-0.724365 9:0.544284 10:0.158489 11:-0.126939 12:-0.785417 13:0.701035 14:-0.117864 15:-0.295186 16:0.616821 17:-0.129858 18:0.540381 19:-0.389141 20:-0.401803 21:0.954016 
0.05459381127075331 1 1 1 1 1 1 1 1 1 1 1 0.3794556465360234 1 1 1:0.947961 2:0.720603 3:0.644044 4:0.704272 5:-0.223492 6:0.410697 7:0.584829 8:0.305778 9:0.109623 10:0.151984 11:-0.160645 12:-0.625802 13:0.737615 14:0.0656149 15:0.488355 16:0.711579 17:-0.129342 18:0.631006 19:-0.300845 20:-0.40075 21:0.952111 
1 1 1 1 1 1 1 1 0 1 1 1 0 1 0 1:0.298177 2:0.76154 3:0.417803 4:0.693899 5:0.135301 6:0.216919 7:0.47567 8:0.106676 9:0.0785067 10:0.0424869 11:0.225361 12:-0.578776 13:0.722871 14:-0.127123 15:0.0273003 16:0.669168 17:-0.134299 18:0.648689 19:0.414744 20:-0.403367 21:0.952954 
0.7764489367083479 1 1 1 0 1 1 1 0 0 0 1 0 0 0.4835381074464543 1:-0.464369 2:0.738449 3:0.672273 4:0.710304 5:-0.585828 6:0.451284 7:0.6245 8:0.425891 9:0.121427 10:0.669568 11:-0.593204 12:-0.497661 13:0.713653 14:-0.175019 15:0.052166 16:0.561996 17:0.425478 18:0.657414 19:0.455209 20:-0.40409 21:0.953923 
1 1 1 1 1 0 1 1 1 1 0 1 0 0 1 1:0.703494 2:0.72754 3:0.625411 4:0.751235 5:-0.319662 6:-0.649 7:0.650525 8:0.0783691 9:0.712504 10:0.693563 11:0.47742 12:-0.694107 13:0.0914831 14:-0.112432 15:0.0542419 16:0.697715 17:-0.167325 18:0.414904 19:-0.103274 20:-0.402737 21:0.954084 
1 1 1 1 1 1 1 1 1 0 0.6985654013467055 1 0.9883466652845578 0 0 1:-0.638301 2:0.741727 3:0.691774 4:0.818191 5:-0.602917 6:0.426753 7:0.675641 8:0.385012 9:-0.130229 10:-0.226753 11:0.325297 12:-0.697929 13:0.726825 14:-0.210845 15:0.20141 16:0.661872 17:-0.122531 18:0.680444 19:-0.401719 20:-0.402204 21:0.953903 
0.5264782525354658 1 1 1 1 0 1 1 0.1124612908511616 0 0 1 0 0 0 1:-0.771918 2:0.746708 3:0.705534 4:0.728753 5:-0.62846 6:0.347788 7:0.601898 8:-0.454972 9:0.73511 10:0.76883 11:0.61556 12:-0.82779 13:0.725493 14:-0.196707 15:0.0768961 16:0.585272 17:-0.110944 18:0.504899 19:-0.287969 20:-0.40065 21:0.954473 
1 1 0 1 0 1 0 0 0 0 1 0 0 1 0 1:-0.818969 2:0.762279 3:0.146788 4:0.669598 5:-0.904999 6:-0.37735 7:0.539565 8:-0.0289914 9:-0.0759495 10:-0.132622 11:0.569809 12:-0.753439 13:0.707747 14:-0.118759 15:0.0172849 16:0.647174 17:-0.150254 18:0.55302 19:0.320215 20:-0.40487 21:0.955089 
0 1 1 1 1 1 1 1 1 1 1 1 0 0.2000674762983521 1 1:0.947962 2:0.720583 3:0.644416 4:0.707223 5:-0.207468 6:-0.0663801 7:0.608497 8:-0.07202 9:0.116221 10:0.204583 11:0.395547 12:-0.642065 13:0.748552 14:0.0649625 15:0.118585 16:0.713054 17:-0.143995 18:0.615952 19:-0.287846 20:-0.401115 21:0.952326 
0 1 0 1 1 1 0 0 0 0 1 0 1 1 0 1:-0.780443 2:0.757422 3:-0.0457055 4:0.792977 5:-0.964618 6:-0.0395096 7:0.618585 8:-0.503211 9:-0.440198 10:0.108832 11:0.162855 12:-0.820236 13:0.685419 14:0.0716817 15:-0.523232 16:0.625302 17:-0.189035 18:0.517256 19:-0.454718 20:-0.402427 21:0.95345 
0 1 1 1 1 0 0 1 0 0 0.5011938192414243 1 0 1 0.869986837889354 1:-0.815582 2:0.760803 3:0.176888 4:0.677651 5:-0.961415 6:0.0743772 7:0.501559 8:-0.41434 9:0.629052 10:0.767639 11:-0.543006 12:-0.737118 13:0.681374 14:-0.0282079 15:-0.413024 16:0.573752 17:-0.19057 18:0.405665 19:-0.357964 20:-0.401686 21:0.954421 
1 1 1 1 1 0 1 1 1 1 0 1 0 0 1 1:-0.560225 2:0.739833 3:0.573288 4:0.77508 5:-0.405369 6:0.0479511 7:0.624499 8:0.02982 9:0.656378 10:0.119772 11:0.041163 12:-0.644556 13:0.720709 14:-0.205795 15:0.0208425 16:0.620071 17:0.178089 18:0.572636 19:-0.464347 20:-0.401833 21:0.953951 
1 1 1 1 1 1 0 1 0 0 0 1 0 0 0 1:0.560401 2:0.737782 3:0.561106 4:0.756346 5:-0.509966 6:-0.123604 7:0.614504 8:-0.0192478 9:-0.285059 10:0.0401337 11:0.0991614 12:-0.726233 13:0.73842 14:-0.217173 15:-0.156869 16:0.677899 17:-0.124656 18:0.59253 19:0.442627 20:-0.404109 21:0.953888 
1 1 1 1 1 1 1 1 0 0 0 1 1 0 0 1:0.544686 2:0.734455 3:0.678083 4:0.671062 5:-0.296327 6:0.410172 7:0.553837 8:0.316733 9:-0.118863 10:-0.162054 11:0.0713293 12:-0.598295 13:0.729894 14:-0.361756 15:0.117886 16:0.666741 17:0.0295506 18:0.604076 19:0.38084 20:-0.403681 21:0.953802 
1 1 1 1 1 1 1 1 1 0 0 1 0 0 0 1:-0.715889 2:0.748024 3:0.688345 4:0.675026 5:0.043418 6:0.174795 7:0.517126 8:0.0111539 9:0.660071 10:0.0904422 11:0.479622 12:-0.675593 13:0.727793 14:-0.413532 15:-0.000762564 16:0.617275 17:-0.0775439 18:0.625846 19:0.399981 20:-0.403619 21:0.954643 
1 1 1 1 0 1 1 1 0 0 1 1 1 0 0 1:-0.901088 2:0.753201 3:0.349012 4:0.662296 5:-0.298756 6:0.506882 7:0.572326 8:-0.338102 9:-0.383098 10:-0.0421199 11:-0.166696 12:-0.733162 13:0.682829 14:-0.231534 15:0.0522308 16:0.619844 17:-0.130352 18:0.654349 19:0.35879 20:-0.403806 21:0.953529 
1 1 0 1 1 0 0 1 0 0 1 0 0 1 0 1:-0.758117 2:0.758638 3:0.159883 4:0.721425 5:-0.957919 6:0.48445 7:0.59814 8:-0.112622 9:0.0200593 10:0.833972 11:-0.147317 12:-0.843867 13:0.702103 14:-0.149771 15:-0.148222 16:0.559646 17:-0.14714 18:0.461618 19:0.493033 20:-0.403312 21:0.954825 
1 1 1 1 1 0 1 1 0 1 0 1 0 0 0 1:0.317734 2:0.757733 3:0.588664 4:0.83608 5:-0.574763 6:0.68121 7:0.678266 8:-0.19579 9:0.692985 10:0.731197 11:0.107041 12:-0.805321 13:0.736664 14:-0.168843 15:0.0291869 16:0.608792 17:-0.116426 18:0.412304 19:-0.285775 20:-0.39988 21:0.95388 
0.1341107272595611 1 1 1 1 1 1 1 1 1 0 1 0 0 1 1:0.947961 2:0.720576 3:0.644797 4:0.729381 5:-0.197455 6:-0.398832 7:0.634957 8:-0.357146 9:0.0953123 10:0.176444 11:0.101084 12:-0.649519 13:0.74394 14:0.0557736 15:0.263043 16:0.731734 17:-0.149027 18:0.625749 19:-0.314029 20:-0.401249 21:0.952288 
1 1 0 1 1 0 0 0 0 0 1 0 0.723709815590683 1 0 1:-0.922997 2:0.765616 3:-0.713915 4:0.823996 5:-0.680882 6:0.161541 7:0.536167 8:-0.275695 9:-0.189985 10:0.901477 11:-0.608263 12:-0.840001 13:0.675263 14:-0.136976 15:-0.153965 16:0.563767 17:-0.179994 18:0.377151 19:0.338783 20:-0.403043 21:0.954214 
1 1 0 1 1 1 0 0 0 0 1 0 1 1 1 1:0.493176 2:0.756599 3:-0.183699 4:0.716812 5:-0.853476 6:-0.349077 7:0.512279 8:0.0686671 9:-0.292497 10:0.0292944 11:0.236465 12:-0.77522 13:0.717387 14:0.0287057 15:0.0524608 16:0.684603 17:-0.156199 18:0.455372 19:0.32823 20:-0.403972 21:0.953964 
1 1 0 1 1 1 0 0 0 0 1 0 1 1 1 1:0.460502 2:0.756219 3:0.0268026 4:0.731613 5:-0.875822 6:-0.247159 7:0.540663 8:-0.723151 9:-0.172108 10:0.0496728 11:0.213075 12:-0.544469 13:0.685051 14:0.079146 15:0.0833498 16:0.639682 17:0.352041 18:0.443885 19:0.20571 20:-0.403635 21:0.953359 
1 1 1 1 1 1 0.7133609904228597 1 0 1 1 1 1 0 0 1:0.249044 2:0.773569 3:-0.32482 4:0.79949 5:0.307822 6:0.408269 7:0.521044 8:-0.485708 9:0.415009 10:0.168728 11:-0.451311 12:-0.685637 13:0.690188 14:-0.381574 15:-0.266849 16:0.620922 17:-0.134909 18:0.359767 19:0.234149 20:-0.40204 21:0.953314 
0 1 1 1 1 0.6525258779712265 1 1 0 0.996601619804323 1 1 0 1 0.6599288840146418 1:-0.562761 2:0.740842 3:0.310168 4:0.680855 5:-0.24505 6:0.0986978 7:0.59602 8:0.103437 9:0.620282 10:0.224566 11:0.600412 12:-0.472782 13:0.71865 14:-0.149997 15:0.0416324 16:0.607863 17:0.10487 18:0.547046 19:0.367511 20:-0.403588 21:0.95445 
1 1 1 1 1 1 1 1 1 1 0 1 0 0 1 1:0.703494 2:0.727618 3:0.623099 4:0.787852 5:-0.395113 6:0.204491 7:0.597915 8:-0.599756 9:0.613431 10:0.73469 11:0.0715164 12:-0.757848 13:0.0454237 14:0.0181822 15:0.095074 16:0.660033 17:-0.181642 18:0.353649 19:-0.139955 20:-0.401446 21:0.953149 
1 1 1 1 0.4493661701189808 1 1 1 0 1 1 0 1 0 1 1:0.502529 2:0.753203 3:0.00122031 4:0.822983 5:0.342482 6:0.705004 7:0.587785 8:-0.282841 9:-0.41733 10:0.103583 11:0.440096 12:-0.442931 13:0.700564 14:-0.0388849 15:-0.33392 16:0.611839 17:0.390596 18:0.602086 19:0.269079 20:-0.402604 21:0.951359 
0.1368414657650665 1 0 1 1 0 0 0 0 0.8139765709260173 1 0 1 1 0 1:-0.780444 2:0.75744 3:-0.0457742 4:0.832341 5:-0.969001 6:0.126293 7:0.665799 8:-0.381767 9:-0.437002 10:0.120626 11:0.233695 12:-0.819581 13:0.691678 14:0.0441718 15:0.0841821 16:0.641864 17:-0.184491 18:0.523151 19:-0.463076 20:-0.401751 21:0.953534 
0 1 1 1 1 1 1 1 0 1 1 0.2273805434016817 1 1 0 1:-0.889408 2:0.766378 3:-0.33847 4:0.775029 5:0.0618635 6:-0.0535817 7:0.50399 8:-0.752492 9:-0.253098 10:0.056099 11:0.419993 12:-0.64004 13:0.832405 14:0.035209 15:-0.0373271 16:0.636373 17:-0.192543 18:0.621764 19:0.23851 20:-0.403015 21:0.952694 
1 1 1 1 1 1 0 1 1 0 0.6179739113543176 1 1 0 0 1:0.130806 2:0.742705 3:0.723315 4:0.655818 5:-0.343189 6:0.466878 7:0.629538 8:-0.431799 9:-0.0194949 10:-0.0421968 11:0.131888 12:-0.762461 13:0.0306977 14:-0.393749 15:0.740985 16:0.680407 17:-0.140555 18:0.451179 19:0.514956 20:-0.40401 21:0.954256 
1 1 1 1 0 1 1 1 0 0 1 1 1 0 0 1:-0.900448 2:0.754092 3:0.349212 4:0.680987 5:-0.298526 6:0.503545 7:0.57191 8:-0.34015 9:-0.373618 10:-0.0109554 11:0.187688 12:-0.739576 13:0.690657 14:-0.253472 15:0.480162 16:0.63411 17:-0.127465 18:0.657148 19:0.349347 20:-0.403319 21:0.953658 
1 1 1 1 1 1 1 1 0 0 0 1 0 0 0 1:-0.464373 2:0.738472 3:0.672987 4:0.84619 5:-0.580147 6:0.118806 7:0.697172 8:0.154075 9:-0.235203 10:0.062149 11:0.192536 12:-0.71851 13:0.732922 14:-0.221784 15:-0.754815 16:0.631348 17:-0.13831 18:0.65453 19:-0.327989 20:-0.402905 21:0.953813 
1 1 1 1 0.9904037864800554 1 1 1 1 0.1548639427216779 1 0 1 0 0 1:-0.50135 2:0.739803 3:0.109244 4:0.75238 5:0.329179 6:0.138197 7:0.615276 8:0.0417991 9:-0.0868899 10:-0.0970271 11:0.0873316 12:-0.627264 13:0.0263156 14:-0.237934 15:0.262069 16:0.653385 17:0.151207 18:0.570347 19:0.399278 20:-0.40494 21:0.953006 
1 1 1 1 1 1 1 1 0.4083216530544446 1 1 1 1 0 0 1:0.106658 2:0.741344 3:0.145582 4:-0.8334 5:0.105248 6:-0.0794419 7:0.524492 8:0.108025 9:-0.325239 10:0.0928582 11:-0.834392 12:-0.684791 13:0.68498 14:-0.42448 15:-0.00739679 16:0.681498 17:-0.0781941 18:0.538304 19:-0.241573 20:-0.402392 21:0.95223 
0 1 1 1 1 1 1 1 0 1 1 1 0 1 0 1:0.683758 2:0.732628 3:0.370072 4:0.750424 5:0.15991 6:0.307971 7:0.612083 8:0.163826 9:0.640699 10:0.648511 11:-0.163794 12:-0.612163 13:0.744978 14:-0.147927 15:-0.372673 16:0.626292 17:-0.130378 18:0.506733 19:0.538704 20:-0.402602 21:0.953361 
1 1 1 1 1 0 0 1 0.5922407827845725 1 1 1 0 1 0 1:-0.115494 2:0.755676 3:-0.438797 4:0.754484 5:0.0193056 6:-0.646033 7:0.483219 8:0.459175 9:0.496948 10:0.180039 11:0.227187 12:-0.654866 13:0.73553 14:-0.413495 15:0.0626789 16:0.662936 17:-0.120626 18:0.433457 19:0.253335 20:-0.403689 21:0.954812 
0 1 1 1 0 0.6339104945886813 1 1 0 1 1 0 1 1 0 1:-0.580797 2:0.75507 3:-0.327465 4:0.776372 5:-0.349289 6:0.108158 7:0.491694 8:0.301669 9:-0.254193 10:-0.149465 11:-0.141557 12:-0.710083 13:0.682954 14:0.319804 15:0.0574386 16:0.599944 17:0.648331 18:0.671859 19:0.132623 20:-0.404399 21:0.951895 
1 1 1 1 1 0 1 1 0.2321267057128402 1 1 1 1 0 0 1:0.698087 2:0.733138 3:0.0884635 4:0.757244 5:0.1053 6:0.00390772 7:0.607957 8:0.926572 9:-0.0657877 10:0.0261818 11:0.663664 12:-0.600751 13:0.82449 14:-0.535257 15:-0.00115604 16:0.686607 17:-0.106135 18:0.542175 19:0.375346 20:-0.403354 21:0.95426 
0.5534576073803252 1 0 1 1 1 0 0 0 0 1 0 1 1 0 1:-0.780445 2:0.757418 3:-0.0452059 4:0.852753 5:-0.957721 6:-0.306221 7:0.646298 8:-0.733042 9:-0.448808 10:0.106747 11:0.155568 12:-0.828027 13:0.687298 14:0.058299 15:-0.372147 16:0.64074 17:-0.195089 18:0.522241 19:-0.475924 20:-0.402404 21:0.953513 
1 1 1 1 0 1 0 1 0 0 1 1 0 0 0 1:-0.464368 2:0.738459 3:0.672173 4:0.671381 5:-0.574906 6:0.171383 7:0.647425 8:0.226934 9:-0.219567 10:0.1195 11:0.827993 12:-0.731534 13:0.741865 14:-0.252635 15:0.0215422 16:0.638805 17:-0.117206 18:0.662169 19:0.492089 20:-0.404223 21:0.954596 
1 1 1 1 1 1 -0 1 0 0 1 1 1 0 0 1:0.560402 2:0.737766 3:0.561171 4:0.697777 5:-0.502437 6:-0.326382 7:0.567127 8:-0.180589 9:-0.294214 10:0.0376945 11:0.163786 12:-0.739689 13:0.736225 14:-0.24504 15:0.596002 16:0.711714 17:-0.114997 18:0.611597 19:0.405201 20:-0.403623 21:0.953877 
1 1 1 1 0.645801822110273 1 0.1433096508771771 1 0 0 0.06735827700555241 1 1 0 0 1:-0.856056 2:0.755103 3:0.716381 4:0.626994 5:-0.64216 6:0.782612 7:0.518883 8:-0.0650554 9:0.173059 10:0.717572 11:0.0258314 12:-0.810331 13:0.706957 14:-0.206666 15:0.0202685 16:-0.0675256 17:-0.142879 18:0.351211 19:0.249398 20:-0.402274 21:0.95531 
0 1 1 1 1 0 1 1 0 1 1 1 0 1 1 1:-0.562762 2:0.740825 3:0.310449 4:0.67596 5:-0.249057 6:0.10478 7:0.490483 8:0.119705 9:0.622519 10:0.209468 11:0.608364 12:-0.473803 13:0.711781 14:-0.141741 15:0.0429085 16:0.606409 17:0.112073 18:0.557023 19:0.343438 20:-0.403657 21:0.954358 
0 1 1 1 0 1 1 1 0.02740356698428294 0 0 1 0 1 0 1:-0.982492 2:0.743343 3:0.757819 4:0.676262 5:-0.562403 6:-0.242474 7:0.586557 8:-0.154122 9:0.695278 10:0.605791 11:0.0861867 12:-0.80756 13:0.729161 14:-0.0549724 15:0.00688659 16:0.598036 17:-0.08386 18:0.647355 19:0.538672 20:-0.404198 21:0.954833 
1 1 1 1 1 1 1 1 0 0 1 1 0 0 1 1:0.560404 2:0.737773 3:0.56087 4:0.720122 5:-0.510859 6:0.126399 7:0.641172 8:0.197846 9:-0.0265076 10:0.787702 11:0.45096 12:-0.515089 13:0.748771 14:-0.194126 15:0.307806 16:0.612605 17:0.413517 18:0.574808 19:0.470194 20:-0.403077 21:0.953707 
1 1 1 1 0 1 0 1 0 0 0 1 0 0 0 1:-0.638297 2:0.741683 3:0.691824 4:0.667209 5:-0.575215 6:-0.318224 7:0.632268 8:-0.200412 9:-0.149979 10:-0.222785 11:0.446486 12:-0.72288 13:0.722933 14:-0.214501 15:0.151953 16:0.669853 17:-0.122036 18:0.688967 19:0.396064 20:-0.404816 21:0.954564 
0.3739333573448602 1 1 1 1 1 0 1 1 0 0 1 0 0 0 1:-0.724179 2:0.749479 3:0.701509 4:0.684962 5:-0.589911 6:0.0208386 7:0.683564 8:0.0340945 9:0.601829 10:0.121836 11:-0.0329244 12:-0.743459 13:0.727704 14:-0.236839 15:0.9541 16:0.653895 17:-0.0933884 18:0.603284 19:0.420018 20:-0.403415 21:0.955175 
0 1 0 1 0 1 1 0.07179784696816267 0 1 1 0 1 1 0 1:-0.580796 2:0.755108 3:-0.328579 4:0.791189 5:-0.370404 6:0.00602962 7:0.567227 8:-0.593925 9:-0.330105 10:-0.109305 11:-0.324775 12:-0.764357 13:0.662424 14:0.379525 15:0.074412 16:0.60012 17:0.623732 18:0.630569 19:0.112191 20:-0.403891 21:0.951492 
1 1 1 1 1 1 1 1 1 0 0 1 0 0 0 1:-0.6383 2:0.741667 3:0.692447 4:0.703269 5:-0.574615 6:-0.506264 7:0.557311 8:-0.36249 9:-0.172754 10:-0.289623 11:-0.119671 12:-0.723283 13:0.705965 14:-0.202513 15:0.134078 16:0.693003 17:-0.1249 18:0.704917 19:-0.463841 20:-0.403057 21:0.953671 
0 1 1 1 1 0.8290189474133244 0 1 0 0 0 1 0 0.05834261815271583 0 1:-0.771917 2:0.746653 3:0.70677 4:0.659323 5:-0.591641 6:0.0123339 7:0.531958 8:0.0849596 9:0.79193 10:0.712293 11:0.643122 12:-0.78515 13:0.741918 14:-0.259911 15:0.0291414 16:0.584634 17:-0.0861979 18:0.555094 19:0.531683 20:-0.403606 21:0.955511 
1 1 1 1 1 1 1 1 0 1 1 1 0 1 0 1:0.298178 2:0.761546 3:0.41769 4:0.695857 5:0.136904 6:0.214486 7:0.517884 8:0.100169 9:0.0776122 10:0.0485259 11:0.22218 12:-0.578368 13:0.725619 14:-0.130425 15:0.0267899 16:0.66975 17:-0.13718 18:0.644699 19:0.424373 20:-0.403339 21:0.95299 
0 1 1 1 1 1 0 1 0 0 0 1 0 1 0 1:-0.72418 2:0.749478 3:0.701399 4:0.679559 5:-0.605164 6:0.367589 7:0.591172 8:0.325959 9:0.602545 10:0.0681484 11:-0.512081 12:-0.724144 13:0.711968 14:-0.189443 15:0.209415 16:0.615259 17:-0.0883205 18:0.602266 19:0.428967 20:-0.404082 21:0.954903 
1 1 1 1 1 1 1 1 0.9565928994743673 1 1 1 1 0 0 1:0.688545 2:0.728989 3:0.53381 4:0.843343 5:0.117387 6:0.368374 7:0.430937 8:0.218266 9:-0.0639823 10:0.190706 11:0.35071 12:-0.665889 13:0.742205 14:-0.41336 15:-0.295855 16:-0.291489 17:-0.156964 18:0.224343 19:-0.0301217 20:-0.401722 21:0.954696 
1 1 1 1 0 1 0 1 0 0 1 1 0 0 0 1:-0.371723 2:0.7437 3:0.668657 4:0.690525 5:-0.558301 6:0.254631 7:0.628328 8:0.260392 9:0.0204559 10:-0.0909793 11:0.495992 12:-0.646546 13:0.72826 14:-0.183102 15:0.117054 16:0.639224 17:0.0196106 18:0.646818 19:0.410332 20:-0.404215 21:0.954392 
1 1 0 1 1 0 0 0 0 0 1 0 1 1 0 1:-0.612217 2:0.756899 3:-0.464345 4:0.798351 5:-0.804742 6:-0.0419631 7:0.620476 8:0.337697 9:-0.232462 10:0.26609 11:0.494101 12:-0.652064 13:0.710478 14:-0.0668844 15:0.0701134 16:0.63331 17:-0.223754 18:0.448487 19:0.341526 20:-0.403859 21:0.954785 
0 1 1 1 0 1 1 1 0 1 1 1 1 1 1 1:0.933982 2:0.7245 3:0.597035 4:0.715927 5:-0.381175 6:-0.0442819 7:0.613057 8:-0.847756 9:-0.0723781 10:-0.274474 11:-0.384992 12:-0.505139 13:0.690234 14:0.19465 15:0.315984 16:0.683175 17:0.40183 18:0.612497 19:0.260014 20:-0.403434 21:0.951917 
1 1 0 1 1 1 0 0 0 0 1 0 1 1 0 1:-0.780443 2:0.757424 3:-0.0456434 4:0.776922 5:-0.957123 6:-0.236471 7:0.652066 8:-0.685768 9:-0.472774 10:0.0500556 11:-0.487044 12:-0.824005 13:0.674604 14:0.0522559 15:0.0536496 16:0.656458 17:-0.185569 18:0.539149 19:-0.493012 20:-0.402256 21:0.953295 
1 1 0 1 1 0 0 0 0 1 1 0 1 1 0 1:-0.780442 2:0.757443 3:-0.0465449 4:0.713477 5:-0.978184 6:0.496383 7:0.602553 8:-0.0689456 9:-0.440582 10:0.0864163 11:-0.112787 12:-0.809755 13:0.68046 14:0.0508596 15:0.363677 16:0.639448 17:-0.16702 18:0.534059 19:-0.462116 20:-0.401526 21:0.953312 
1 1 1 1 1 0 0 1 0 0 1 1 0 1 1 1:-0.815588 2:0.760746 3:0.178637 4:0.797764 5:-0.968053 6:-0.254604 7:0.204839 8:-0.714943 9:0.64345 10:0.784436 11:0.186964 12:-0.762554 13:0.675978 14:-0.0370351 15:0.0776759 16:0.596558 17:-0.177894 18:0.435334 19:-0.463562 20:-0.401323 21:0.954437 
1 1 1 1 1 1 1 1 0 1 1 1 1 0 0 1:0.688545 2:0.729009 3:0.532992 4:0.854267 5:0.0954847 6:0.201675 7:0.419648 8:-0.717413 9:-0.133552 10:0.237453 11:0.385191 12:-0.725669 13:0.720158 14:-0.35366 15:-0.195985 16:-0.287921 17:-0.176484 18:0.189767 19:-0.0706659 20:-0.401168 21:0.954289 
1 1 1 1 1 1 1 1 0 0 0 1 0 0 0 1:-0.856057 2:0.755109 3:0.716634 4:0.687349 5:-0.639147 6:0.65064 7:0.573359 8:-0.184036 9:0.174789 10:0.728915 11:0.0219708 12:-0.810836 13:0.709879 14:-0.211552 15:-0.345071 16:0.56778 17:-0.115439 18:0.586424 19:-0.256195 20:-0.401437 21:0.953856 
1 1 1 1 1 1 1 1 1 0.919350791790758 1 1 1 0 1 1:0.155436 2:0.741017 3:0.831576 4:-0.903751 5:0.0238468 6:-0.280677 7:0.535163 8:-0.176947 9:0.0809333 10:-0.258271 11:0.529179 12:-0.573515 13:0.707307 14:-0.260986 15:-0.0223434 16:0.709855 17:-0.104033 18:0.621216 19:-0.174039 20:-0.402773 21:0.952672 
1 1 0 1 1 1 0 0.06630995700384935 0 0 1 0 1 1 0.2232316269460954 1:0.618293 2:0.752407 3:-0.0638674 4:0.737771 5:-0.914731 6:0.664251 7:0.574105 8:0.0736391 9:-0.193644 10:0.239957 11:0.693921 12:-0.796069 13:0.719067 14:-0.0350685 15:0.0625524 16:0.636996 17:-0.1612 18:0.361979 19:0.390201 20:-0.402468 21:0.954078 
1 1 1 1 1 1 1 1 1 0 0 1 0 0 0 1:-0.6383 2:0.741688 3:0.692434 4:0.765115 5:-0.574171 6:-0.475588 7:0.661044 8:-0.354985 9:-0.172704 10:-0.276837 11:-0.124537 12:-0.720473 13:0.713592 14:-0.211968 15:0.135195 16:0.693258 17:-0.133106 18:0.696416 19:-0.447879 20:-0.402942 21:0.953781 
1 1 1 1 1 1 1 1 1 0 1 1 0 0 0 1:-0.638298 2:0.741708 3:0.691407 4:0.702268 5:-0.59483 6:0.284652 7:0.634943 8:0.294356 9:-0.123463 10:-0.19554 11:0.676353 12:-0.706746 13:0.729198 14:-0.206907 15:0.109761 16:0.661531 17:-0.12063 18:0.674148 19:-0.385588 20:-0.402316 21:0.953942 
1 1 1 1 1 1 1 1 0 1 1 1 1 0 0 1:0.699365 2:0.734966 3:0.0876326 4:0.821508 5:0.0600944 6:0.306331 7:0.564188 8:0.234139 9:-0.168451 10:-0.0349759 11:-0.488183 12:-0.642194 13:0.775337 14:-0.44139 15:0.028995 16:0.674679 17:-0.117654 18:0.522254 19:0.304989 20:-0.402929 21:0.953382 
0 1 1 1 1 1 1 1 1 1 0 1 0 1 1 1:0.703493 2:0.727644 3:0.622651 4:0.806955 5:-0.408999 6:0.644385 7:0.635448 8:-0.248945 9:0.615473 10:0.70578 11:-0.344131 12:-0.736736 13:0.0404515 14:0.0449039 15:-0.388326 16:0.628906 17:-0.181858 18:0.34386 19:-0.107608 20:-0.401719 21:0.95302 
1 1 1 1 1 1 1 1 0.8535502577872359 0 0 1 0 0 0 1:-0.673802 2:0.740713 3:0.923064 4:0.729692 5:-0.152897 6:0.504672 7:0.613987 8:-0.523 9:0.220539 10:0.599395 11:-0.409914 12:-0.749694 13:0.713089 14:-0.546925 15:0.456203 16:0.600534 17:-0.0904045 18:0.63749 19:0.487666 20:-0.402704 21:0.954385 
1 1 1 1 1 1 0.5780451460437898 1 0 0 0 1 0 0 0 1:-0.345293 2:0.737304 3:0.774527 4:0.686754 5:-0.353241 6:0.515918 7:0.610171 8:0.36709 9:0.730766 10:0.0959169 11:0.338316 12:-0.684479 13:0.738168 14:-0.385468 15:0.041857 16:0.613907 17:-0.0856609 18:0.546511 19:0.447516 20:-0.403427 21:0.955187 
1 1 0.07027632780054838 1 1 0.4119831734538084 0 1 0 1 1 0 0 1 1 1:0.459398 2:0.756506 3:0.0272011 4:0.718687 5:-0.860146 6:0.0666027 7:0.510463 8:0.309572 9:0.477297 10:0.161527 11:-0.693953 12:-0.642602 13:0.704479 14:-0.0202911 15:0.0826077 16:0.652786 17:-0.176447 18:0.383743 19:0.358524 20:-0.403595 21:0.954585 
1 1 1 1 0 1 0 1 0 0 0 1 1 0 0 1:-0.464368 2:0.738515 3:0.670607 4:0.661442 5:-0.619032 6:0.6904 7:0.641411 8:-0.173203 9:-0.315636 10:0.0423549 11:-0.542258 12:-0.757036 13:0.693547 14:-0.16071 15:-0.0114743 16:0.618972 17:-0.123019 18:0.642507 19:0.452867 20:-0.40389 21:0.953701 
1 1 1 1 1 1 1 1 1 0 0 1 0 0 0 1:-0.715889 2:0.748003 3:0.688794 4:0.677434 5:0.057536 6:-0.294366 7:0.518532 8:-0.369639 9:0.648188 10:0.08639 11:0.469109 12:-0.686416 13:0.725927 14:-0.405105 15:-0.374116 16:0.620432 17:-0.0888653 18:0.623183 19:0.392231 20:-0.404192 21:0.95466 
1 1 1 1 1 0 1 1 0.9546080719690266 1 0 1 0 0 1 1:0.083559 2:0.736993 3:0.611172 4:0.725437 5:-0.552494 6:0.476198 7:0.683463 8:0.442126 9:0.753346 10:0.683404 11:0.0630288 12:-0.760143 13:0.753091 14:-0.240078 15:0.0702793 16:0.616788 17:-0.0964804 18:0.470724 19:-0.251222 20:-0.400715 21:0.954369 
1 1 1 1 1 1 1 1 1 0.9101249597163196 0 1 0 0 1 1:-0.336167 2:0.732796 3:0.882747 4:-0.937203 5:-0.0147289 6:0.0245683 7:0.53241 8:0.0568349 9:0.635309 10:0.01255 11:0.452732 12:-0.588089 13:0.706858 14:-0.263532 15:0.00293924 16:0.661594 17:-0.0839061 18:0.583579 19:-0.12616 20:-0.402432 21:0.953317 
1 1 1 1 1 1 1 1 1 1 0 1 0 0 0 1:-0.0363433 2:0.320679 3:0.772561 4:0.664981 5:-0.113804 6:-0.129567 7:0.613321 8:-0.231785 9:0.0441289 10:-0.334151 11:0.238026 12:-0.562946 13:0.515498 14:-0.282516 15:-0.264875 16:0.709338 17:-0.154553 18:0.617553 19:-0.332565 20:-0.402754 21:0.953205 
1 1 1 1 1 1 1 1 0 1 1 1 0.215667217542467 1 0 1:0.741737 2:0.730642 3:0.16784 4:0.791969 5:-0.157199 6:-0.429103 7:0.531816 8:-0.305716 9:-0.0773839 10:-0.291975 11:-0.0862735 12:-0.680779 13:0.719246 14:-0.197433 15:-0.599484 16:0.690644 17:-0.135303 18:0.516957 19:0.295508 20:-0.404267 21:0.95341 
0.5507247036306434 1 1 1 0 1 1 1 1 0 1 0 1 0 0 1:-0.501349 2:0.739788 3:0.109312 4:0.732324 5:0.33417 6:-0.00284091 7:0.590924 8:-0.052845 9:-0.0677743 10:-0.0402518 11:0.725511 12:-0.636064 13:0.0365035 14:-0.235041 15:0.00197117 16:0.645956 17:0.146481 18:0.556594 19:0.418059 20:-0.405043 21:0.95318 
1 1 1 1 1 1 1 1 0 1 0.09944287974215497 1 1 0 1 1:0.300765 2:0.758604 3:0.577803 4:0.714505 5:0.0702723 6:0.21217 7:0.61146 8:-0.792803 9:0.367918 10:-0.481055 11:-0.00342078 12:-0.41232 13:0.686691 14:-0.131117 15:0.0549471 16:0.175397 17:0.373623 18:0.388929 19:-0.0470072 20:-0.402552 21:0.953355 
1 1 1 1 1 1 1 1 0 0 0 1 0 1 0 1:0.0835578 2:0.736969 3:0.611566 4:0.701332 5:-0.553407 6:0.353638 7:0.551269 8:0.348978 9:0.737632 10:0.622403 11:-0.357514 12:-0.761118 13:0.73585 14:-0.227087 15:0.060412 16:0.605369 17:-0.0822693 18:0.496046 19:0.516028 20:-0.403148 21:0.954793 
1 1 1 1 1 1 0 1 0 0 0 1 1 0 0 1:0.544685 2:0.734446 3:0.678378 4:0.691598 5:-0.289252 6:0.173531 7:0.564449 8:0.124936 9:-0.118076 10:-0.143701 11:0.278856 12:-0.606082 13:0.734218 14:-0.364994 15:0.0176456 16:0.670799 17:0.0228931 18:0.600224 19:0.378836 20:-0.403808 21:0.953895 
0.01093609964590945 1 1 1 1 1 1 1 0 0 1 1 0 0 0 1:-0.481897 2:0.739504 3:0.499243 4:0.697753 5:0.0925839 6:0.191825 7:0.546494 8:0.0665506 9:-0.19913 10:0.000871126 11:-0.612388 12:-0.688137 13:0.706402 14:-0.219724 15:-0.00608917 16:0.647389 17:-0.0885862 18:0.750914 19:0.407641 20:-0.404207 21:0.952975 
1 1 1 1 1 1 1 1 1 1 0 1 0 0 0 1:0.0585134 2:0.735953 3:0.601764 4:0.715245 5:0.0889198 6:0.168572 7:0.52452 8:0.0119949 9:0.793742 10:0.217039 11:0.575103 12:-0.6816 13:0.743786 14:-0.403404 15:0.0172602 16:0.633993 17:-0.0773592 18:0.533901 19:0.413246 20:-0.402868 21:0.954466 
0 1 1 1 1 1 0.4395107287884131 1 1 0 0 1 0 0 0 1:-0.72418 2:0.749383 3:0.703721 4:0.651559 5:-0.542959 6:-0.768227 7:0.510073 8:0.278945 9:0.664519 10:0.0637315 11:0.205899 12:-0.707085 13:0.740667 14:-0.273213 15:0.114226 16:0.654453 17:-0.0830976 18:0.647754 19:0.413609 20:-0.405202 21:0.955566 
1 1 1 1 1 1 1 1 0 0 0 1 0 1 0 1:0.0835571 2:0.736959 3:0.611952 4:0.722326 5:-0.545019 6:0.0542603 7:0.558333 8:0.0978311 9:0.724045 10:0.605791 11:-0.506948 12:-0.76795 13:0.732725 14:-0.229522 15:0.0382093 16:0.615955 17:-0.0877192 18:0.501322 19:0.497235 20:-0.403369 21:0.954777 
1 1 1 1 1 1 0 1 0 0 0 1 0 0 0 1:-0.0553821 2:0.483455 3:0.696707 4:0.692648 5:-0.375304 6:0.653612 7:0.656993 8:-0.308962 9:-0.052288 10:-0.0803483 11:-0.189176 12:-0.711371 13:0.708776 14:-0.305104 15:-0.441047 16:0.627237 17:-0.116595 18:0.558988 19:0.448509 20:-0.403603 21:0.95382 
1 1 1 1 1 1 1 1 1 1 0 1 0.9564266861777541 0 0 1:-0.0363431 2:0.320693 3:0.77223 4:0.663895 5:-0.121922 6:0.168722 7:0.626416 8:0.0128511 9:0.0583306 10:-0.309611 11:0.456736 12:-0.558245 13:0.52191 14:-0.293221 15:0.012887 16:0.708088 17:-0.148517 18:0.614827 19:-0.319885 20:-0.402273 21:0.953274 
1 1 1 1 1 1 0 1 0 0 0 1 0 0 0 1:-0.371723 2:0.743683 3:0.669158 4:0.692728 5:-0.548276 6:-0.0726109 7:0.610721 8:-0.0109125 9:0.010165 10:-0.041455 11:-0.321736 12:-0.720214 13:0.716318 14:-0.204422 15:-0.338779 16:0.63879 17:-0.114801 18:0.642071 19:0.433013 20:-0.404881 21:0.95435 
0 1 0 1 1 0 0 0 0 1 1 0 0.5150202137651049 1 0.6300713627133501 1:-0.780446 2:0.757428 3:-0.0447637 4:0.880457 5:-0.946506 6:0.104379 7:0.71032 8:0.372673 9:-0.432401 10:-0.25116 11:-0.314319 12:-0.736421 13:0.698922 14:0.0328878 15:-0.376131 16:0.648966 17:-0.177729 18:0.573453 19:-0.480894 20:-0.403078 21:0.953722 
1 1 1 1 1 1 0 1 0 0 0 1 0 1 0 1:0.0835596 2:0.73698 3:0.611254 4:0.705575 5:-0.547743 6:0.337505 7:0.658539 8:0.342083 9:0.763788 10:0.717948 11:0.486977 12:-0.768562 13:0.759863 14:-0.246486 15:0.0648935 16:0.603863 17:-0.0923079 18:0.470475 19:0.564004 20:-0.402786 21:0.955154 
1 1 1 1 1 1 1 1 1 1 1 1 1 0 0 1:0.769091 2:0.724989 3:0.523781 4:0.737255 5:0.146645 6:-0.30763 7:0.541757 8:-0.349622 9:-0.230908 10:-0.268675 11:0.644308 12:-0.654933 13:0.741817 14:-0.405883 15:0.0585304 16:0.717472 17:-0.110281 18:0.619111 19:0.337972 20:-0.403516 21:0.953331 
1 1 1 1 0 1 0 1 0 0 0.4396254308482822 1 0 0 0 1:-0.638297 2:0.741681 3:0.69165 4:0.64342 5:-0.585111 6:-0.0478446 7:0.560321 8:0.031512 9:-0.138978 10:-0.222796 11:0.528607 12:-0.717558 13:0.720405 14:-0.209784 15:0.257213 16:0.662844 17:-0.111558 18:0.69316 19:0.393404 20:-0.404612 21:0.954505 
1 1 1 1 1 1 1 1 0.7123440064437166 1 1 1 1 0 0 1:0.601178 2:0.74431 3:0.0984861 4:0.710634 5:0.0381687 6:0.0650201 7:0.42473 8:-0.73412 9:0.580389 10:0.69027 11:-0.133986 12:-0.762698 13:0.711295 14:-0.402618 15:0.0605304 16:0.640921 17:-0.114663 18:0.361375 19:-0.450568 20:-0.399612 21:0.953099 
1 1 1 1 1 1 1 1 0 0 0 1 0 0 0 1:0.279082 2:0.759909 3:0.817943 4:0.741974 5:-0.0746465 6:-0.170727 7:0.564257 8:-0.257775 9:0.151497 10:-0.0189407 11:0.156682 12:-0.619474 13:0.733933 14:-0.363345 15:0.0660818 16:0.668268 17:0.036607 18:0.650027 19:0.382565 20:-0.40383 21:0.953838 
1 1 1 1 1 0 1 1 1 1 1 1 1 0 0 1:0.698087 2:0.733131 3:0.0885758 4:0.755286 5:0.103697 6:0.00634067 7:0.565742 8:0.933079 9:-0.0648932 10:0.0201428 11:0.666845 12:-0.60116 13:0.821742 14:-0.531955 15:-0.000645619 16:0.686026 17:-0.103254 18:0.546166 19:0.365716 20:-0.403382 21:0.954223 
1 1 1 1 1 1 1 1 1 1 1 1 1 0.08906873531888146 0.8574636799297966 1:0.106643 2:0.741108 3:0.149512 4:-0.901932 5:0.0491546 6:0.00571145 7:-0.953029 8:0.335778 9:-0.293932 10:-0.118508 11:-0.72306 12:-0.699092 13:0.588808 14:-0.3089 15:0.010468 16:0.661148 17:0.022644 18:0.677984 19:-0.578598 20:-0.403363 21:0.950949 
0 1 1 1 0 1 1 1 0 0 1 0 1 1 0 1:-0.247012 2:0.727352 3:0.804126 4:0.661429 5:-0.248623 6:0.537016 7:0.56728 8:-0.415447 9:-0.234906 10:-0.217692 11:0.29908 12:-0.702677 13:0.698843 14:0.206036 15:0.0667731 16:0.648134 17:0.0359818 18:0.774902 19:0.427127 20:-0.403787 21:0.952192 
1 1 1 1 1 1 0.9630397060141355 1 1 0.7970072694066033 0 1 0 0 1 1:0.544684 2:0.734401 3:0.677942 4:0.748239 5:-0.283266 6:-0.350786 7:0.566508 8:-0.340102 9:0.450036 10:-0.486969 11:0.660347 12:-0.596827 13:0.733144 14:-0.273486 15:-0.261586 16:0.685644 17:0.0149939 18:0.52896 19:0.28508 20:-0.404142 21:0.954379 
0 1 0 1 1 0 0 0 0 0 1 0 0 1 1 1:-0.780445 2:0.757388 3:-0.0440803 4:0.861548 5:-0.931327 6:-0.337971 7:0.647952 8:0.042055 9:-0.384166 10:0.0502098 11:0.0480586 12:-0.769911 13:0.706385 14:0.0144069 15:-0.912007 16:0.628397 17:-0.183055 18:0.552772 19:-0.435537 20:-0.403461 21:0.953896 
1 1 1 1 1 0 1 1 1 1 0 1 0 1 1 1:0.703488 2:0.727534 3:0.625226 4:0.778117 5:-0.38757 6:0.302585 7:0.201558 8:0.30687 9:0.667112 10:0.567241 11:-0.573795 12:-0.698869 13:0.0281851 14:-0.00634924 15:0.0738565 16:0.659514 17:-0.133525 18:0.441552 19:-0.220767 20:-0.402468 21:0.953014 
1 1 0 1 1 0 0 0 0.5181316974621104 0.8824340736850405 1 0 0 1 0 1:-0.780444 2:0.757381 3:-0.0444295 4:0.743909 5:-0.931124 6:-0.297615 7:0.569691 8:0.0700862 9:-0.416405 10:-0.0322839 11:-0.734476 12:-0.770617 13:0.685363 14:-0.00261484 15:0.0221069 16:0.663262 17:-0.161292 18:0.589834 19:-0.490289 20:-0.403026 21:0.95356 
1 1 1 1 1 0 1 1 1 1 1 1 0.6601370724704102 0 1 1:0.601176 2:0.744296 3:0.0997018 4:0.760375 5:0.0657393 6:0.0329426 7:0.487191 8:0.0158108 9:0.632871 10:0.624128 11:-0.39059 12:-0.709623 13:0.733213 14:-0.490886 15:0.540243 16:0.667181 17:-0.0964653 18:0.410617 19:-0.444785 20:-0.399803 21:0.953528 
1 1 1 1 1 1 1 1 1 1 0 1 0 0 0.4447305063691862 1:-0.036344 2:0.320669 3:0.772729 4:0.662043 5:-0.116208 6:-0.125917 7:0.549998 8:-0.222024 9:0.0454707 10:-0.343209 11:0.242797 12:-0.563559 13:0.511377 14:-0.277563 15:-0.264109 16:0.708466 17:-0.150231 18:0.623539 19:-0.347009 20:-0.402796 21:0.95315 
1 1 1 1 1 1 1 1 0 1 1 1 0.00317830862724706 0 0 1:-0.341588 2:0.740028 3:0.482911 4:0.690522 5:0.0702395 6:0.419867 7:0.480653 8:-0.525113 9:0.115341 10:0.637137 11:-0.495626 12:-0.780191 13:0.698481 14:-0.195541 15:0.0500685 16:0.618677 17:-0.0919595 18:0.633629 19:-0.342973 20:-0.400632 21:0.952211 
1 1 1 1 1 1 1 1 1 1 0 1 0 0 1 1:0.703492 2:0.727676 3:0.621659 4:0.770141 5:-0.408116 6:0.626607 7:0.722949 8:-0.0801394 9:0.447814 10:-0.448826 11:-0.0435618 12:-0.641819 13:0.0309607 14:0.1464 15:0.0442229 16:0.708393 17:-0.193319 18:0.404981 19:-0.281839 20:-0.402387 21:0.952846 
1 1 1 1 1 1 1 1 1 0 0 1 0 0 0 1:-0.336214 2:0.732869 3:0.891674 4:0.746904 5:-0.0812075 6:0.211048 7:0.601375 8:0.0182027 9:0.74711 10:0.48245 11:-0.332742 12:-0.708138 13:0.737513 14:-0.44179 15:0.0035319 16:0.607674 17:-0.0696348 18:0.606679 19:0.500699 20:-0.403366 21:0.954695 
1 1 1 1 1 1 1 1 0.1009623461956272 0 0 1 0 0 0 1:-0.345293 2:0.737299 3:0.774667 4:0.667914 5:-0.351233 6:0.394 7:0.582476 8:0.251597 9:0.693725 10:-0.00232954 11:-0.658309 12:-0.678957 13:0.715797 14:-0.371297 15:0.0260388 16:0.621476 17:-0.0822071 18:0.567849 19:0.410872 20:-0.403876 21:0.954849 
1 1 1 1 1 1 1 1 0 1 0 1 1 0 0 1:0.139602 2:0.565749 3:0.797754 4:0.809204 5:-0.129021 6:0.265715 7:0.579653 8:-0.684777 9:-0.317891 10:0.162598 11:0.205754 12:-0.734765 13:0.720935 14:-0.358985 15:-0.141383 16:0.666568 17:-0.116201 18:0.64239 19:-0.359154 20:-0.401136 21:0.952645 
1 1 1 1 0.1743417001474446 1 0 1 0 0 0 1 1 0 0 1:-0.554896 2:0.737804 3:0.688208 4:0.689488 5:-0.549672 6:-0.472497 7:0.64447 8:-0.362172 9:-0.133487 10:-0.415952 11:-0.100183 12:-0.599497 13:0.705803 14:-0.144556 15:0.490733 16:0.390769 17:-0.193009 18:0.582155 19:0.201912 20:-0.404389 21:0.954744 
1 1 1 1 1 0.9620846415479632 0 1 0 0 1 1 0 1 1 1:-0.815536 2:0.760781 3:0.168109 4:-0.865591 5:-0.908769 6:0.48196 7:0.585441 8:0.0180447 9:0.589488 10:0.81994 11:-0.948303 12:-0.748712 13:0.659716 14:0.00866929 15:0.0389429 16:0.576398 17:-0.138992 18:0.361522 19:-0.0960313 20:-0.401764 21:0.953764 
0 1 1 1 1 0.2387499479579202 1 1 1 1 1 1 0 0 1 1:0.703495 2:0.727629 3:0.622506 4:0.746315 5:-0.406967 6:0.635265 7:0.576892 8:-0.231928 9:0.638638 10:0.771974 11:0.438097 12:-0.7491 13:0.0519875 14:0.0242827 15:0.0431835 16:0.640971 17:-0.174115 18:0.342302 19:-0.106238 20:-0.40116 21:0.953204 
1 1 1 1 1 0.8749931891641608 1 1 0 1 1 1 1 0 0 1:0.698087 2:0.733141 3:0.0884252 4:0.75488 5:0.097768 6:0.105526 7:0.56639 8:0.942557 9:-0.0904212 10:-0.0418699 11:-0.0387221 12:-0.595343 13:0.806379 14:-0.517035 15:-0.00328178 16:0.684928 17:-0.100914 18:0.555164 19:0.34882 20:-0.403532 21:0.953966 
1 1 1 1 1 0 1 1 1 1 1 1 0.5641933180083608 0 0 1:0.325358 2:0.764951 3:0.0229115 4:0.805502 5:0.3646 6:0.416114 7:0.538258 8:0.247426 9:0.568153 10:0.122385 11:0.0899442 12:-0.672155 13:0.728567 14:-0.186134 15:0.134395 16:0.665701 17:-0.0928892 18:0.512881 19:-0.473073 20:-0.400184 21:0.952463 
0.7693286666075353 1 1 1 1 1 0 1 0 0 0 1 0 1 0 1:-0.724179 2:0.749456 3:0.701871 4:0.665587 5:-0.582908 6:-0.304159 7:0.627105 8:-0.227119 9:0.577546 10:0.0536326 11:-0.673642 12:-0.740504 13:0.708788 14:-0.190142 15:-0.00922328 16:0.632301 17:-0.102405 18:0.603726 19:0.412885 20:-0.404671 21:0.954912 
0 1 0 1 1 0 0 0 0 0 1 0 0 1 1 1:-0.780442 2:0.757358 3:-0.0443937 4:0.703958 5:-0.925287 6:-0.472583 7:0.524072 8:-0.0418043 9:-0.392995 10:0.0299423 11:-0.0235909 12:-0.778397 13:0.694719 14:0.0180407 15:-0.665134 16:0.640879 17:-0.16935 18:0.56791 19:-0.456816 20:-0.403505 21:0.953722 
1 1 1 1 1 0 1 1 1 1 1 1 0 0 0.5141411942482526 1:0.601176 2:0.744305 3:0.0994356 4:0.779202 5:0.0598816 6:0.258808 7:0.518579 8:0.215669 9:0.666874 10:0.698974 11:0.325984 12:-0.705611 13:0.749881 14:-0.480462 15:0.0505152 16:0.638666 17:-0.103129 18:0.382725 19:-0.391445 20:-0.399815 21:0.953762 
1 1 1 1 1 0 1 1 1 1 0 1 0 0 1 1:0.0835556 2:0.736973 3:0.612318 4:0.841988 5:-0.541086 6:-0.0550614 7:0.675886 8:-0.0023689 9:0.744518 10:0.684691 11:0.196574 12:-0.775213 13:0.755186 14:-0.250308 15:0.0337545 16:0.633862 17:-0.108398 18:0.477144 19:-0.291278 20:-0.400949 21:0.954477 
1 1 1 1 1 1 1 1 1 1 1 1 1 0 0 1:-0.64685 2:0.75493 3:-0.112447 4:0.780829 5:0.354237 6:0.150054 7:0.598992 8:0.00793079 9:0.281001 10:-0.510243 11:-0.700969 12:-0.477841 13:0.68241 14:-0.402844 15:0.000461166 16:0.660594 17:-0.172539 18:0.556232 19:0.179818 20:-0.403797 21:0.953766 
0 1 1 1 0 1 1 1 0 0 0 0 0 1 0 1:0.247999 2:0.761272 3:0.625021 4:0.692724 5:-0.539229 6:0.328554 7:0.531707 8:-0.471447 9:0.539896 10:0.183974 11:0.299063 12:-0.802518 13:0.713794 14:0.124125 15:-0.418838 16:0.618505 17:-0.105916 18:0.513722 19:0.461079 20:-0.403273 21:0.953616 
1 1 1 1 1 1 1 1 0 1 1 1 1 1 0 1:-0.116814 2:-0.109273 3:-0.0851384 4:0.810005 5:0.303391 6:0.237416 7:0.585379 8:0.0832575 9:-0.573961 10:-0.512039 11:-0.0865008 12:-0.576066 13:0.708277 14:-0.147942 15:0.53809 16:0.728888 17:0.0404904 18:0.690567 19:0.283081 20:-0.403245 21:0.951842 
1 1 1 1 1 0 0 1 0 1 1 1 1 0 0 1:-0.0226519 2:0.741906 3:-0.412814 4:0.837272 5:0.507677 6:-0.264845 7:0.483057 8:-0.208415 9:0.0014955 10:0.748631 11:0.198614 12:-0.63687 13:0.722461 14:-0.605897 15:-0.522356 16:0.557192 17:0.643285 18:0.48216 19:0.171233 20:-0.40298 21:0.952993 
1 1 0 1 1 1 0 0 0 0 1 0 1 1 1 1:0.675241 2:0.74052 3:0.000414042 4:0.779333 5:-0.871836 6:0.119757 7:0.632385 8:-0.44011 9:-0.236916 10:0.164291 11:-0.312156 12:-0.539045 13:0.688844 14:0.0525442 15:0.363502 16:0.640936 17:0.355322 18:0.431001 19:0.239841 20:-0.403061 21:0.953172 
1 1 0 1 1 1 0 0 1 0 0 0.6859413015714936 0.2694838370559066 0 0 1:0.540101 2:0.733687 3:0.678645 4:0.71843 5:-0.287228 6:0.229325 7:0.68193 8:0.183972 9:-0.0506181 10:-0.0958214 11:-0.242472 12:-0.673093 13:-0.322068 14:-0.422226 15:-0.490926 16:0.61497 17:0.614629 18:0.405544 19:0.475384 20:-0.406528 21:0.953803 
0 1 1 1 1 1 1 1 1 1 0 1 0 1 1 1:0.947962 2:0.720581 3:0.644414 4:0.706692 5:-0.210992 6:-0.0245532 7:0.587715 8:-0.0381647 9:0.104519 10:0.151287 11:-0.167245 12:-0.629314 13:0.734955 14:0.107882 15:-0.733714 16:0.682554 17:-0.149367 18:0.610548 19:-0.274742 20:-0.402016 21:0.952107 
1 1 1 1 1 1 1 1 0 0 0 1 0.89755753880477 0 1 1:-0.464369 2:0.738491 3:0.671088 4:0.717944 5:-0.624638 6:0.822891 7:0.593147 8:-0.0642345 9:-0.0032959 10:0.718754 11:-0.682667 12:-0.540453 13:0.688649 14:-0.104177 15:0.016448 16:0.558038 17:0.408034 18:0.62309 19:-0.371663 20:-0.401333 21:0.952704 
1 1 1 1 1 1 1 1 0 1 1 1 0 0 0 1:-0.341587 2:0.740038 3:0.482743 4:0.693459 5:0.0726435 6:0.416217 7:0.543975 8:-0.534874 9:0.114 10:0.646195 11:-0.500397 12:-0.779578 13:0.702603 14:-0.200495 15:0.0493029 16:0.619549 17:-0.0962811 18:0.627642 19:-0.328529 20:-0.400591 21:0.952266 
1 1 0 1 1 1 0 0.8942267573354891 0 0 1 0 0 1 1 1:0.460501 2:0.756171 3:0.0284232 4:0.703183 5:-0.833538 6:-0.648296 7:0.505952 8:-0.23843 9:-0.182262 10:0.00889319 11:-0.135102 12:-0.76572 13:0.713094 14:-0.1168 15:0.101104 16:0.692895 17:-0.151371 18:0.465799 19:0.313134 20:-0.404243 21:0.954303 
0.5830609032057984 1 1 1 1 1 1 1 1 1 0 1 0 1 1 1:0.947956 2:0.720492 3:0.6462 4:0.704905 5:-0.217489 6:-0.36842 7:0.107271 8:-0.275806 9:0.106494 10:0.100956 11:0.140846 12:-0.654627 13:0.709593 14:0.0970521 15:0.269423 16:0.724466 17:-0.113014 18:0.675634 19:-0.434395 20:-0.401595 21:0.95183 
1 1 1 1 1 1 1 1 1 0 0 1 0 0 0 1:-0.85606 2:0.755039 3:0.719054 4:0.740112 5:-0.57908 6:-0.48894 7:0.590057 8:-0.326292 9:0.208417 10:0.677842 11:0.0974723 12:-0.79136 13:0.731943 14:-0.302306 15:-0.195301 16:0.619548 17:-0.115833 18:0.638746 19:-0.290666 20:-0.402431 21:0.954408 
0 1 1 1 1 1 1 1 0 1 1 1 0 1 0 1:0.683753 2:0.732544 3:0.371482 4:0.725992 5:0.139803 6:0.339173 7:0.0842458 8:0.243424 9:0.648934 10:0.566042 11:-0.195388 12:-0.6172 13:0.709302 14:-0.10908 15:-0.281668 16:0.62238 17:-0.0932132 18:0.559653 19:0.413142 20:-0.402901 21:0.952883 
1 1 0 1 1 1 0 1 0 0 1 1 0 1 1 1:0.459399 2:0.756521 3:0.0265851 4:0.769302 5:-0.876564 6:-0.244907 7:0.535494 8:-0.732779 9:0.43511 10:0.297474 11:0.259803 12:-0.713838 13:0.703211 14:0.0254751 15:0.0938025 16:0.654922 17:-0.205578 18:0.329623 19:0.342839 20:-0.402838 21:0.95452 
1 1 0 1 1 0 0 0 0 1 1 0 1 1 0 1:-0.780441 2:0.757423 3:-0.0461356 4:0.733886 5:-0.965979 6:0.117709 7:0.608986 8:-0.359977 9:-0.418905 10:0.170026 11:0.802832 12:-0.827204 13:0.698059 14:0.0440959 15:0.0886882 16:0.639194 17:-0.179648 18:0.515536 19:-0.445045 20:-0.401638 21:0.953628 
1 1 1 1 0 1 0 1 0 0 0.5008190950042968 1 0 0 0 1:-0.371723 2:0.743698 3:0.668798 4:0.691216 5:-0.55635 6:0.254692 7:0.625912 8:0.260066 9:0.0342811 10:0.0158025 11:0.251295 12:-0.721243 13:0.730574 14:-0.236329 15:0.36924 16:0.650758 17:-0.104929 18:0.641074 19:0.441445 20:-0.4039 21:0.954541 
0 1 1 1 1 1 1 1 1 1 1 1 0 0 1 1:0.703496 2:0.727646 3:0.622226 4:0.75121 5:-0.402961 6:0.629183 7:0.682429 8:-0.248196 9:0.636402 10:0.787072 11:0.430145 12:-0.748078 13:0.0588569 14:0.016027 15:0.0419074 16:0.642424 17:-0.181318 18:0.332325 19:-0.0821646 20:-0.40109 21:0.953295 
1 1 1 1 1 1 0.7025681375520694 1 0 0 0 1 0 0 0 1:-0.724179 2:0.749525 3:0.700095 4:0.729911 5:-0.638739 6:0.630319 7:0.660272 8:-0.256847 9:0.561 10:0.166368 11:-0.113753 12:-0.769423 13:0.702926 14:-0.111651 15:-0.255269 16:0.597985 17:-0.12038 18:0.534121 19:-0.359828 20:-0.401459 21:0.953983 
0 1 1 1 1 1 1 1 1 1 0 1 0 1 1 1:0.21129 2:0.759803 3:0.683169 4:0.821184 5:-0.397846 6:-0.00789676 7:0.659348 8:-0.0408239 9:0.663871 10:0.0934676 11:-0.108212 12:-0.631559 13:0.731854 14:0.0453755 15:0.0353117 16:0.676433 17:-0.148592 18:0.576182 19:-0.34791 20:-0.401521 21:0.95338 
0 1 1 1 1 1 1 1 1 1 1 1 0 1 1 1:0.94796 2:0.720575 3:0.644678 4:0.722343 5:-0.214029 6:0.00981871 7:0.525238 8:-0.00880292 9:0.110945 10:0.165892 11:0.120004 12:-0.637849 13:0.737933 14:0.0752817 15:0.122375 16:0.710656 17:-0.136881 18:0.628877 19:-0.314754 20:-0.401217 21:0.952168 
1 1 1 1 1 1 1 1 0 1 0 1 0 1 0 1:0.822664 2:0.73574 3:0.529428 4:0.692559 5:-0.532221 6:0.0882727 7:0.555245 8:-0.675904 9:0.549418 10:0.117654 11:-0.293135 12:-0.780993 13:0.711634 14:-0.0871146 15:0.246828 16:0.668038 17:-0.112247 18:0.424447 19:0.381194 20:-0.40256 21:0.953836 
0 1 1 1 0 1 1 1 0 0 1 1 1 0 0 1:-0.679804 2:0.746878 3:0.520624 4:0.74091 5:0.0422889 6:0.650566 7:0.606804 8:-0.346992 9:-0.20846 10:0.152268 11:0.362395 12:-0.735426 13:0.706973 14:-0.159688 15:-0.285202 16:0.605309 17:-0.110835 18:0.696267 19:0.447792 20:-0.403372 21:0.95299 
1 1 0 1 1 1 0 0 0 0 1 0 1 1 1 1:0.493177 2:0.756646 3:-0.18497 4:0.747634 5:-0.886552 6:-0.11417 7:0.558756 8:-0.549338 9:-0.355468 10:0.0747197 11:0.135216 12:-0.821279 13:0.697851 14:0.0893621 15:0.178891 16:0.676094 17:-0.173277 18:0.41467 19:0.311778 20:-0.403173 21:0.95355 
1 1 1 1 0 1 0 1 0 0 0 1 0 0 0 1:-0.856056 2:0.755097 3:0.716858 4:0.673555 5:-0.61987 6:0.139626 7:0.638166 8:-0.60349 9:0.166296 10:0.758167 11:0.287244 12:-0.828749 13:0.718629 14:-0.233719 15:-0.208158 16:0.575043 17:-0.121055 18:0.587193 19:0.552771 20:-0.403582 21:0.954698 
0.6882767935262279 1 1 1 1 1 1 1 1 1 0.3209259665151936 1 0 1 0.5441389026943995 1:0.703496 2:0.727625 3:0.622116 4:0.666066 5:-0.413363 6:0.841357 7:0.504335 8:-0.0555255 9:0.630388 10:0.72704 11:0.0194635 12:-0.740964 13:0.0383973 14:0.0398188 15:0.0552522 16:0.63487 17:-0.162339 18:0.352828 19:-0.113338 20:-0.401264 21:0.952968 
1 1 1 1 1 1 -0 1 0 0 0 1 0 0 -0 1:0.560402 2:0.737773 3:0.560994 4:0.699834 5:-0.502599 6:-0.293324 7:0.610519 8:-0.15373 9:-0.294221 10:0.033127 11:0.0218069 12:-0.731826 13:0.735521 14:-0.219365 15:-0.0839738 16:0.686824 17:-0.12428 18:0.59588 19:0.438291 20:-0.404194 21:0.953852 
-1 1 1 1 1 0.269214777652322 0 1 1 1 1 1 0 0 0 1:-0.0850763 2:0.741372 3:0.342174 4:0.850425 5:-0.355189 6:0.234796 7:0.647874 8:-0.600524 9:0.510135 10:0.341711 11:0.113034 12:-0.605486 13:0.712537 14:-0.575562 15:0.0590744 16:0.633954 17:-0.199566 18:0.364337 19:-0.46421 20:-0.400344 21:0.954685 
-1 1 1 1 1 1 1 1 1 1 1 1 1 0 1 1:0.508812 2:0.740598 3:0.795759 4:0.767 5:-0.0414198 6:-0.332946 7:0.576499 8:-0.40059 9:-0.105429 10:-0.298554 11:0.575649 12:-0.531876 13:0.894882 14:-0.422154 15:-0.0341174 16:0.722703 17:-0.160229 18:0.663775 19:-0.471851 20:-0.401581 21:0.953256 
-1 1 0 1 1 1 1 1 0 1 1 0 1 1 1 1:0.516499 2:0.750203 3:0.00235494 4:0.717079 5:-0.898853 6:-0.337866 7:0.58088 8:-0.751889 9:-0.433905 10:0.133002 11:0.780401 12:-0.753447 13:0.710999 14:-0.0289527 15:0.0718011 16:0.67076 17:-0.0492616 18:0.42779 19:0.320655 20:-0.403368 21:0.953874 
-1 1 0 1 1 1 0 0.9100095743630943 0 0 0 1 0 0 0 1:0.442439 2:0.739881 3:0.593643 4:0.693106 5:-0.406076 6:0.206534 7:0.58664 8:0.197114 9:0.114102 10:0.065964 11:0.508007 12:-0.656182 13:0.747104 14:-0.690565 15:0.0199657 16:0.653512 17:-0.121499 18:0.463355 19:0.392504 20:-0.403341 21:0.95535 
-1 1 1 1 1 1 1 1 1 1 1 1 1 1 1 1:0.637188 2:0.742049 3:0.41945 4:0.695334 5:-0.0760652 6:0.201492 7:0.482366 8:0.184539 9:-0.202336 10:0.116693 11:0.514449 12:-0.730782 13:0.738699 14:-0.0164933 15:0.0388253 16:0.677839 17:-0.0898952 18:0.657212 19:0.455325 20:-0.403323 21:0.952645 
-1 1 1 1 1 1 0.7488643872260164 1 0 0 0 1 0 0 0 1:0.016222 2:0.729107 3:0.637332 4:0.770997 5:-0.474047 6:0.816279 7:0.621026 8:-0.11832 9:0.14876 10:0.654603 11:-0.487595 12:-0.728122 13:0.718744 14:-0.689867 15:-0.0921668 16:0.596418 17:-0.12898 18:0.435099 19:-0.339027 20:-0.400458 21:0.954406 
-1 1 0 1 1 1 0.9821603090974936 0.200506677682573 0.695119828321702 0 0 1 1 0 0 1:0.799566 2:0.742291 3:0.247454 4:0.767091 5:-0.273519 6:0.129822 7:0.586849 8:0.150779 9:-0.109719 10:-0.158676 11:-0.693713 12:-0.401193 13:0.020383 14:-0.570423 15:0.0292417 16:0.657178 17:0.3551 18:0.349446 19:0.308809 20:-0.405175 21:0.954126 
-1 1 1 1 1 0 1 1 1 1 1 1 1 0 1 1:0.326865 2:0.768714 3:-0.287709 4:0.777321 5:0.0520227 6:-0.035395 7:0.483616 8:0.00834394 9:0.486636 10:-0.209195 11:0.234327 12:-0.346713 13:0.698548 14:-0.522413 15:-0.139113 16:0.639967 17:0.371922 18:0.348803 19:-0.76015 20:-0.401099 21:0.953561 
-1 1 0 1 1 1 0 1 0 0 0 1 0 0 0 1:0.442438 2:0.739882 3:0.593636 4:0.708538 5:-0.416391 6:0.445545 7:0.53214 8:0.400254 9:0.125074 10:0.0611387 11:0.519936 12:-0.647202 13:0.74419 14:-0.670971 15:-0.30333 16:0.632519 17:-0.118208 18:0.459908 19:0.400258 20:-0.403509 21:0.95529 
-0 1 0 1 1 0 1 0.7098195597454269 0 1 1 0 1 0 0 1:0.833422 2:0.737331 3:0.314887 4:-0.885465 5:-0.253237 6:0.136977 7:0.517923 8:0.365382 9:-0.321305 10:-0.23622 11:0.838226 12:-0.535816 13:0.714908 14:-0.538501 15:0.0324859 16:0.713046 17:-0.14708 18:0.414662 19:-0.244196 20:-0.402012 21:0.9534 
-1 1 1 1 1 1 1 1 0 1 1 1 0 0.853127153134516 0 1:-0.631477 2:0.746123 3:0.438552 4:0.684283 5:-0.105078 6:0.663954 7:0.539866 8:-0.314607 9:0.580659 10:0.554601 11:-0.864106 12:-0.738924 13:0.69137 14:-0.425305 15:-0.0178647 16:0.571733 17:-0.0966569 18:0.505722 19:0.416737 20:-0.402686 21:0.954234 
-1 1 1 1 1 1 0 1 0 0 0 1 0 0 0 1:-0.0875744 2:0.737501 3:0.688882 4:0.695895 5:-0.456779 6:-0.0161973 7:0.586849 8:-0.00814109 9:0.0283316 10:-0.0908643 11:0.119854 12:-0.541841 13:0.724113 14:-0.630626 15:-0.00485852 16:0.658381 17:-0.174551 18:0.544564 19:0.374721 20:-0.404202 21:0.955379 
-1 0.8247925943016927 0 1 1 0 0 0 0 0 1 0 1 1 0 1:0.431657 2:0.754885 3:-0.261845 4:0.726771 5:-0.943718 6:0.654874 7:0.49943 8:0.0953073 9:-0.468249 10:0.219254 11:-0.735275 12:-0.740182 13:0.683809 14:-0.456258 15:0.0371905 16:0.624889 17:-0.179689 18:0.302587 19:0.279039 20:-0.402939 21:0.954628 
-1 1 0 1 1 1 0 0 0 0 0 1 0 0 0 1:-0.258592 2:0.734295 3:0.5567 4:0.743522 5:-0.693273 6:-0.151114 7:0.584408 8:-0.873511 9:0.33787 10:-0.468083 11:-0.145971 12:-0.686323 13:0.688592 14:-0.553102 15:-0.150155 16:0.650853 17:-0.157793 18:0.414366 19:0.212525 20:-0.404071 21:0.955601 
-1 0.9775529937893737 0 1 1 1 0 0 0 0 0 1 0 0 0 1:-0.258591 2:0.734302 3:0.556414 4:0.723946 5:-0.697055 6:0.0140851 7:0.592663 8:-0.736326 9:0.344134 10:-0.457769 11:-0.072397 12:-0.683091 13:0.690949 14:-0.55571 15:-0.0529192 16:0.648285 17:-0.15441 18:0.41192 19:0.223685 20:-0.403876 21:0.955617 
-1 1 1 1 1 1 1 1 0 1 1 1 1 1 0.9784868907659016 1:0.305505 2:0.771048 3:-0.295454 4:0.791326 5:0.370884 6:-0.145496 7:0.506588 8:-0.086864 9:-0.441607 10:0.0866462 11:0.513568 12:-0.590612 13:0.718503 14:-0.0332079 15:0.0185646 16:0.691299 17:-0.173737 18:0.625073 19:0.333041 20:-0.403141 21:0.952108 
-1 1 1 1 1 1 1 1 0 1 1 1 1 1 0 1:-0.747567 2:0.757573 3:0.304981 4:0.704153 5:0.0151397 6:-0.191922 7:0.53292 8:-0.165554 9:-0.26397 10:-0.0873665 11:0.200874 12:-0.719897 13:0.708596 14:-0.0524018 15:0.0697945 16:0.661574 17:-0.104795 18:0.761315 19:0.369048 20:-0.40439 21:0.952982 
-1 1 1 1 1 1 1 1 1 1 1 1 0 1 1 1:-0.0188299 2:0.732098 3:0.245338 4:0.684235 5:-0.691809 6:0.133128 7:0.538675 8:0.319983 9:0.569458 10:0.749421 11:-0.088644 12:-0.850692 13:0.730792 14:0.301318 15:0.0861441 16:0.613643 17:-0.0878426 18:0.542137 19:0.552695 20:-0.403282 21:0.953684 
-1 1 1 1 1 1 1 1 0 1 1 0 1 1 1 1:0.202175 2:0.764502 3:0.227358 4:0.688098 5:-0.686924 6:0.373454 7:0.551459 8:0.51774 9:-0.241725 10:0.0637537 11:-0.397466 12:-0.790036 13:0.712526 14:0.336927 15:0.16803 16:0.662701 17:-0.105595 18:0.651761 19:0.461502 20:-0.404 21:0.952722 
-1 1 1 1 1 0 0 1 1 0 0 1 0 0 0 1:0.295221 2:0.757577 3:0.627541 4:0.704491 5:-0.490468 6:0.191307 7:0.51834 8:0.221767 9:0.212979 10:0.677528 11:0.243948 12:-0.596866 13:0.744266 14:-0.681633 15:0.0287036 16:0.636406 17:-0.165325 18:0.459115 19:-0.318344 20:-0.40105 21:0.954886 
-0 1 1 1 1 1 1 1 0 0 0 1 0 0 0 1:0.295265 2:0.757547 3:0.618308 4:-0.855917 5:-0.470534 6:0.592699 7:0.387741 8:-0.0731747 9:0.104124 10:0.701422 11:-0.606483 12:-0.653159 13:0.678437 14:-0.541998 15:-0.00184233 16:0.615626 17:-0.119995 18:0.397523 19:-0.12364 20:-0.401334 21:0.953491 
-0.8358271707488675 0 0 1 1 0 0 0 0 0 1 0 1 0 0 1:-0.20498 2:0.745808 3:0.0891127 4:0.71855 5:-0.333331 6:0.128422 7:0.566323 8:0.204093 9:-0.166188 10:-0.000927258 11:0.175632 12:-0.59254 13:0.714839 14:-0.784138 15:0.43416 16:0.600885 17:0.630973 18:0.483005 19:0.100255 20:-0.403507 21:0.954688 
-0.7199175932679499 0 0 1 1 0 0 0 0 0 1 0 1 1 0 1:0.431659 2:0.754881 3:-0.261935 4:0.708212 5:-0.938066 6:0.575341 7:0.52048 8:0.0423346 9:-0.446182 10:0.300855 11:0.111424 12:-0.75446 13:0.702333 14:-0.489213 15:0.548635 16:0.643095 17:-0.178884 18:0.295662 19:0.288214 20:-0.402256 21:0.954923 
-1 1 0 1 1 1 0 1 0 0 0 1 0 0 0 1:0.442438 2:0.739923 3:0.592616 4:0.741718 5:-0.442549 6:0.420296 7:0.587034 8:-0.442906 9:0.0324538 10:0.0389783 11:-0.297825 12:-0.691218 13:0.70972 14:-0.591161 15:-0.541046 16:0.623075 17:-0.141578 18:0.42685 19:0.367015 20:-0.403397 21:0.954665 
-1 0 0 1 1 1 0 0 0 0 0 1 0 0 0 1:-0.258591 2:0.73428 3:0.558935 4:0.698087 5:-0.655219 6:-0.208315 7:0.581766 8:-0.0718758 9:-0.126654 10:0.135605 11:0.23482 12:-0.419873 13:0.714662 14:-0.631892 15:-0.00511432 16:0.60914 17:0.378047 18:0.540463 19:0.266745 20:-0.404556 21:0.955229 
-1 1 0 1 1 0 0 0 0 1 1 0 1 0 0 1:-0.585773 2:0.759615 3:-0.558902 4:0.745062 5:0.065633 6:-0.0452288 7:0.476665 8:0.0947914 9:-0.296555 10:0.0596683 11:0.0130903 12:-0.504484 13:0.692662 14:-0.786495 15:0.089219 16:0.641697 17:-0.213723 18:0.423044 19:0.173099 20:-0.403408 21:0.95485 
-1 1 1 1 1 0.1110941287879302 1 1 1 0 0 1 0 0 1 1:0.315233 2:0.745949 3:0.613834 4:-0.918094 5:-0.423097 6:-0.0560634 7:0.527083 8:0.17367 9:0.585853 10:0.233603 11:0.690841 12:-0.591042 13:0.72086 14:-0.535051 15:0.0269589 16:0.662969 17:-0.121176 18:0.364418 19:-0.157294 20:-0.401892 21:0.954586 
-1 1 1 1 1 0 0 1 0 0 0 1 0 0 0 1:0.0162231 2:0.729059 3:0.638593 4:0.727042 5:-0.426403 6:0.239801 7:0.667065 8:0.212157 9:0.199236 10:0.619398 11:-0.402367 12:-0.691004 13:0.742935 14:-0.7607 15:-0.243234 16:0.617345 17:-0.123067 18:0.469662 19:-0.313322 20:-0.401412 21:0.95491 
-1 1 1 1 1 1 0.9842819038430827 1 1 1 0 1 0 0 0.5560169409843664 1:0.315185 2:0.746045 3:0.621281 4:0.694995 5:-0.520259 6:-0.0167065 7:0.511469 8:-0.805862 9:0.504844 10:0.0725939 11:-0.704302 12:-0.608694 13:0.69037 14:-0.498683 15:0.0392746 16:0.663545 17:-0.181596 18:0.399931 19:-0.48964 20:-0.401125 21:0.954293 
-1 1 0 1 1 0 0 0 0 0 1 0 1 0 0 1:-0.204981 2:0.745789 3:0.0896629 4:0.795323 5:-0.331734 6:-0.0654562 7:0.551834 8:0.0492381 9:-0.0851894 10:0.0443753 11:0.0189085 12:-0.57174 13:0.713359 14:-0.712677 15:-0.935702 16:0.600553 17:-0.0309228 18:0.433412 19:0.272361 20:-0.404573 21:0.955258 
-1 1 1 1 1 1 0 1 1 1 0 1 0 0 1 1:0.315184 2:0.746059 3:0.621587 4:0.814297 5:-0.516486 6:-0.0976404 7:0.63118 8:-0.874306 9:0.54066 10:0.191014 11:0.426004 12:-0.619053 13:0.722176 14:-0.526806 15:0.0408692 16:0.663319 17:-0.197803 18:0.371911 19:-0.452357 20:-0.400646 21:0.954801 
-1 1 1 1 1 1 1 1 1 1 1 1 0 1 1 1:0.178362 2:0.553273 3:0.1918 4:0.711989 5:-0.684476 6:-0.0662831 7:0.553217 8:0.149318 9:0.594959 10:0.711774 11:0.198249 12:-0.742824 13:0.733426 14:0.376386 15:0.0879804 16:0.655406 17:-0.14509 18:0.512068 19:-0.246563 20:-0.401071 21:0.952927 
-1 1 1 1 1 1 1 1 0 0 0 1 0 0 0 1:0.295222 2:0.757561 3:0.627722 4:0.685449 5:-0.484431 6:-0.0406226 7:0.48809 8:0.0414373 9:0.206183 10:0.658905 11:0.0999634 12:-0.597474 13:0.738203 14:-0.654453 15:-0.668363 16:0.603863 17:-0.167913 18:0.456728 19:0.501141 20:-0.403952 21:0.955477 
-1 1 1 1 1 0 0 1 0 0 0 1 0 0 0 1:0.0162228 2:0.729035 3:0.638809 4:0.701651 5:-0.429039 6:0.238409 7:0.542784 8:0.238904 9:0.222199 10:0.662304 11:0.245404 12:-0.699486 13:0.747464 14:-0.76203 15:-0.152299 16:0.616526 17:-0.115153 18:0.471033 19:-0.324179 20:-0.401212 21:0.954999 
-1 1 1 1 1 0 0 1 0 0 0 1 0 0 0 1:0.016222 2:0.729043 3:0.638874 4:0.722147 5:-0.43041 6:0.245884 7:0.561528 8:0.228425 9:0.201472 10:0.6043 11:-0.394415 12:-0.692025 13:0.736065 14:-0.752444 15:-0.241958 16:0.615892 17:-0.115864 18:0.479639 19:-0.337396 20:-0.401481 21:0.954819 
-1 1 1 1 1 1 0 1 0 0 0 1 0 0 0 1:0.308771 2:0.757965 3:0.612138 4:0.72981 5:-0.403916 6:-0.280135 7:0.586558 8:-0.231953 9:-0.0244322 10:-0.206335 11:-0.375818 12:-0.535068 13:0.716679 14:-0.611314 15:-0.106074 16:0.681636 17:-0.182731 18:0.520952 19:0.328821 20:-0.404359 21:0.955009 
-1 1 1 1 1 1 1 1 1 1 1 1 1 1 1 1:0.637188 2:0.7421 3:0.418878 4:0.740884 5:-0.0826813 6:0.5391 7:0.661278 8:0.415577 9:-0.227716 10:0.0567791 11:-0.413855 12:-0.711644 13:0.733817 14:-0.0262695 15:0.309242 16:0.681697 17:-0.0921236 18:0.660148 19:0.469849 20:-0.403083 21:0.952512 
-1 1 0.3363348783966908 1 1 1 0 0 0 0 0 1 0 0 0 1:0.442438 2:0.739886 3:0.593863 4:0.751995 5:-0.405544 6:0.170633 7:0.62481 8:0.163021 9:0.122993 10:0.0953386 11:0.790603 12:-0.658745 13:0.755919 14:-0.699261 15:0.019099 16:0.654095 17:-0.127217 18:0.456538 19:0.398363 20:-0.403213 21:0.955496 
-0 1 1 1 1 0 0 1 0 0 1 0.2595560556043978 1 0 0 1:0.268961 2:0.767703 3:0.300801 4:-0.899452 5:-0.250481 6:-0.217456 7:0.470325 8:-0.742123 9:-0.068318 10:0.229431 11:-0.760045 12:-0.739126 13:0.667458 14:-0.58019 15:0.0173193 16:0.666136 17:-0.101136 18:0.380954 19:-0.278858 20:-0.401831 21:0.953148 
-1 1 1 1 1 1 1 1 1 1 1 1 1 1 1 1:-0.512836 2:0.735089 3:0.650597 4:0.722385 5:-0.204062 6:-0.0120514 7:0.662493 8:-0.0730917 9:-0.0820271 10:-0.136996 11:-0.733331 12:-0.609411 13:0.70313 14:0.0587413 15:0.00646901 16:0.352387 17:-0.167847 18:0.647529 19:0.302684 20:-0.404246 21:0.953489 
-1 1 1 1 1 1 1 1 0.6207125306227009 0 0.8434918865998343 1 0 0.1769555049340136 0.913599308817985 1:-0.0867018 2:0.225596 3:0.563729 4:-0.921353 5:-0.469486 6:-0.332464 7:0.541659 8:-0.0925457 9:0.478594 10:-0.40549 11:0.668634 12:-0.559948 13:0.703601 14:-0.444545 15:0.00904176 16:0.709159 17:-0.119285 18:0.402017 19:-0.236921 20:-0.402683 21:0.954345 
-0 1 0 1 1 0 0 0 0 1 0.6755870108661614 1 0 0 0 1:0.654048 2:0.744793 3:-0.00494806 4:0.758981 5:-0.291642 6:0.427124 7:0.562284 8:0.459623 9:-0.0273643 10:0.0982964 11:-0.00666204 12:-0.629627 13:0.732032 14:-0.752807 15:-0.0356618 16:0.647411 17:-0.143655 18:0.350112 19:0.301111 20:-0.402847 21:0.955067 
-0 1 1 1 1 1 1 1 0 0 0 1 0 0 0 1:0.295267 2:0.757555 3:0.618229 4:-0.864696 5:-0.448955 6:0.113301 7:0.558898 8:-0.484426 9:0.0829631 10:0.714402 11:-0.703135 12:-0.665087 13:0.686447 14:-0.562172 15:0.047788 16:0.636934 17:-0.137548 18:0.388228 19:-0.107577 20:-0.401472 21:0.953636 
-1 1 1 1 1 1 1 1 0 0 0 1 0 0 0 1:0.0162215 2:0.729096 3:0.63783 4:0.831834 5:-0.463258 6:0.443484 7:0.666557 8:-0.418834 9:0.156748 10:0.696779 11:-0.0692505 12:-0.736506 13:0.728964 14:-0.677592 15:-0.79651 16:0.582857 17:-0.148374 18:0.414289 19:-0.316865 20:-0.401054 21:0.954603 
-0 1 0 1 1 1 0 0 0 0 0 1 0 0 0 1:0.889941 2:0.731175 3:0.460441 4:0.725412 5:-0.563259 6:-0.124584 7:0.566795 8:-0.0394652 9:0.599291 10:0.055442 11:-0.409566 12:-0.666193 13:0.733713 14:-0.672574 15:0.0197122 16:0.665498 17:-0.125697 18:0.322815 19:0.322975 20:-0.403232 21:0.955696 
-1 1 1 1 1 1 1 1 1 1 1 1 0 1 0.1130848683412767 1:-0.535868 2:0.703024 3:0.646475 4:0.67992 5:-0.220094 6:0.512984 7:0.648694 8:0.384184 9:0.0367239 10:-0.0539817 11:0.341585 12:-0.716156 13:0.72948 14:0.00199666 15:-0.0447889 16:0.635683 17:-0.0872621 18:0.731037 19:0.491447 20:-0.404056 21:0.953432 
-1 1 1 1 1 1 1 1 0 1 1 1 1 0.4311198399256851 0 1:-0.980694 2:0.765164 3:-0.675362 4:0.874051 5:0.803188 6:0.014119 7:0.455679 8:-0.837832 9:-0.769747 10:0.139268 11:-0.515712 12:-0.668247 13:0.660447 14:-0.522621 15:-0.00469874 16:0.633268 17:-0.155643 18:0.617859 19:0.144846 20:-0.402893 21:0.952138 
-1 1 0 1 1 1 0 0 0 0 0 1 0 1 0 1:0.735626 2:0.72667 3:0.446886 4:0.749163 5:-0.638148 6:-0.057785 7:0.551882 8:-0.778805 9:0.397734 10:-0.324959 11:-0.115879 12:-0.575957 13:0.698034 14:-0.473848 15:-0.372229 16:0.667418 17:-0.206818 18:0.317704 19:0.25457 20:-0.403479 21:0.955147 
-1 1 0 1 1 0 0 0 0 1 1 1 0 1 1 1:0.0592876 2:0.742903 3:0.16201 4:0.758519 5:-0.701117 6:-0.264121 7:0.529319 8:-0.827005 9:0.568233 10:0.739181 11:0.307653 12:-0.67416 13:0.713018 14:-0.566522 15:0.0569611 16:0.627535 17:-0.211445 18:0.264676 19:-0.447428 20:-0.400382 21:0.955274 
-0 1 1 1 1 0.3697551131902768 0 1 0 0 0 1 0 0 0 1:0.400212 2:0.735461 3:0.59767 4:0.772169 5:-0.418606 6:0.514955 7:0.67763 8:0.419804 9:-0.110192 10:0.0476441 11:-0.331395 12:-0.528011 13:0.7324 14:-0.649407 15:0.0345286 16:0.669195 17:-0.181044 18:0.50174 19:-0.391367 20:-0.401414 21:0.954334 
-1 1 0 1 1 1 0 0 0 0 1 0 1 0 0 1:-0.54855 2:0.743671 3:0.103476 4:0.723234 5:-0.21688 6:0.692249 7:0.526237 8:-0.148179 9:-0.344439 10:-0.00877378 11:0.0833589 12:-0.705235 13:0.00587534 14:-0.69787 15:0.15121 16:0.625876 17:-0.177756 18:0.369977 19:0.393779 20:-0.404399 21:0.954778 
-1 1 1 1 1 1 0 1 0 0 0 1 0 0 0 1:-0.844173 2:0.754422 3:0.736353 4:0.659225 5:-0.486405 6:0.289953 7:0.611641 8:0.241849 9:-0.110479 10:-0.287033 11:0.0428566 12:-0.627921 13:0.714114 14:-0.669496 15:-0.518693 16:0.612349 17:-0.12968 18:0.610501 19:0.367186 20:-0.405129 21:0.955542 
-1 1 1 1 1 1 0 1 1 1 0 1 0 0 1 1:0.315187 2:0.746058 3:0.620847 4:0.69647 5:-0.521463 6:0.166873 7:0.585558 8:-0.639675 9:0.547254 10:0.192421 11:0.431887 12:-0.613554 13:0.718567 14:-0.517052 15:0.0601907 16:0.653913 17:-0.187032 18:0.370467 19:-0.432449 20:-0.400564 21:0.954705 
-1 1 1 1 1 0.3981827790385595 1 1 1 0 0 1 0 0 1 1:0.4105 2:0.749612 3:0.589342 4:-0.903866 5:-0.339837 6:0.246728 7:0.745727 8:0.375877 9:0.583781 10:0.249576 11:0.537735 12:-0.570504 13:0.734555 14:-0.570982 15:0.0431758 16:0.659721 17:-0.129918 18:0.33822 19:-0.104453 20:-0.401481 21:0.954605 
-1 1 0 1 1 1 0 0 1 0 1 0.7560086521328629 1 0 0 1:-0.54727 2:0.745444 3:0.103476 4:0.722904 5:-0.216644 6:0.689663 7:0.526279 8:-0.148983 9:-0.187967 10:0.0646848 11:0.347861 12:-0.711742 13:0.0125149 14:-0.696876 15:0.156416 16:0.61993 17:-0.175521 18:0.344427 19:0.404806 20:-0.404185 21:0.954984 
-1 1 1 1 1 1 0 1 0 0 0 1 0 0 0 1:-0.873511 2:0.752919 3:0.628192 4:0.661125 5:-0.696894 6:0.156761 7:0.580611 8:0.226393 9:0.704092 10:0.655015 11:0.516985 12:-0.715077 13:0.741143 14:-0.773442 15:0.020749 16:0.570158 17:-0.115309 18:0.431564 19:0.46033 20:-0.403541 21:0.956975 
-1 1 1 1 1 1 1 1 1 1 1 1 1 0 0 1:0.508815 2:0.740642 3:0.794332 4:0.689452 5:-0.0626501 6:0.532475 7:0.638242 8:0.307502 9:-0.0868016 10:-0.289889 11:0.447777 12:-0.506162 13:0.897935 14:-0.413785 15:0.0252778 16:0.69521 17:-0.147713 18:0.650168 19:-0.410653 20:-0.401089 21:0.953192 
-1 1 1 1 1 1 1 1 0 1 0.8761424365499139 1 0 1 0 1:-0.494135 2:-0.381064 3:0.498334 4:-0.78082 5:-0.575294 6:0.524805 7:0.51188 8:-0.207434 9:0.605621 10:0.333097 11:0.138767 12:-0.644588 13:0.689168 14:-0.432253 15:0.0230074 16:0.641523 17:-0.0963817 18:0.329979 19:-0.102423 20:-0.401174 21:0.954023 
-0 1 1 1 1 0 1 1 0 0 0 1 0 0 0 1:0.295266 2:0.757526 3:0.618584 4:-0.875415 5:-0.460712 6:0.285956 7:0.356025 8:-0.309433 9:0.111276 10:0.74076 11:-0.115293 12:-0.667929 13:0.685152 14:-0.551888 15:0.0658493 16:0.626589 17:-0.122811 18:0.395547 19:-0.130724 20:-0.401308 21:0.953631 
-0 1 0 1 1 0.03742060813856134 0 0 0 0 0 1 0 0 0 1:0.88994 2:0.731169 3:0.460554 4:0.723454 5:-0.564862 6:-0.122151 7:0.52458 8:-0.032958 9:0.600186 10:0.049403 11:-0.406386 12:-0.666602 13:0.730966 14:-0.669272 15:0.0202226 16:0.664917 17:-0.122816 18:0.326806 19:0.313346 20:-0.40326 21:0.955659 
-1 1 0 1 1 1 0 0 0 0 0 1 0 0 0 1:-0.72631 2:0.749672 3:0.737449 4:0.700892 5:-0.543266 6:-0.130307 7:0.610629 8:-0.0791989 9:-0.0757575 10:0.0570914 11:0.02812 12:-0.676032 13:0.723454 14:-0.713334 15:0.0564091 16:0.633309 17:-0.127953 18:0.598517 19:0.383975 20:-0.404552 21:0.955735 
-0 1 0 1 1 0 0 0 0 0 0 1 0 0 1 1:0.880235 2:0.731322 3:0.43362 4:0.724404 5:-0.603764 6:0.261413 7:0.564545 8:0.314716 9:-0.0446632 10:-0.0663528 11:-0.0338948 12:-0.537319 13:0.730861 14:-0.633486 15:0.212648 16:0.697956 17:-0.189573 18:0.405315 19:-0.463639 20:-0.4012 21:0.954557 
-1 1 1 1 1 1 1 1 1 1 1 1 1 1 1 1:0.637189 2:0.742094 3:0.418156 4:0.707511 5:-0.106817 6:0.370976 7:0.526669 8:-0.488176 9:-0.274225 10:0.14208 11:0.198166 12:-0.776302 13:0.714187 14:0.0503084 15:0.074023 16:0.669182 17:-0.107586 18:0.618928 19:0.435784 20:-0.402719 21:0.952156 
-1 1 1 1 1 1 1 1 1 1 1 1 1 1 1 1:-0.435323 2:0.740001 3:0.534116 4:0.70175 5:-0.171029 6:0.316486 7:0.628201 8:-0.57025 9:-0.231419 10:-0.21722 11:-0.00389653 12:-0.749202 13:0.693018 14:0.100055 15:-0.634253 16:0.646528 17:-0.127696 18:0.694239 19:-0.394875 20:-0.402196 21:0.951916 
-1 1 1 1 1 1 1 1 1 1 0 1 0 0 0 1:0.410449 2:0.749646 3:0.598748 4:0.749507 5:-0.411183 6:0.0608021 7:0.573953 8:0.0258141 9:0.571505 10:0.0306096 11:-0.674345 12:-0.543364 13:0.719 14:-0.593222 15:0.0160008 16:0.670074 17:-0.167308 18:0.427412 19:-0.458865 20:-0.401455 21:0.954684 
-1 1 1 1 1 1 1 1 0 0 1 1 1 1 0 1:-0.296683 2:0.739676 3:0.219807 4:0.695613 5:-0.459638 6:0.263237 7:0.536926 8:-0.468434 9:-0.298692 10:-0.0487606 11:-0.185968 12:-0.744151 13:0.686785 14:-0.246194 15:0.228317 16:0.648035 17:-0.141181 18:0.549431 19:0.310963 20:-0.403424 21:0.953745 
-1 1 1 1 1 1 0.7772069840273425 1 1 1 0 1 0 0 0 1:0.410452 2:0.749657 3:0.597454 4:0.67917 5:-0.438167 6:0.119444 7:0.493978 8:-0.691982 9:0.535469 10:0.147251 11:0.150177 12:-0.605397 13:0.707753 14:-0.530172 15:0.0533257 16:0.659147 17:-0.17954 18:0.379089 19:-0.467631 20:-0.40064 21:0.954422 
-1 1 1 1 1 1 0.1011788093205202 1 0 0 1 1 0 0 0 1:-0.767196 2:0.754483 3:0.42098 4:0.707811 5:-0.346723 6:-0.214265 7:0.560482 8:-0.120177 9:0.170675 10:0.746056 11:0.379035 12:-0.454338 13:0.721581 14:-0.689523 15:0.160916 16:0.56736 17:0.396282 18:0.54659 19:0.328657 20:-0.403776 21:0.955283 
-1 1 1 1 1 1 1 1 0.1004319917391553 1 1 1 1 1 0 1:-0.435326 2:0.739971 3:0.535714 4:0.750309 5:-0.138237 6:0.0534456 7:0.638299 8:-0.00834033 9:-0.188862 10:-0.302315 11:-0.334576 12:-0.704349 13:0.710209 14:0.00225113 15:0.0853029 16:0.673869 17:-0.101302 18:0.761513 19:0.389018 20:-0.404485 21:0.952969 
-1 1 1 1 1 1 0 0 0 0 0 1 0 0 0 1:0.442436 2:0.739842 3:0.595485 4:0.761614 5:-0.370026 6:-0.146597 7:0.5939 8:0.750181 9:0.166381 10:-0.0146368 11:0.247379 12:-0.604982 13:0.765518 14:-0.763165 15:-0.0289219 16:0.671717 17:-0.10948 18:0.513953 19:0.388861 20:-0.404224 21:0.955773 
-1 1 1 1 1 1 1 1 0 0 0 1 0 0 0 1:-0.843534 2:0.75532 3:0.73644 4:0.695075 5:-0.495692 6:0.522622 7:0.598821 8:0.433021 9:-0.0903496 10:-0.233146 11:0.478229 12:-0.514943 13:0.718211 14:-0.624502 15:-0.322964 16:0.61413 17:-0.175819 18:0.613502 19:0.391179 20:-0.404739 21:0.955626 
-1 0 0 1 1 0.4750106232358813 0 0 0 0 1 0 1 0 0 1:-0.548549 2:0.743687 3:0.103221 4:0.745435 5:-0.216343 6:0.782105 7:0.614979 8:-0.0743754 9:-0.323917 10:0.0577234 11:0.648263 12:-0.706881 13:0.0235939 14:-0.711663 15:0.16105 16:0.621752 17:-0.184557 18:0.350897 19:0.431103 20:-0.404076 21:0.955036 
-1 1 1 1 1 1 1 1 0 0 0 1 0.5063102310806968 0.5357156036936095 0 1:0.295264 2:0.757506 3:0.618775 4:-0.905568 5:-0.478827 6:0.606852 7:0.136319 8:-0.0314594 9:0.105049 10:0.654265 11:-0.730407 12:-0.653477 13:0.658524 14:-0.512648 15:-0.169988 16:0.606483 17:-0.103101 18:0.419315 19:-0.172376 20:-0.401708 21:0.95321 
-1 1 1 1 1 1 0 1 0 0 0.284087368906666 1 1 0 0 1:-0.727708 2:0.753365 3:0.413872 4:0.654898 5:-0.40344 6:0.705976 7:0.565664 8:-0.191274 9:-0.242281 10:-0.185895 11:0.0760731 12:-0.56366 13:0.685171 14:-0.592245 15:0.828867 16:0.648019 17:-0.184775 18:0.555217 19:0.284367 20:-0.402957 21:0.95479 
-1 1 0 1 1 0.8465656214905231 0 0 1 0 1 0 0.9322594181429966 0 0 1:-0.548553 2:0.743606 3:0.105985 4:0.796506 5:-0.157068 6:-0.474874 7:0.560573 8:-0.324671 9:-0.326629 10:-0.104473 11:-0.338976 12:-0.67941 13:0.0189967 14:-0.774415 15:0.0397364 16:0.671392 17:-0.181607 18:0.425285 19:0.35467 20:-0.405777 21:0.955191 
-1 1 1 1 1 1 0 1 1 1 0 1 0 0 1 1:0.315185 2:0.74604 3:0.622136 4:0.74776 5:-0.489877 6:0.00178491 7:0.663242 8:0.00223856 9:0.594104 10:0.115216 11:0.0306162 12:-0.558934 13:0.737592 14:-0.585915 15:0.0187226 16:0.666675 17:-0.177069 18:0.411696 19:-0.413863 20:-0.401305 21:0.955098 
-0 1 0 1 1 0 0 1 0 0.813496226943408 1 0 1 0 0 1:0.833422 2:0.737319 3:0.315075 4:-0.90465 5:-0.247908 6:-0.0601914 7:0.488853 8:0.203217 9:-0.336651 10:-0.268596 11:0.550513 12:-0.539286 13:0.706417 14:-0.534097 15:0.0167974 16:0.720335 17:-0.146878 18:0.423901 19:-0.264548 20:-0.402261 21:0.953289 
-1 1 1 1 1 1 1 1 1 1 0 1 0 0 1 1:0.315181 2:0.745959 3:0.623273 4:0.703546 5:-0.512096 6:0.159817 7:0.143131 8:0.198388 9:0.622976 10:0.083254 11:0.498727 12:-0.564672 13:0.712443 14:-0.548767 15:0.0372988 16:0.653591 17:-0.140213 18:0.451352 19:-0.511718 20:-0.401427 21:0.954767 
-0.04740111377118764 0 0 1 1 0 0 0 1 0 0 1 0 0 0 1:0.799568 2:0.742275 3:0.247103 4:0.703436 5:-0.276985 6:0.382578 7:0.498466 8:0.412857 9:-0.0487039 10:-0.0655313 11:0.733289 12:-0.66946 13:0.0582379 14:-0.693649 15:0.0485149 16:0.676221 17:-0.157382 18:0.291841 19:0.447659 20:-0.404342 21:0.955128 
-0.6380276598123695 1 1 1 1 0 0.08022923048849422 1 1 0 0 1 0 0 0 1:0.295221 2:0.757587 3:0.62782 4:0.769644 5:-0.478565 6:-0.14473 7:0.648238 8:-0.0761744 9:0.194182 10:0.664219 11:-0.0549845 12:-0.598947 13:0.746296 14:-0.679878 15:-0.338705 16:0.637816 17:-0.184014 18:0.449809 19:-0.307846 20:-0.401527 21:0.95494 
-1 1 1 1 1 1 1 1 0 1 1 1 1 1 1 1:0.202175 2:0.764464 3:0.228208 4:0.689952 5:-0.664138 6:-0.368502 7:0.521284 8:-0.0816748 9:-0.257952 10:0.0779125 11:-0.0599238 12:-0.81762 13:0.715676 14:0.32318 15:0.558642 16:0.0740159 17:-0.15607 18:0.414967 19:0.119202 20:-0.403029 21:0.953704 
-1 1 1 1 1 0 1 1 1 0 0 1 0 0 0 1:0.29522 2:0.75757 3:0.6281 4:0.764749 5:-0.482572 6:-0.138648 7:0.542701 8:-0.0599064 9:0.196418 10:0.649121 11:-0.0470322 12:-0.599968 13:0.739427 14:-0.671622 15:-0.337429 16:0.636363 17:-0.176811 18:0.459786 19:-0.331919 20:-0.401596 21:0.954848 
-1 1 1 1 1 1 0 1 0 0 0 1 0 0 0 1:-0.767079 2:0.749101 3:0.741634 4:0.676236 5:-0.548858 6:-0.194695 7:0.551707 8:-0.128585 9:-0.114319 10:-0.23044 11:0.603045 12:-0.548553 13:0.716939 14:-0.622047 15:0.144125 16:0.657432 17:-0.17977 18:0.622526 19:0.34256 20:-0.40475 21:0.955698 
-1 1 1 1 1 1 1 1 1 1 1 1 0 1 1 1:-0.0188311 2:0.732096 3:0.245739 4:0.725539 5:-0.685614 6:-0.126916 7:0.566196 8:0.0890828 9:0.542018 10:0.689351 11:-0.734457 12:-0.849237 13:0.71913 14:0.313572 15:-0.192634 16:0.615791 17:-0.0958612 18:0.549502 19:0.532891 20:-0.403844 21:0.953528 
-1 1 1 1 1 1 1 1 1 1 0 1 0 0 1 1:0.315179 2:0.745961 3:0.623776 4:0.765075 5:-0.505215 6:-0.131404 7:0.188824 8:-0.0693895 9:0.585704 10:0.00371084 11:-0.362685 12:-0.563494 13:0.69815 14:-0.546179 15:0.00982679 16:0.667154 17:-0.147146 18:0.466914 19:-0.547416 20:-0.401847 21:0.954575 
-0 1 0 1 1 0 0 0 0 1 1 1 1 0 0 1:0.529396 2:0.747756 3:-0.123884 4:0.771802 5:-0.191751 6:-0.473639 7:0.558506 8:-0.286932 9:-0.245366 10:0.0165773 11:-0.58027 12:-0.531344 13:0.708341 14:-0.725861 15:0.0688746 16:0.691627 17:-0.211388 18:0.395826 19:0.233743 20:-0.403572 21:0.954724 
-1 1 1 1 1 1 1 1 0 0 1 1 1 1 0 1:-0.366671 2:0.74324 3:0.667412 4:0.680384 5:-0.576208 6:-0.1045 7:0.54557 8:-0.834841 9:-0.000444754 10:-0.115676 11:0.0993646 12:-0.77444 13:0.69598 14:-0.142911 15:0.369981 16:0.664198 17:-0.123403 18:0.613381 19:0.350163 20:-0.403741 21:0.954007 
-0.7646670269589246 1 0 1 1 1 0 1 0 0 0 1 0 0 0 1:0.44244 2:0.73989 3:0.592756 4:0.660881 5:-0.434615 6:0.180016 7:0.477166 8:-0.612401 9:0.0433106 10:0.0820472 11:0.338989 12:-0.710904 13:0.714244 14:-0.614543 15:0.0438653 16:0.648955 17:-0.13128 18:0.437845 19:0.338982 20:-0.40293 21:0.954769 
-0.2137993010492648 1 1 1 1 0.251294088848949 0 1 0 0 0 1 0 0 0 1:0.0162246 2:0.729065 3:0.637733 4:0.697935 5:-0.445744 6:0.00240049 7:0.613627 8:-0.762398 9:0.141295 10:0.69522 11:-0.0115939 12:-0.755301 13:0.724208 14:-0.691781 15:-0.400477 16:0.612028 17:-0.143556 18:0.426989 19:-0.340934 20:-0.401036 21:0.954563 
-0 0.9539792242329489 0 1 1 1 0 0 0 0 0 1 1 0 0 1:0.833374 2:0.737404 3:0.323469 4:0.741206 5:-0.314802 6:0.0349887 7:0.582644 8:0.0677679 9:-0.318339 10:-0.31199 11:-0.563838 12:-0.623727 13:0.72004 14:-0.649167 15:0.00418981 16:0.696206 17:-0.139988 18:0.47325 19:0.279228 20:-0.403783 21:0.954385 
-1 1 0 1 1 1 0 0 1 0 1 1 0 0 1 1:0.795619 2:0.742383 3:0.248284 4:0.706044 5:-0.269053 6:0.116612 7:0.480709 8:0.18816 9:-0.0925722 10:0.285561 11:0.0152564 12:-0.439129 13:0.0358173 14:-0.627118 15:0.121696 16:0.637517 17:0.366422 18:0.33804 19:0.377582 20:-0.404668 21:0.954341 
-0.7947340613355248 1 1 1 1 1 0 1 0.3614981428582812 0.7594380705097766 0 1 0.3675554782571628 0 1 1:0.829581 2:0.735311 3:0.553304 4:-0.918592 5:-0.451241 6:0.75983 7:0.537509 8:0.0194488 9:0.483317 10:-0.375742 11:0.44384 12:-0.607189 13:0.689163 14:-0.383825 15:0.0243704 16:0.653204 17:0.199953 18:0.304161 19:-0.334683 20:-0.401193 21:0.95333 
-1 1 0 1 1 1 1 1 1 0.7999842872014041 0 1 0.6921742854777125 0 1 1:0.800207 2:0.743177 3:0.247546 4:0.768664 5:-0.271081 6:0.126337 7:0.605306 8:0.148941 9:-0.0098663 10:0.0377602 11:-0.741802 12:-0.415197 13:0.0253821 14:-0.590801 15:0.0317104 16:0.646178 17:0.357746 18:0.329994 19:0.342698 20:-0.404968 21:0.954257 
-1 0.3213614164411177 0 1 1 1 0 0 0 0 1 0 1 0 0 1:-0.54855 2:0.74368 3:0.103333 4:0.743477 5:-0.217946 6:0.784537 7:0.572764 8:-0.0678682 9:-0.323023 10:0.0516843 11:0.651444 12:-0.70729 13:0.0208461 14:-0.70836 15:0.16156 16:0.62117 17:-0.181676 18:0.354888 19:0.421474 20:-0.404104 21:0.954999 
-1 1 0 1 1 1 0 0 0 0 0 1 0 0 0 1:-0.726307 2:0.749685 3:0.736168 4:0.630946 5:-0.571281 6:-0.0657554 7:0.52965 8:-0.801501 9:-0.127776 10:0.127082 11:0.355702 12:-0.732493 13:0.702107 14:-0.640423 15:0.00527038 16:0.620999 17:-0.139446 18:0.557555 19:0.36447 20:-0.40398 21:0.955314 
-1 1 0 1 1 0 0 0 0 1 1 1 0 1 0.4397563396952239 1:0.0592853 2:0.742965 3:0.161021 4:0.784554 5:-0.707134 6:0.242698 7:0.704695 8:0.0298791 9:0.424173 10:-0.428197 11:-0.262288 12:-0.5362 13:0.702999 14:-0.469755 15:0.0297297 16:0.674696 17:-0.217328 18:0.331001 19:-0.573336 20:-0.401497 21:0.955062 
-1 -0 0 1 1 0 0 0 0 0 1 0 1 1 0 1:0.431657 2:0.754842 3:-0.260398 4:0.739222 5:-0.900617 6:0.176912 7:0.547336 8:0.506805 9:-0.400485 10:0.222575 11:-0.219921 12:-0.704838 13:0.717934 14:-0.540102 15:0.0662733 16:0.64717 17:-0.173478 18:0.333403 19:0.305801 20:-0.403515 21:0.955288 
-1 1 0 1 1 0 0 1 0 1 1 1 0 1 1 1:0.059282 2:0.742853 3:0.16334 4:0.764237 5:-0.715681 6:0.256151 7:0.16176 8:0.132851 9:0.606848 10:0.584927 11:-0.457252 12:-0.620449 13:0.688894 14:-0.563397 15:0.0430232 16:0.611035 17:-0.165336 18:0.33429 19:-0.517418 20:-0.400982 21:0.954957 
-0 1 1 1 1 0 0.3769511067119273 1 0 0 0 1 0 0 0.3657263515951049 1:0.295267 2:0.757523 3:0.619265 4:-0.875441 5:-0.420074 6:0.0733665 7:0.562721 8:0.290388 9:0.161461 10:0.710245 11:-0.245682 12:-0.617962 13:0.717575 14:-0.639892 15:0.192586 16:0.647525 17:-0.119604 18:0.4216 19:-0.0735792 20:-0.401771 21:0.954209 
-0 1 0 1 1 0 0 0.415692256076175 0 0 0 1 0 0 0 1:0.400212 2:0.735424 3:0.598335 4:0.770072 5:-0.406053 6:0.042096 7:0.596022 8:0.0559921 9:-0.0989454 10:0.0974446 11:0.373549 12:-0.549244 13:0.739723 14:-0.657101 15:0.00741389 16:0.681159 17:-0.185307 18:0.501003 19:-0.411272 20:-0.401513 21:0.954511 
-1 1 1 1 1 0 0.2295529743576146 1 0.9178277581207235 1 1 1 1 0 1 1:0.326866 2:0.76874 3:-0.287992 4:0.783541 5:0.0562437 6:-0.036372 7:0.609049 8:-0.0251138 9:0.460387 10:-0.246926 11:-0.346059 12:-0.344918 13:0.69616 14:-0.551771 15:0.536357 16:0.668555 17:0.372488 18:0.361104 19:-0.772829 20:-0.40064 21:0.953507 
-0 0 0 1 1 0 0 0 1 0 0 1 0 0 0 1:0.796722 2:0.742073 3:0.2477 4:0.726417 5:-0.271381 6:0.249463 7:0.553783 8:0.293558 9:-0.203734 10:-0.0785985 11:0.305193 12:-0.669471 13:0.0534709 14:-0.7077 15:0.0326312 16:0.68424 17:-0.16476 18:0.313714 19:0.447445 20:-0.404589 21:0.954963 
-1 0 0 1 1 1 0 0 0 0 0 1 0 0 1 1:-0.25859 2:0.734306 3:0.55821 4:0.695351 5:-0.676338 6:0.463811 7:0.588626 8:0.484258 9:-0.105493 10:0.133635 11:0.112088 12:-0.392945 13:0.713494 14:-0.589982 15:-0.810185 16:0.556395 17:0.3797 18:0.518752 19:0.326244 20:-0.404902 21:0.955136 
-1 1 1 1 1 1 1 1 0 1 1 1 1 1 0 1:0.144493 2:0.756129 3:-0.357081 4:0.808395 5:0.530922 6:0.583021 7:0.49243 8:-0.318759 9:-0.318545 10:0.817735 11:-0.0934943 12:-0.778709 13:0.705595 14:-0.0455337 15:-0.0833735 16:0.611978 17:-0.111798 18:0.576294 19:0.426328 20:-0.401684 21:0.951423 
-1 1 1 1 1 0 0 1 1 0 0 1 0 0 0 1:0.295219 2:0.757589 3:0.628049 4:0.824002 5:-0.486927 6:0.0247693 7:0.61042 8:0.0642752 9:0.209597 10:0.684467 11:0.237706 12:-0.597781 13:0.751032 14:-0.687249 15:-0.154336 16:0.636896 17:-0.179473 18:0.451756 19:-0.316775 20:-0.401183 21:0.955013 
-1 1 0 1 1 1 1 1 0 1 1 1 1 0 1 1:0.793875 2:0.741825 3:0.24824 4:0.707725 5:-0.265984 6:0.117585 7:0.510023 8:0.169244 9:0.108766 10:0.693958 11:-0.131913 12:-0.432707 13:0.729232 14:-0.637488 15:0.123292 16:0.605378 17:0.401723 18:0.42207 19:0.319135 20:-0.402822 21:0.954302 
-1 1 0 1 1 1 0 1 0 0 0 1 0 0 0 1:0.44244 2:0.739897 3:0.592644 4:0.662839 5:-0.433012 6:0.177583 7:0.519381 8:-0.618908 9:0.0424161 10:0.0880862 11:0.335808 12:-0.710495 13:0.716992 14:-0.617846 15:0.0433549 16:0.649537 17:-0.134161 18:0.433854 19:0.348612 20:-0.402902 21:0.954805 
-0 1 0 1 1 1 0 0 0 1 1 1 1 0 0 1:0.833377 2:0.737455 3:0.321735 4:0.733143 5:-0.351711 6:0.46448 7:0.640607 8:-0.37367 9:-0.360561 10:-0.224381 11:-0.304709 12:-0.663774 13:0.707226 14:-0.565227 15:-0.449587 16:0.673775 17:-0.166465 18:0.405536 19:-0.499376 20:-0.401139 21:0.953381 
-1 1 0 1 1 0 0 0 0 0 1 0 0 0 0 1:-0.532631 2:0.74567 3:0.0760239 4:0.692911 5:-0.331871 6:0.462185 7:0.560887 8:0.486679 9:-0.0659903 10:0.0769343 11:0.310264 12:-0.632958 13:0.720263 14:-0.789302 15:0.117258 16:0.617232 17:-0.140349 18:0.453707 19:0.302949 20:-0.403429 21:0.955599 
-0.1370293550458511 1 1 1 1 0 1 1 1 0 0 1 0 0 0 1:0.29522 2:0.757577 3:0.627988 4:0.766707 5:-0.480969 6:-0.141081 7:0.584916 8:-0.0664136 9:0.195523 10:0.65516 11:-0.0502131 12:-0.59956 13:0.742174 14:-0.674924 15:-0.337939 16:0.636944 17:-0.179692 18:0.455795 19:-0.32229 20:-0.401569 21:0.954885 
-1 1 1 1 1 1 1 1 1 1 1 1 1 1 0 1:-0.435325 2:0.739973 3:0.535334 4:0.70688 5:-0.149163 6:0.418608 7:0.572337 8:0.305566 9:-0.166417 10:-0.267474 11:0.102537 12:-0.703092 13:0.715745 14:-0.0132747 15:0.625469 16:0.677927 17:-0.0856162 18:0.765897 19:0.389044 20:-0.403745 21:0.953025 
-1 1 1 1 1 1 0 1 0 0 0.4190467829122051 1 0 1 0 1:-0.873511 2:0.75292 3:0.627597 4:0.649597 5:-0.720379 6:-0.101662 7:0.480807 8:-0.777254 9:0.623941 10:0.672399 11:0.203423 12:-0.659544 13:0.699875 14:-0.624287 15:-0.477498 16:0.560413 17:-0.185255 18:0.407231 19:0.428131 20:-0.403788 21:0.956318 
-1 1 1 1 1 1 1 1 1 1 1 1 0.3981968838239885 1 1 1:0.178362 2:0.553247 3:0.192425 4:0.73105 5:-0.67291 6:-0.502795 7:0.513447 8:-0.197859 9:0.595478 10:0.73399 11:0.546661 12:-0.758244 13:0.736643 14:0.373153 15:-0.0247949 16:0.664947 17:-0.152005 18:0.512296 19:-0.26509 20:-0.401306 21:0.953031 
-1 1 1 1 1 1 1 1 0 1 0 1 0 0 0 1:0.508814 2:0.740636 3:0.794534 4:0.686838 5:-0.0655141 6:0.540841 7:0.573894 8:0.306638 9:-0.10297 10:-0.342122 11:0.0242513 12:-0.506181 13:0.88641 14:-0.425427 15:0.534631 16:0.69891 17:-0.131039 18:0.678761 19:0.355761 20:-0.402957 21:0.953688 
-0.3604103899938434 1 0 1 1 0 0 0 0 0 1 1 0 0 0 1:-0.204981 2:0.745769 3:0.0900145 4:0.777534 5:-0.318498 6:-0.46801 7:0.535938 8:-0.274309 9:-0.0961885 10:0.0299774 11:0.00809328 12:-0.648658 13:0.714509 14:-0.744146 15:-0.966285 16:0.622221 17:-0.165764 18:0.429124 19:0.278579 20:-0.404773 21:0.955424 
-1 1 0 1 1 0 0 0 0.2757498264540994 0 0 0.6635349714327663 0 0 0 1:-0.548552 2:0.743633 3:0.104786 4:0.754143 5:-0.183229 6:0.430384 7:0.556683 8:0.413777 9:-0.150255 10:0.00149501 11:-0.56546 12:-0.661376 13:0.0193598 14:-0.767938 15:0.190639 16:0.636755 17:-0.159914 18:0.398306 19:0.405652 20:-0.405072 21:0.955201 
-1 1 0 1 1 1 1 0.8144941595086149 1 1 1 1 0 0 1 1:0.800209 2:0.743166 3:0.247115 4:0.705821 5:-0.276689 6:0.378638 7:0.538251 8:0.39898 9:0.0457991 10:0.167331 11:0.688768 12:-0.423191 13:0.0495273 14:-0.599407 15:0.0609417 16:0.631444 17:0.363784 18:0.30648 19:0.387704 20:-0.404388 21:0.954612 
-1 1 1 1 1 1 0 1 1 1 0 1 0 0 1 1:0.315183 2:0.746029 3:0.622654 4:0.784656 5:-0.489188 6:-0.155734 7:0.610973 8:-0.134462 9:0.576759 10:0.0641013 11:-0.394494 12:-0.559408 13:0.725628 14:-0.579201 15:0.00472257 16:0.672968 17:-0.175957 18:0.427005 19:-0.451124 20:-0.40157 21:0.954941 
-0 1 0 1 1 0 0 0 0 0 1 1 0 0 0 1:-0.204979 2:0.745795 3:0.089052 4:0.718116 5:-0.331533 6:0.122592 7:0.565754 8:0.217891 9:-0.06373 10:0.101232 11:0.655312 12:-0.644094 13:0.731361 14:-0.776982 15:-0.154066 16:0.628413 17:-0.150211 18:0.423055 19:0.310225 20:-0.403548 21:0.955617 
-0 0 0 1 1 0 0 0 0 0 1 1 0.4074305355714511 0 0 1:-0.121269 2:0.748173 3:0.184233 4:0.697355 5:-0.486467 6:0.792049 7:0.557328 8:-0.0332751 9:-0.0547452 10:-0.0222151 11:0.455666 12:-0.675555 13:0.705695 14:-0.653445 15:0.00569035 16:0.613863 17:-0.153968 18:0.384368 19:0.293021 20:-0.40275 21:0.955161 
-1 1 0 1 1 1 0 0 0 0 1 1 1 0 0 1:-0.20498 2:0.745836 3:0.0879332 4:0.747755 5:-0.368696 6:0.304436 7:0.564807 8:-0.471209 9:-0.0864218 10:0.142218 11:-0.380654 12:-0.42949 13:0.676409 14:-0.597088 15:0.229368 16:0.595741 17:0.362592 18:0.433811 19:0.153467 20:-0.403103 21:0.954285 
-0.7329148185483008 1 0 1 1 1 0 1 0 0 0 1 0 1 0 1:0.735626 2:0.726669 3:0.446864 4:0.729471 5:-0.638784 6:-0.052745 7:0.530965 8:-0.781004 9:0.382391 10:-0.367791 11:-0.541933 12:-0.573471 13:0.688102 14:-0.472865 15:-0.204663 16:0.67486 17:-0.201647 18:0.330324 19:0.234705 20:-0.403504 21:0.954992 
-1 1 1 1 1 1 0 1 0 0 0 1 0 0 0 1:0.0162226 2:0.729066 3:0.637929 4:0.732754 5:-0.455277 6:0.178804 7:0.554632 8:-0.621866 9:0.138955 10:0.660336 11:-0.285757 12:-0.747701 13:0.715757 14:-0.682873 15:-0.38992 16:0.606607 17:-0.137032 18:0.437215 19:-0.360897 20:-0.401052 21:0.954428 
-1 0 0 1 1 0.2516517513137377 0 0 0 0 1 0.8860449015791263 1 0 0 1:-0.204983 2:0.745801 3:0.0892963 4:0.794766 5:-0.334837 6:-0.157131 7:0.574326 8:-0.0660028 9:-0.102014 10:-0.371386 11:-0.112084 12:-0.353954 13:0.691859 14:-0.604838 15:-0.00173792 16:0.633949 17:0.362167 18:0.491579 19:0.0865118 20:-0.404403 21:0.954648 
-1 1 1 1 1 1 1 1 1 1 1 1 1 0 0.2207763797039767 1:0.508807 2:0.740608 3:0.795438 4:0.856223 5:-0.102445 6:0.295773 7:0.275231 8:-0.668071 9:-0.150038 10:-0.308321 11:0.441874 12:-0.568318 13:0.853435 14:-0.328417 15:0.0368205 16:0.694227 17:-0.150537 18:0.654198 19:-0.56223 20:-0.400844 21:0.952526 
-0.2620532573538765 1 0 1 1 0 0 0 0 0 1 0 0 1 1 1:0.0593341 2:0.742796 3:0.154827 4:-0.892575 5:-0.599111 6:-0.552339 7:0.490408 8:-0.0737715 9:0.589355 10:0.743921 11:0.135766 12:-0.649695 13:0.707337 14:-0.58012 15:0.0158878 16:0.640617 17:-0.145535 18:0.264043 19:-0.176419 20:-0.401901 21:0.955026 
-1 1 1 1 1 1 1 1 1 1 1 1 1 1 1 1:0.202176 2:0.76443 3:0.227037 4:0.6879 5:-0.67232 6:-0.362321 7:0.523715 8:-0.105936 9:0.449392 10:0.11943 11:0.333787 12:-0.557163 13:0.708146 14:0.498487 15:0.0618924 16:0.636258 17:0.413206 18:0.591754 19:0.320047 20:-0.404178 21:0.952802 
-1 1 0 1 1 1 0 0 0 0 0 1 0 0 0 1:-0.726308 2:0.749705 3:0.736022 4:0.671531 5:-0.57573 6:0.101674 7:0.597588 8:-0.678929 9:-0.128068 10:0.123724 11:0.21407 12:-0.725078 13:0.704757 14:-0.643279 15:0.0152551 16:0.616829 17:-0.142037 18:0.55321 19:0.377379 20:-0.403863 21:0.955333 
-1 1 1 1 1 1 1 1 1 1 1 1 1 1 0 1:-0.435326 2:0.739963 3:0.535729 4:0.749071 5:-0.138598 6:0.0499207 7:0.6181 8:0.00536531 9:-0.170741 10:-0.263448 11:0.0951474 12:-0.70498 13:0.716809 14:0.0184907 15:-0.422193 16:0.653446 17:-0.106769 18:0.745304 19:0.415379 20:-0.404781 21:0.953073 
-1 1 1 1 1 1 1 1 1 1 1 1 1 1 1 1:-0.623767 2:0.745471 3:0.556764 4:0.684224 5:-0.154788 6:0.341113 7:0.593219 8:0.260432 9:-0.0376129 10:0.000250993 11:0.697884 12:-0.657058 13:0.726238 14:0.00617273 15:0.0310335 16:0.630385 17:0.0384446 18:0.747761 19:0.439752 20:-0.404061 21:0.953268 
-1 1 0 1 1 0 0 0 0 0 1 1 1 0 0 1:-0.20498 2:0.74579 3:0.0890209 4:0.697676 5:-0.336622 6:0.134507 7:0.522371 8:0.204178 9:-0.0189741 10:0.105908 11:-0.207379 12:-0.381837 13:0.697494 14:-0.654352 15:0.0229619 16:0.598744 17:0.379891 18:0.469941 19:0.182049 20:-0.403914 21:0.954712 
-1 1 1 1 1 1 1 1 1 1 1 1 0 1 1 1:0.0481369 2:0.719446 3:0.612431 4:0.716828 5:-0.0339378 6:0.381156 7:0.59622 8:0.204013 9:0.804221 10:0.590126 11:-0.644186 12:-0.502006 13:0.717132 14:0.158621 15:0.0602064 16:0.584106 17:0.465448 18:0.65573 19:0.445711 20:-0.403231 21:0.952564 
-0 0 0 1 1 0 0 0 0 0 1 0 1 0 0 1:-0.53327 2:0.744815 3:0.0748769 4:0.702997 5:-0.361642 6:0.562286 7:0.561702 8:-0.227457 9:-0.207175 10:0.0690098 11:0.368352 12:-0.679186 13:0.698532 14:-0.71261 15:0.0707519 16:0.296559 17:-0.182278 18:0.299298 19:0.128099 20:-0.402447 21:0.95554 
-0 1 0 1 1 0 0 0 0 0 1 1 1 0 1 1:0.880238 2:0.731352 3:0.432253 4:0.698761 5:-0.627555 6:0.256056 7:0.605019 8:-0.477779 9:-0.100556 10:0.00746508 11:0.144733 12:-0.58746 13:0.714067 14:-0.543186 15:-0.52645 16:0.665128 17:-0.218408 18:0.343281 19:-0.44285 20:-0.401191 21:0.954197 
-1 1 1 1 1 1 0 1 0 0 0 1 0 0 0 1:0.308772 2:0.757988 3:0.611416 4:0.689281 5:-0.418522 6:0.255363 7:0.589823 8:0.204074 9:-0.0161847 10:-0.212591 11:-0.507494 12:-0.521442 13:0.715723 14:-0.616444 15:0.270949 16:0.676856 17:-0.169084 18:0.524036 19:0.342829 20:-0.403808 21:0.954934 
-1 1 1 1 1 1 1 1 1 1 1 1 1 0 0.3438059159798109 1:0.508813 2:0.740624 3:0.794885 4:0.724934 5:-0.0616577 6:0.369473 7:0.566021 8:0.180304 9:-0.0847711 10:-0.290392 11:0.592553 12:-0.512484 13:0.896026 14:-0.412849 15:0.0153714 16:0.69924 17:-0.147051 18:0.657077 19:-0.436794 20:-0.401173 21:0.953197 
-1 1 0 1 1 1 0 0.1412706436399645 0 0 0 1 0 0 0 1:-0.726308 2:0.749678 3:0.736281 4:0.628988 5:-0.572884 6:-0.0633225 7:0.487435 8:-0.794994 9:-0.126882 10:0.121043 11:0.358883 12:-0.732901 13:0.69936 14:-0.637121 15:0.0057808 16:0.620417 17:-0.136565 18:0.561546 19:0.354841 20:-0.404008 21:0.955277 
-1 1 0.8950557560598456 1 1 1 0 1 0 0 0 1 0 0 0 1:0.295222 2:0.75758 3:0.627551 4:0.689711 5:-0.481813 6:-0.0391666 7:0.571308 8:0.0144868 9:0.180828 10:0.615135 11:-0.477242 12:-0.596088 13:0.733066 14:-0.680509 15:0.00761767 16:0.631869 17:-0.164466 18:0.47302 19:0.478832 20:-0.40352 21:0.955386 
-1 1 0 1 1 1 0 1 0 0 0 1 0 0 0 1:0.442439 2:0.739918 3:0.592364 4:0.680875 5:-0.444634 6:0.548785 7:0.533343 8:-0.327554 9:0.0436621 10:0.0720509 11:0.129902 12:-0.700619 13:0.715622 14:-0.629698 15:0.493136 16:0.653763 17:-0.124472 18:0.44214 19:0.34325 20:-0.402373 21:0.954749 
-1 1 1 1 1 1 0 0.7015217746289345 0.3479899650165604 0 0 1 0 0 0 1:0.442436 2:0.739807 3:0.596124 4:0.74356 5:-0.350808 6:-0.711341 7:0.553046 8:0.360425 9:0.170489 10:0.0167525 11:0.730125 12:-0.62336 13:0.772295 14:-0.77989 15:0.0249371 16:0.691711 17:-0.114495 18:0.518213 19:0.36969 20:-0.4044 21:0.955947 
-1 1 1 1 1 1 1 1 1 1 1 1 1 1 1 1:0.637188 2:0.742114 3:0.417737 4:0.724176 5:-0.12349 6:0.875944 7:0.525521 8:-0.0734301 9:-0.258074 10:0.141542 11:0.142022 12:-0.757822 13:0.714116 14:0.0728098 15:-0.316694 16:0.637164 17:-0.104299 18:0.607472 19:0.468883 20:-0.402783 21:0.952104 
-0 1 1 1 1 0.7599676479144982 0.4359759020738065 1 1 0 0 1 0 0 0.4460404473320759 1:0.4105 2:0.749592 3:0.589927 4:-0.90184 5:-0.326673 6:-0.246469 7:0.723144 8:-0.0405586 9:0.545383 10:0.173773 11:-0.183559 12:-0.577984 13:0.717225 14:-0.565298 15:0.00336539 16:0.678582 17:-0.134221 18:0.357933 19:-0.151565 20:-0.402048 21:0.954387 
-1 1 1 1 1 1 1 1 1 1 1 1 1 0 0 1:0.508815 2:0.740632 3:0.794582 4:0.672554 5:-0.0514517 6:0.198838 7:0.645708 8:0.0240982 9:-0.11045 10:-0.320226 11:0.152059 12:-0.516904 13:0.891977 14:-0.433803 15:0.510372 16:0.726105 17:-0.146681 18:0.667616 19:-0.447851 20:-0.400967 21:0.953132 
-1 1 1 1 1 1 1 1 0 0 0 1 0 0 0 1:-0.861237 2:0.753038 3:0.74151 4:0.736939 5:-0.550031 6:-0.019885 7:0.606509 8:-0.0209402 9:0.687113 10:0.503939 11:-0.762479 12:-0.704118 13:0.719329 14:-0.715938 15:-0.00998745 16:0.585806 17:-0.106274 18:0.505392 19:0.427557 20:-0.404045 21:0.956265 
-1 1 1 1 1 1 1 1 1 1 1 1 0.4985482814169229 0 0 1:-0.0850807 2:0.741305 3:0.343296 4:0.830844 5:-0.371216 6:0.259125 7:0.225725 8:-0.535452 9:0.51908 10:0.28132 11:0.144844 12:-0.609573 13:0.685059 14:-0.542539 15:0.0641787 16:0.62814 17:-0.170756 18:0.404245 19:-0.560503 20:-0.400621 21:0.954319 
-1 1 1 1 1 1 1 1 0 1 1 1 0.3763120746095189 0.7016622846413924 0 1:0.79544 2:0.740272 3:0.247517 4:0.703643 5:-0.270211 6:0.128131 7:0.476873 8:0.172472 9:-0.0648423 10:0.00346335 11:0.0166333 12:-0.547077 13:0.723369 14:-0.507117 15:0.117822 16:0.681753 17:-0.171767 18:0.466065 19:0.394133 20:1 21:0.850284 
-1 1 0 1 1 0 0 0 0 0 1 0 0 0 0 1:-0.547269 2:0.74545 3:0.103364 4:0.724862 5:-0.215041 6:0.68723 7:0.568494 8:-0.15549 9:-0.188862 10:0.0707239 11:0.34468 12:-0.711333 13:0.0152626 14:-0.700178 15:0.155906 16:0.620512 17:-0.178402 18:0.340436 19:0.414435 20:-0.404157 21:0.95502 
-1 1 0.7627484351691214 1 1 1 0 0 0 0 0.4875551906582324 1 1 0 0 1:-0.726307 2:0.749679 3:0.736213 4:0.630727 5:-0.569045 6:-0.106113 7:0.52925 8:-0.823255 9:-0.118106 10:0.161601 11:0.781168 12:-0.737263 13:0.71045 14:-0.633256 15:0.0198543 16:-0.00642993 17:-0.185399 18:0.301382 19:0.0782526 20:-0.402889 21:0.956297 
-0 1 0 1 1 1 0 1 0 0 0 1 0 0 0 1:0.295222 2:0.757611 3:0.626509 4:0.717294 5:-0.514229 6:0.12584 7:0.552916 8:-0.641819 9:0.135998 10:0.705252 11:-0.006715 12:-0.650509 13:0.719861 14:-0.620801 15:0.133147 16:0.638262 17:-0.185448 18:0.424402 19:-0.351788 20:-0.4005 21:0.954425 
-1 1 1 1 1 1 0 0 0 0 0 1 0 0 0 1:-0.726307 2:0.749699 3:0.736494 4:0.663306 5:-0.555914 6:0.399264 7:0.677792 8:0.364024 9:-0.053945 10:0.0828819 11:0.109554 12:-0.654288 13:0.729405 14:-0.672558 15:-0.838959 16:0.425268 17:-0.144081 18:0.50349 19:0.392374 20:-0.404716 21:0.955964 
-1 1 1 1 1 1 0 1 0 0 0 1 0 0 0 1:0.442436 2:0.739823 3:0.595916 4:0.743217 5:-0.359302 6:-0.541139 7:0.555783 8:0.41952 9:0.134516 10:-0.0778883 11:-0.329488 12:-0.612712 13:0.750294 14:-0.763207 15:0.109675 16:0.692768 17:-0.109169 18:0.534547 19:0.343257 20:-0.404557 21:0.955578 
-0 0 0 1 1 0 0 0 1 0 0 1 0 0 0 1:0.796722 2:0.742066 3:0.247602 4:0.703741 5:-0.275971 6:0.380733 7:0.498035 8:0.418129 9:-0.184701 10:-0.044131 11:0.738314 12:-0.670714 13:0.0585477 14:-0.706877 15:0.0455927 16:0.677552 17:-0.159596 18:0.30947 19:0.455512 20:-0.404406 21:0.955035 
-1 1 1 1 1 1 0 1 0 0 0.2554940512139287 1 1 0 0 1:-0.844173 2:0.75443 3:0.735709 4:0.666676 5:-0.51063 6:0.122003 7:0.537611 8:-0.68646 9:-0.168044 10:-0.195147 11:0.508578 12:-0.58374 13:0.691824 14:-0.568925 15:-0.06874 16:0.631065 17:-0.192752 18:0.588258 19:0.328597 20:-0.404236 21:0.955179 
-0 1 0 1 1 0 0 0 0 0 0 1 0 0 0 1:0.400212 2:0.735431 3:0.598222 4:0.77203 5:-0.40445 6:0.0396631 7:0.638237 8:0.0494849 9:-0.0998399 10:0.103484 11:0.370369 12:-0.548835 13:0.742471 14:-0.660403 15:0.00690347 16:0.68174 17:-0.188189 18:0.497012 19:-0.401643 20:-0.401485 21:0.954547 
-0 1 0 1 1 0 0 1 0 0 0 1 0.4122143684707607 0 0 1:0.400212 2:0.735401 3:0.598717 4:0.731811 5:-0.395672 6:-0.350567 7:0.537594 8:-0.269899 9:-0.13437 10:0.0192852 11:-0.343951 12:-0.554772 13:0.719883 14:-0.646435 15:-0.0249228 16:0.69623 17:-0.184431 18:0.522081 19:-0.455959 20:-0.402059 21:0.954242 
-1 1 1 1 1 1 0 1 0 1 1 1 1 0 0 1:0.0231788 2:0.735968 3:0.0394119 4:0.739209 5:-0.161598 6:-0.176333 7:0.517462 8:-0.88977 9:0.411561 10:0.119493 11:0.719846 12:-0.705435 13:0.710563 14:-0.619183 15:0.0337129 16:0.641163 17:-0.152289 18:0.333704 19:0.234373 20:-0.402449 21:0.955056 
-1 1 1 1 1 1 0 1 0 0 0 1 0 0 0 1:-0.87351 2:0.75297 3:0.6265 4:0.63 5:-0.741581 6:0.731068 7:0.559102 8:-0.112914 9:0.638432 10:0.684259 11:0.143124 12:-0.641456 13:0.707178 14:-0.657138 15:0.516001 16:0.568149 17:-0.166244 18:0.411781 19:0.449154 20:-0.402469 21:0.956337 
-1 1 1 1 1 0 1 1 1 0.04267103976678045 0 1 0 0 1 1:0.295213 2:0.757562 3:0.629119 4:0.907026 5:-0.504704 6:0.180835 7:0.356931 8:0.197435 9:0.209912 10:0.623692 11:0.0482943 12:-0.597314 13:0.732695 14:-0.689608 15:0.452457 16:0.651362 17:-0.155708 18:0.493156 19:-0.412243 20:-0.400796 21:0.954769 
-1 1 1 1 1 1 1 1 0 0 0 1 0 0.2206638422140556 1 1:0.315231 2:0.745985 3:0.613158 4:-0.866026 5:-0.44809 6:-0.205347 7:0.552841 8:-0.786272 9:0.467151 10:0.143954 11:-0.767745 12:-0.634418 13:0.67183 14:-0.456753 15:0.0311773 16:0.669118 17:-0.140494 18:0.352687 19:-0.23345 20:-0.401877 21:0.953754 
-1 1 0 1 1 1 0 1 0 0 0 1 0 0 0 1:0.442439 2:0.739884 3:0.592869 4:0.658923 5:-0.436217 6:0.182449 7:0.434951 8:-0.605894 9:0.0442051 10:0.0760081 11:0.34217 12:-0.711312 13:0.711496 14:-0.611241 15:0.0443757 16:0.648374 17:-0.128399 18:0.441836 19:0.329353 20:-0.402958 21:0.954732 
-0 0.5582873688613652 0 1 1 1 0 0 0 0 0 1 0.4089984431487893 0 0 1:0.880236 2:0.731371 3:0.432244 4:0.753501 5:-0.640379 6:0.62526 7:0.596424 8:-0.188657 9:-0.0882711 10:0.0231982 11:0.365498 12:-0.586381 13:0.721633 14:-0.588805 15:0.60818 16:0.676824 17:-0.196898 18:0.365327 19:0.33871 20:-0.402052 21:0.954959 
-1 1 1 1 1 1 1 1 1 1 1 1 1 1 0 1:-0.435325 2:0.73998 3:0.535222 4:0.708838 5:-0.14756 6:0.416175 7:0.614552 8:0.299059 9:-0.167311 10:-0.261435 11:0.099356 12:-0.702684 13:0.718493 14:-0.016577 15:0.624958 16:0.678509 17:-0.0884973 18:0.761906 19:0.398674 20:-0.403717 21:0.953062 
-1 1 0 1 1 0 0 0 0 1 1 1 0 1 1 1:0.059286 2:0.742922 3:0.16252 4:0.826859 5:-0.693769 6:0.344702 7:0.637825 8:0.444873 9:0.633288 10:0.649851 11:-0.357681 12:-0.589085 13:0.730385 14:-0.599747 15:-0.61356 16:0.591238 17:-0.198116 18:0.287565 19:-0.372788 20:-0.401288 21:0.955555 
